29 200
2 1.3770833333333332 0.007916666666666666 0.043333333333333335 0.15333333333333335 0.005416666666666667 0.5916666666666667 0.8125 0.03083333333333333 0.4720833333333333 0.9808333333333333 0.7220833333333333 1.97 2.138333333333333 2.1412500000000003 6.18125 4.477916666666667 10.245 8.088750000000001 10.7475 13.352916666666667 9.705416666666666 3.145 5.506666666666667 10.53375 7.2375 3.1199999999999997 3.5008333333333335 2.6454166666666667 3.2729166666666663 0.9154166666666667 1.3587500000000001 1.0295833333333333 0.7799999999999999 2.78 1.0220833333333335 1.3191666666666668 1.0670833333333332 1.7441666666666669 2.8983333333333334 2.35375 2.651666666666667 3.18125 3.591666666666667 4.3275 4.602083333333333 5.067083333333333 5.4870833333333335 6.479166666666666 5.715 4.4245833333333335 5.097083333333333 3.5454166666666667 2.2408333333333332 1.3720833333333333 0.9458333333333333 0.8129166666666666 0.31666666666666665 0.20249999999999999 0.10958333333333334 0.07583333333333334 0.03958333333333333 0.10583333333333335 0.043750000000000004 0.022083333333333333 0.017083333333333332 0.01125 0.030416666666666668 0.0025 0.005416666666666667 0.014583333333333335 0.005416666666666667 0.0020833333333333333 0.006666666666666667 0.17208333333333334 0.004166666666666667 0.002916666666666667 0.004583333333333333 0.024583333333333332 0.0 0.0025 0.0033333333333333335 0.006666666666666667 0.0020833333333333333 0.6895833333333333 0.0025 0.002916666666666667 0.0 0.0020833333333333333 0.03083333333333333 0.0 0.0 0.28708333333333336 0.0004166666666666667 0.0008333333333333334 0.00125 0.0004166666666666667 0.015 0.00125 0.0 0.0 0.065 0.0008333333333333334 0.0008333333333333334 0.00375 0.0 0.008333333333333333 0.7354166666666667 0.0 0.0033333333333333335 0.03208333333333333 0.0020833333333333333 0.007083333333333334 0.13625 0.0020833333333333333 1.0583333333333333 0.015416666666666665 0.0033333333333333335 0.00625 0.08583333333333333 0.007916666666666666 0.6833333333333333 0.0025 0.7783333333333333 0.21916666666666668 0.012916666666666667 0.06416666666666666 0.7608333333333334 0.14333333333333334 0.03666666666666667 0.009583333333333334 0.0075 0.018333333333333333 0.005 0.4154166666666666 0.002916666666666667 0.022083333333333333 0.0033333333333333335 0.03166666666666666 0.09749999999999999 0.18958333333333333 0.004166666666666667 0.005416666666666667 0.021249999999999998 0.00125 0.022083333333333333 0.0004166666666666667 0.08666666666666667 0.05541666666666667 0.0004166666666666667 0.0025 0.011666666666666667 0.007083333333333334 0.0 0.025 0.00125 0.18041666666666667 0.0020833333333333333 0.03375 0.00125 0.005416666666666667 0.0008333333333333334 0.0375 0.020833333333333336 0.00625 0.0020833333333333333 0.0 0.03791666666666667 0.0 0.0 0.0004166666666666667 0.010416666666666668 0.0 0.007916666666666666 0.08916666666666667 0.00125 0.01583333333333333 0.004166666666666667 0.06125 0.0 0.00125 0.0 0.06291666666666666 0.010416666666666668 0.5025 0.00625 0.00125 0.0 0.04 0.21749999999999997 0.0016666666666666668 0.0 0.16208333333333333 0.00125 0.013333333333333334 0.0325 0.0 0.20875 0.009583333333333334 0.0016666666666666668 0.0
1 101.00748663101604 1.0823529411764705 1.7711229946524063 1.285561497326203 3.775401069518716 5.0203208556149725 4.376470588235295 1.1508021390374332 4.337967914438503 2.797860962566845 5.088770053475936 6.077005347593583 7.2534759358288765 6.3786096256684495 10.763636363636364 3.5978609625668447 3.443850267379679 1.146524064171123 0.7272727272727273 0.5240641711229946 0.6716577540106952 0.040641711229946524 1.1764705882352942 0.36577540106951867 0.1090909090909091 0.6203208556149733 0.613903743315508 0.34010695187165774 0.2288770053475936 0.027807486631016044 0.025668449197860963 0.0021390374331550803 0.0 2.0406417112299464 0.0 0.0042780748663101605 0.0 0.0641711229946524 0.2288770053475936 0.006417112299465241 0.7229946524064171 0.17754010695187167 0.006417112299465241 0.0 0.019251336898395723 0.0 0.13689839572192514 0.0641711229946524 0.0 0.0 0.40641711229946526 0.0021390374331550803 0.0 0.027807486631016044 0.0 0.18609625668449198 0.0 0.0106951871657754 0.06631016042780749 0.0021390374331550803 0.0 0.04919786096256684 0.006417112299465241 0.0 0.0 0.0 0.10053475935828876 0.0 0.0 0.0 0.0 0.0 0.0 0.034224598930481284 0.0 0.006417112299465241 0.0 0.3358288770053476 0.0 0.0 0.0042780748663101605 0.006417112299465241 0.0 0.586096256684492 0.0 0.006417112299465241 0.0 0.0 0.06203208556149732 0.0 0.006417112299465241 0.12406417112299464 0.0 0.006417112299465241 0.0021390374331550803 0.006417112299465241 0.0042780748663101605 0.0 0.0 0.0 2.767914438502674 0.0 0.0042780748663101605 0.0042780748663101605 0.006417112299465241 0.012834224598930482 0.1497326203208556 0.0042780748663101605 0.0213903743315508 0.027807486631016044 0.012834224598930482 0.0213903743315508 0.051336898395721926 0.0042780748663101605 0.9347593582887701 0.059893048128342244 0.047058823529411764 0.012834224598930482 0.5262032085561497 0.027807486631016044 0.22245989304812835 0.0021390374331550803 0.40641711229946526 1.3005347593582888 0.019251336898395723 0.059893048128342244 0.3229946524064171 0.3422459893048128 0.023529411764705882 0.0 0.0 0.0 0.0 0.5775401069518716 0.0 0.0 0.0 0.034224598930481284 0.0748663101604278 0.5176470588235295 0.0 0.006417112299465241 0.0021390374331550803 0.0 0.023529411764705882 0.0 0.18609625668449198 0.047058823529411764 0.0 0.0 0.023529411764705882 0.0 0.0 0.006417112299465241 0.0 0.4 0.0 0.0748663101604278 0.0021390374331550803 0.0021390374331550803 0.0021390374331550803 0.1625668449197861 0.06203208556149732 0.0106951871657754 0.0 0.0 1.7176470588235293 0.0 0.0 0.0 0.029946524064171122 0.0 0.017112299465240642 0.37219251336898396 0.0021390374331550803 0.034224598930481284 0.017112299465240642 0.24385026737967913 0.0 0.023529411764705882 0.008556149732620321 0.2566844919786096 0.047058823529411764 0.8598930481283422 0.023529411764705882 0.006417112299465241 0.012834224598930482 0.16470588235294117 1.1294117647058823 0.038502673796791446 0.0021390374331550803 0.8491978609625669 0.10053475935828876 0.3165775401069519 0.24598930481283424 0.07700534759358289 1.6855614973262032 0.2181818181818182 0.5368983957219252 0.0
2 3.299382716049383 0.07716049382716049 0.21604938271604937 0.5061728395061729 0.2561728395061728 1.287037037037037 1.123456790123457 0.48919753086419754 1.3842592592592593 1.4753086419753088 1.9212962962962963 4.2484567901234565 4.317901234567901 4.962962962962963 11.462962962962962 8.41820987654321 16.578703703703702 7.3657407407407405 12.37037037037037 8.558641975308642 9.012345679012345 1.9120370370370372 2.5941358024691357 6.074074074074074 3.756172839506173 3.0046296296296298 2.501543209876543 1.4012345679012346 2.128086419753086 0.24691358024691357 0.14660493827160495 0.33641975308641975 0.009259259259259259 2.1574074074074074 0.01080246913580247 0.5154320987654321 0.2021604938271605 0.3287037037037037 1.1604938271604939 0.5478395061728395 0.4521604938271605 0.537037037037037 1.2824074074074074 0.02314814814814815 0.7422839506172839 0.05401234567901234 0.91820987654321 3.160493827160494 0.04320987654320988 0.9567901234567902 2.7546296296296298 3.308641975308642 0.0 4.182098765432099 1.0478395061728394 0.7746913580246914 2.802469135802469 2.9012345679012346 0.8796296296296297 2.635802469135802 1.794753086419753 0.9521604938271606 1.0925925925925926 4.419753086419753 1.396604938271605 0.01080246913580247 1.9799382716049383 0.0 0.7654320987654322 4.589506172839506 0.1574074074074074 0.00154320987654321 1.9382716049382713 2.3348765432098766 1.3734567901234567 0.8657407407407407 0.9197530864197531 1.2469135802469136 0.0 0.6311728395061728 0.8734567901234568 2.205246913580247 0.8024691358024691 0.11728395061728394 0.9552469135802469 0.20987654320987653 0.0 0.37808641975308643 1.4737654320987654 0.018518518518518517 0.00154320987654321 0.2222222222222222 0.026234567901234566 0.16049382716049382 0.2345679012345679 0.004629629629629629 0.4305555555555556 0.02160493827160494 0.004629629629629629 0.0 0.3842592592592593 0.0 0.06327160493827161 0.21450617283950618 0.0 0.2824074074074074 0.44753086419753085 0.00154320987654321 0.12191358024691357 0.10339506172839506 0.01080246913580247 0.04938271604938272 0.24537037037037035 0.01080246913580247 0.3580246913580247 0.05864197530864197 0.01234567901234568 0.00617283950617284 0.06790123456790123 0.016975308641975308 0.05092592592592592 0.0 0.10493827160493827 0.10802469135802469 0.0 0.04320987654320988 0.34567901234567905 0.44290123456790126 0.02160493827160494 0.0 0.0 0.0 0.0 0.2561728395061728 0.0 0.0 0.0 0.06790123456790123 0.08950617283950618 0.5478395061728395 0.0 0.007716049382716049 0.015432098765432098 0.0 0.04938271604938272 0.0 0.30246913580246915 0.16049382716049382 0.0 0.0 0.06018518518518519 0.0 0.0 0.00308641975308642 0.0 0.2638888888888889 0.0 0.04783950617283951 0.00617283950617284 0.0 0.0 0.05864197530864197 0.01080246913580247 0.0 0.007716049382716049 0.0 0.0941358024691358 0.0 0.0 0.004629629629629629 0.016975308641975308 0.0 0.004629629629629629 0.12191358024691357 0.01234567901234568 0.015432098765432098 0.027777777777777776 0.11419753086419754 0.0 0.007716049382716049 0.009259259259259259 0.07407407407407407 0.016975308641975308 0.5030864197530864 0.00308641975308642 0.027777777777777776 0.00308641975308642 0.035493827160493825 0.3132716049382716 0.009259259259259259 0.0 0.1697530864197531 0.015432098765432098 0.04475308641975309 0.04938271604938272 0.013888888888888888 0.2808641975308642 0.030864197530864196 0.013888888888888888 0.004629629629629629
2 14.999392835458409 0.07771706132361869 0.13600485731633274 0.30601092896174864 0.1845780206435944 1.7753491196114146 3.70856102003643 0.6411657559198543 2.525804493017608 2.652094717668488 5.304189435336976 11.60655737704918 19.48755312689739 15.647844565877353 21.384335154826957 5.97692774741955 6.360655737704918 6.564663023679416 5.860352155434122 11.40983606557377 8.364298724954462 2.3096539162112935 6.695810564663024 0.8864602307225258 0.689738919247116 0.631451123254402 1.5203400121432908 0.7140255009107468 0.5877352762598664 0.3958712811171827 0.30843958712811176 0.16029143897996356 0.10200364298724954 1.435336976320583 0.038858530661809346 0.02671523982999393 0.06800242865816637 0.024286581663630846 0.07285974499089254 0.007285974499089253 0.143290831815422 0.02185792349726776 0.017000607164541593 0.0 0.02185792349726776 0.0 0.019429265330904673 0.009714632665452336 0.0 0.0 0.1408621736490589 0.0 0.0 0.0 0.0 0.1092896174863388 0.0 0.0 0.014571948998178506 0.03642987249544627 0.0 0.004857316332726168 0.0 0.0 0.0 0.0 0.004857316332726168 0.0 0.0 0.0 0.0 0.0 0.0 0.002428658166363084 0.0 0.004857316332726168 0.0 0.009714632665452336 0.0 0.0 0.0 0.0 0.0 0.2064359441408622 0.0 0.007285974499089253 0.0 0.0 0.009714632665452336 0.0 0.0 0.05100182149362477 0.002428658166363084 0.0 0.002428658166363084 0.0 0.009714632665452336 0.002428658166363084 0.0 0.0 0.7383120825743776 0.002428658166363084 0.004857316332726168 0.017000607164541593 0.004857316332726168 0.029143897996357013 0.14571948998178508 0.014571948998178506 0.024286581663630846 0.009714632665452336 0.012143290831815423 0.038858530661809346 0.029143897996357013 0.017000607164541593 0.10200364298724954 0.007285974499089253 0.08014571948998178 0.0 0.017000607164541593 0.024286581663630846 0.05343047965998786 0.0 0.4347298117789921 0.0 0.0 0.058287795992714025 0.19429265330904677 0.05100182149362477 0.0 0.0 0.0 0.0 0.0 28.162720097146327 0.0 0.0 0.0 0.009714632665452336 0.11171827565270187 0.5343047965998785 0.0 0.05343047965998786 0.012143290831815423 0.0 0.031572556162720096 0.002428658166363084 0.2501517911353977 0.04371584699453552 0.0 0.0 0.058287795992714025 0.0 0.0 0.004857316332726168 0.0 1.2216150576806315 0.0 0.009714632665452336 0.012143290831815423 0.0 0.0 0.07771706132361869 0.0 0.0 0.0 0.0 0.8038858530661809 0.0 0.0 0.0 0.0 0.0 0.002428658166363084 0.20400728597449908 0.002428658166363084 0.004857316332726168 0.007285974499089253 0.0922890103217972 0.0 0.002428658166363084 0.004857316332726168 0.034001214329083186 0.0 2.3315118397085612 0.0 0.002428658166363084 0.004857316332726168 0.029143897996357013 0.2987249544626594 0.0 0.0 0.5901639344262295 0.0 0.007285974499089253 0.038858530661809346 0.009714632665452336 0.31086824529447477 0.0 0.009714632665452336 0.0
1 34.444349680170575 1.9889125799573562 1.5590618336886992 2.338592750533049 0.9449893390191897 4.071641791044776 5.190618336886994 0.5151385927505331 3.196588486140725 2.5006396588486144 5.004690831556504 7.246055437100213 10.121961620469083 7.041364605543709 11.81407249466951 4.264392324093817 5.330490405117271 2.23454157782516 2.3948827292110875 1.7449893390191897 2.130490405117271 0.003411513859275053 2.1646055437100213 2.5159914712153517 0.2712153518123667 0.41620469083155653 1.5437100213219617 0.803411513859275 0.09040511727078891 0.0 0.0 0.0 0.0 1.3492537313432835 0.0 0.0 0.0 0.07505330490405117 0.15692963752665245 0.0017057569296375266 0.35479744136460556 0.0017057569296375266 0.0 0.0 0.018763326226012792 0.0 0.05970149253731343 0.042643923240938165 0.0 0.0 0.006823027718550106 0.0 0.0 0.0017057569296375266 0.0 0.2695095948827292 0.0 0.027292110874200425 0.0 0.0 0.0 0.011940298507462687 0.0 0.0 0.0 0.0 0.12622601279317697 0.0 0.0 0.0 0.0 0.0 0.0 0.03240938166311301 0.0 0.0 0.0 0.0017057569296375266 0.0 0.0 0.0 0.0 0.0 0.6191897654584222 0.0 0.0 0.0 0.0 0.028997867803837955 0.0 0.0 0.13304904051172708 0.0 0.003411513859275053 0.0 0.0 0.044349680170575695 0.0 0.0 0.0 0.1347547974413646 0.0 0.0 0.03070362473347548 0.0 0.044349680170575695 0.3633262260127932 0.01023454157782516 0.05287846481876333 0.11599147121535182 0.07164179104477612 0.2183368869936034 0.2439232409381663 0.06652452025586354 0.6840085287846482 0.1961620469083156 0.11087420042643922 0.15692963752665245 0.25245202558635393 0.08869936034115139 0.3002132196162047 0.0017057569296375266 0.9313432835820895 0.4554371002132196 0.0511727078891258 0.16716417910447762 0.5031982942430704 0.23710021321961622 0.049466950959488276 0.0 0.0 0.0 0.0 1.1633262260127932 0.0 0.0 0.0 0.0955223880597015 0.15692963752665245 0.382089552238806 0.0 0.003411513859275053 0.01535181236673774 0.0 0.06823027718550106 0.0 0.382089552238806 0.18081023454157782 0.0 0.0 0.04776119402985075 0.0 0.0 0.037526652452025584 0.0 0.47249466950959484 0.0 0.13646055437100213 0.0017057569296375266 0.0017057569296375266 0.0017057569296375266 0.28827292110874203 0.06481876332622602 0.0 0.0 0.0 0.19445628997867803 0.0 0.0017057569296375266 0.0017057569296375266 0.022174840085287847 0.0 0.003411513859275053 0.4605543710021322 0.0017057569296375266 0.06481876332622602 0.006823027718550106 0.3257995735607676 0.0 0.003411513859275053 0.00511727078891258 0.544136460554371 0.10575692963752666 2.969722814498934 0.06652452025586354 0.06823027718550106 0.023880597014925373 0.41279317697228146 2.5398720682302773 0.13134328358208955 0.04605543710021322 2.623454157782516 0.5799573560767591 2.0366737739872067 3.866950959488273 1.7961620469083155 34.575692963752665 5.8439232409381665 4.3428571428571425 0.04093816631130064
1 126.88963700234193 0.003659250585480094 0.014637002341920375 0.04610655737704918 0.06074355971896955 0.22760538641686182 0.8935889929742388 0.17344847775175642 0.2854215456674473 0.545228337236534 0.7296545667447306 1.4776053864168617 2.524882903981265 2.7934718969555035 7.74077868852459 8.319672131147541 16.449795081967213 14.347921545667447 7.554888758782201 1.131440281030445 0.390076112412178 0.014637002341920375 0.936768149882904 0.09294496487119439 0.003659250585480094 0.02854215456674473 0.21955503512880561 0.03659250585480094 0.0 0.0007318501170960187 0.0 0.0 0.0 0.7611241217798594 0.0 0.0 0.0 0.0 0.0007318501170960187 0.0 0.009514051522248244 0.0 0.0 0.0 0.0 0.0 0.0 0.0 0.0 0.0 0.019759953161592507 0.0 0.0 0.0 0.0 0.008782201405152224 0.0 0.0 0.0 0.0 0.0 0.0 0.0 0.0 0.0 0.0 0.0 0.0 0.0 0.0 0.0 0.0 0.0 0.0 0.0 0.0 0.0 0.0 0.0 0.0 0.0 0.0 0.0 0.18442622950819673 0.0 0.0 0.0 0.0 0.0 0.0 0.0 0.0 0.0 0.0 0.0 0.0 0.0 0.0 0.0 0.0 0.509367681498829 0.0 0.0 0.0 0.0 0.0 0.0 0.0 0.0 0.0007318501170960187 0.0 0.0 0.0007318501170960187 0.0 0.0014637002341920374 0.0007318501170960187 0.01244145199063232 0.0014637002341920374 0.0029274004683840747 0.003659250585480094 0.010977751756440281 0.0007318501170960187 0.2685889929742389 0.014637002341920375 0.004391100702576112 0.008050351288056206 0.038788056206088994 0.0351288056206089 0.002195550351288056 0.0 0.0 0.0 0.0 1.7513173302107727 0.0 0.0 0.0 0.0029274004683840747 0.02488290398126464 0.23565573770491804 0.0 0.0 0.0 0.0 0.0 0.0 0.015368852459016395 0.0014637002341920374 0.0 0.0 0.0 0.0 0.0 0.0 0.0 0.16978922716627637 0.0 0.0 0.0 0.0 0.0 0.0007318501170960187 0.0 0.0 0.0 0.0 0.3388466042154567 0.0 0.0 0.0 0.0 0.0 0.0 0.008782201405152224 0.0 0.0 0.0 0.0007318501170960187 0.0 0.0 0.0 0.0 0.0 1.4673594847775175 0.0 0.0 0.0 0.0 0.008782201405152224 0.0 0.0 0.12807377049180327 0.0 0.0 0.0 0.0 0.010245901639344262 0.0 0.0 0.0
2 16.366419877023468 0.10515748525536453 0.1470698958464048 0.738612121972644 0.1209687539214456 1.1065378341071652 1.4287865478730077 0.5333166018320994 2.566695946793826 1.3552515999498054 1.8215585393399423 3.5756054712009036 4.412849792947672 4.015560296147572 5.760572217342201 1.9919688794077048 2.440958715020705 1.0114192495921697 0.9157987200401556 0.4444723302798344 0.7137658426402309 0.11720416614380724 1.4935374576483875 0.9070146818923328 0.41736729828083824 0.5943029238298406 1.4548876897979672 1.268164136027105 1.0879658677374826 0.2700464299159242 0.12272556155101016 0.3721922449491781 0.029112812147069893 9.367549253356758 0.017317103777136404 1.1087965867737481 0.201279959844397 2.0996360898481616 4.599071401681516 1.5675743506086086 5.912410591040281 0.03664198770234659 0.429413979169281 0.007027230518258251 0.6271803237545489 0.0007529175555276697 3.3667963358012294 1.3790939892081817 0.0 0.0 0.024344334295394655 0.0017568076295645628 0.0 0.052202283849918436 0.0 5.439578366168905 0.0 0.15259129125360774 0.0002509725185092232 0.0 0.0 0.3292759442841009 0.02007780148073786 0.0005019450370184464 0.0 0.0 0.07579370058978542 0.0 0.0 0.0035136152591291256 0.0 0.0 0.0 0.6813903877525411 0.0 0.0005019450370184464 0.0 0.0918559417743757 0.0 0.0 0.0 0.011293763332915046 0.0 10.930606098632198 0.0 0.0 0.0 0.0032626427406199023 0.23892583762078054 0.0 0.0 1.0091604969255867 0.0 0.0005019450370184464 0.0002509725185092232 0.0 0.03739490525787426 0.0 0.0 0.0 0.3275191366545363 0.0 0.0 0.007027230518258251 0.0 0.0052704228886936875 2.428159116576735 0.0 0.0015058351110553395 0.02635211444346844 0.0 0.0027606977036014556 0.29664951687790186 0.0010038900740368928 1.5565315597942027 0.019826828962228635 0.009787928221859706 0.015309323629062618 0.16137532940143054 0.010791818295896599 2.183460911030242 0.0 20.00953695570335 1.0397791441837119 0.025097251850922327 0.17668465303049316 5.916928096373447 12.864600326264275 0.06826452503450872 0.0027606977036014556 0.0 0.0005019450370184464 0.0 22.347345965616768 0.0 0.021583636591793198 0.0 1.0668841761827081 7.72192244949178 5.80624921571088 0.0 0.0025097251850922323 0.08733843644120969 0.0 0.13477224243945288 0.0 0.6241686535324382 0.6552892458275819 0.0 0.0 0.013803488518007279 0.0020077801480737857 0.0 0.05094742125737232 0.0 1.0726565441084202 0.0005019450370184464 0.12398042414355628 0.0002509725185092232 0.002258752666583009 0.0002509725185092232 0.15409712636466308 0.022838499184339316 0.0035136152591291256 0.0002509725185092232 0.0 0.0702723051825825 0.0 0.0002509725185092232 0.0010038900740368928 0.011042790814405823 0.0 0.002258752666583009 0.3322876145062116 0.0010038900740368928 0.0065252854812398045 0.003011670222110679 0.0885932990337558 0.0 0.0032626427406199023 0.0005019450370184464 0.04893964110929853 0.014054461036516502 1.432300163132137 0.007027230518258251 0.0002509725185092232 0.0 0.023842389258376208 0.243945287990965 0.0015058351110553395 0.0015058351110553395 0.4168653532438198 0.011042790814405823 0.03538712510980048 0.08633454636717279 0.005019450370184465 0.49868239427782657 0.03112059229514368 0.013803488518007279 0.0020077801480737857
1 11.588908450704226 0.14157863849765256 0.24647887323943662 0.44454225352112675 0.10343309859154928 0.92356220657277 3.1558098591549295 0.03227699530516432 0.5090962441314554 1.1084213615023475 0.949237089201878 3.2856514084507045 7.164025821596244 2.871919014084507 7.70099765258216 2.5110035211267605 4.092576291079812 2.373092723004695 3.961267605633803 2.475792253521127 3.8057511737089205 0.6785504694835681 5.509829812206573 3.7617370892018784 0.8384683098591549 1.150968309859155 3.0707159624413145 2.3848298122065725 0.4166666666666667 0.044747652582159625 0.010269953051643192 0.01833920187793427 0.0036678403755868545 3.1462734741784035 0.0007335680751173709 0.01687206572769953 0.005134976525821596 0.22960680751173707 0.4313380281690141 0.07042253521126761 0.9184272300469483 0.029342723004694836 0.019072769953051644 0.0 0.06528755868544601 0.0 0.4467429577464789 0.24794600938967135 0.0 0.0 0.030809859154929578 0.0014671361502347417 0.0 0.013937793427230047 0.0 1.2998826291079812 0.0 0.07995892018779342 0.0007335680751173709 0.0 0.0 0.5421068075117371 0.0227406103286385 0.01613849765258216 0.0 0.0 2.8352406103286385 0.0 0.0 0.04401408450704226 0.012470657276995306 0.005868544600938967 0.0403462441314554 3.676643192488263 0.025674882629107984 0.36678403755868544 0.45994718309859156 5.384389671361502 0.04621478873239437 0.35944835680751175 0.34404342723004694 8.246038732394366 6.425322769953051 9.950117370892018 3.6876467136150235 0.43794014084507044 0.6220657276995305 5.103433098591549 24.724911971830984 0.09829812206572769 0.024941314553990613 5.191461267605633 0.06675469483568075 0.7093603286384977 0.5531103286384976 0.05868544600938967 1.0768779342723005 0.027875586854460094 0.0 0.0 0.6924882629107981 0.0 0.0014671361502347417 0.045481220657277 0.0022007042253521128 0.005134976525821596 0.8612089201877935 0.0007335680751173709 0.02420774647887324 0.012470657276995306 0.0007335680751173709 0.031543427230046946 0.1511150234741784 0.0 0.5523767605633803 0.007335680751173709 0.04401408450704226 0.009536384976525822 0.041079812206572766 0.0227406103286385 0.3301056338028169 0.0 2.0972711267605635 0.15184859154929578 0.017605633802816902 0.07188967136150236 1.2008509389671362 0.7717136150234741 0.04768192488262911 0.013204225352112674 0.0 0.0044014084507042256 0.0 5.093163145539906 0.0 0.02420774647887324 0.0 0.201731220657277 0.5245011737089202 1.111355633802817 0.0 0.013937793427230047 0.05941901408450704 0.0 0.08142605633802817 0.0 0.5743838028169014 0.25088028169014087 0.0 0.0 0.10930164319248827 0.005868544600938967 0.0 0.044747652582159625 0.0 3.009829812206573 0.0014671361502347417 0.10636737089201878 0.0 0.0022007042253521128 0.0014671361502347417 0.3345070422535211 0.03374413145539906 0.005868544600938967 0.0 0.0 0.22373826291079815 0.0 0.0 0.0 0.0227406103286385 0.0 0.010269953051643192 0.7636443661971831 0.0036678403755868545 0.025674882629107984 0.006602112676056337 0.4760856807511737 0.0 0.0 0.0029342723004694834 0.3301056338028169 0.027875586854460094 8.14994131455399 0.023474178403755867 0.013937793427230047 0.0044014084507042256 0.18705985915492956 1.6167840375586855 0.05721830985915493 0.0044014084507042256 1.7458920187793425 0.10049882629107983 0.10123239436619717 0.12397300469483567 0.0755575117370892 0.9411678403755869 0.1738556338028169 0.24354460093896713 0.1657863849765258
3 2.1723533163265305 0.24314413265306123 0.2710459183673469 0.3587372448979592 0.3946109693877551 1.0204081632653061 1.211734693877551 1.1918048469387754 2.5669642857142856 4.830994897959184 8.23501275510204 13.556281887755103 17.90497448979592 17.502391581632654 19.81425382653061 21.595982142857142 21.488360969387756 15.696747448979592 11.866230867346939 8.836894132653061 6.6127232142857135 5.572385204081633 3.90625 2.4952168367346936 2.6307397959183674 1.642219387755102 1.132015306122449 0.8290816326530612 0.5022321428571429 0.26705994897959184 0.18734056122448978 0.17139668367346939 0.13153698979591835 0.1833545918367347 0.007971938775510204 0.027901785714285712 0.043845663265306124 0.011957908163265306 0.05181760204081633 0.011957908163265306 0.01992984693877551 0.003985969387755102 0.01594387755102041 0.0 0.01992984693877551 0.0 0.01594387755102041 0.007971938775510204 0.0 0.0 0.0 0.0 0.0 0.01992984693877551 0.0 0.01594387755102041 0.0 0.007971938775510204 0.0 0.0 0.0 0.0 0.0 0.0 0.0 0.0 0.043845663265306124 0.0 0.0 0.0 0.0 0.0 0.0 0.01594387755102041 0.0 0.0 0.0 0.0 0.0 0.0 0.0 0.003985969387755102 0.0 0.027901785714285712 0.0 0.0 0.0 0.007971938775510204 0.03188775510204082 0.0 0.0 0.011957908163265306 0.0 0.0 0.0 0.0 0.0 0.0 0.0 0.0 0.02391581632653061 0.0 0.0 0.0 0.0 0.0 0.01992984693877551 0.0 0.0 0.007971938775510204 0.0 0.007971938775510204 0.01992984693877551 0.007971938775510204 0.055803571428571425 0.0 0.03587372448979592 0.0 0.003985969387755102 0.011957908163265306 0.0 0.007971938775510204 0.15943877551020408 0.007971938775510204 0.01594387755102041 0.007971938775510204 0.011957908163265306 0.007971938775510204 0.003985969387755102 0.0 0.003985969387755102 0.0 0.0 0.09964923469387756 0.0 0.0 0.0 0.003985969387755102 0.0 0.03188775510204082 0.0 0.0 0.0 0.0 0.011957908163265306 0.0 0.003985969387755102 0.011957908163265306 0.0 0.0 0.01594387755102041 0.0 0.0 0.027901785714285712 0.0 0.08370535714285714 0.0 0.011957908163265306 0.0 0.0 0.003985969387755102 0.007971938775510204 0.02391581632653061 0.0 0.0 0.0 0.03188775510204082 0.0 0.0 0.003985969387755102 0.007971938775510204 0.0 0.007971938775510204 0.04783163265306122 0.007971938775510204 0.01594387755102041 0.0 0.03587372448979592 0.0 0.011957908163265306 0.003985969387755102 0.055803571428571425 0.011957908163265306 0.2232142857142857 0.02391581632653061 0.007971938775510204 0.0 0.03985969387755102 0.5022321428571429 0.011957908163265306 0.003985969387755102 0.14748086734693877 0.03188775510204082 0.06776147959183673 0.04783163265306122 0.027901785714285712 0.3148915816326531 0.027901785714285712 0.06776147959183673 0.0
1 3.3266666666666667 0.7108333333333333 1.1733333333333333 1.4975 1.2433333333333332 4.14 3.129166666666667 2.0925 5.905833333333333 4.588333333333333 8.848333333333333 11.5275 13.095833333333335 8.449166666666667 6.67 1.5666666666666667 1.0383333333333333 0.2775 0.17500000000000002 0.08083333333333333 0.11 0.015 0.2616666666666667 0.03 0.015 0.008333333333333333 0.08333333333333334 0.0125 0.005 0.0 0.0 0.0008333333333333334 0.0 0.11166666666666666 0.0025 0.0016666666666666668 0.0008333333333333334 0.0 0.005 0.0008333333333333334 0.02 0.0008333333333333334 0.0 0.0 0.0008333333333333334 0.0 0.0025 0.0008333333333333334 0.0008333333333333334 0.0008333333333333334 0.0025 0.0033333333333333335 0.0 0.0033333333333333335 0.0008333333333333334 0.03166666666666666 0.0 0.0 0.0 0.0 0.0 0.0016666666666666668 0.0008333333333333334 0.0 0.0 0.0 0.006666666666666667 0.0008333333333333334 0.0 0.0 0.0 0.0 0.0 0.0033333333333333335 0.0 0.0008333333333333334 0.0008333333333333334 0.0016666666666666668 0.0008333333333333334 0.0008333333333333334 0.0025 0.0033333333333333335 0.0 0.10083333333333333 0.0008333333333333334 0.0 0.0 0.0016666666666666668 0.006666666666666667 0.0 0.0008333333333333334 0.01583333333333333 0.0 0.0008333333333333334 0.0 0.0 0.0033333333333333335 0.0 0.0016666666666666668 0.0008333333333333334 0.018333333333333333 0.0025 0.0008333333333333334 0.0008333333333333334 0.0 0.0016666666666666668 0.0325 0.0 0.004166666666666667 0.0025 0.0016666666666666668 0.006666666666666667 0.009166666666666667 0.0016666666666666668 0.0675 0.0075 0.006666666666666667 0.005 0.018333333333333333 0.005833333333333334 0.11916666666666666 0.0033333333333333335 0.14916666666666667 0.08083333333333333 0.0075 0.0325 0.2991666666666667 0.7141666666666667 0.015 0.0008333333333333334 0.0008333333333333334 0.0025 0.0 0.9583333333333333 0.0 0.009166666666666667 0.0008333333333333334 45.25416666666667 45.67583333333333 2.336666666666667 0.0 0.0075 0.07666666666666667 0.0 0.3183333333333333 0.0 1.7925 5.202500000000001 0.0008333333333333334 0.0033333333333333335 0.023333333333333334 0.006666666666666667 0.0 0.0825 0.0016666666666666668 0.76 0.005 0.4641666666666666 0.005833333333333334 0.009166666666666667 0.0016666666666666668 1.0433333333333332 0.15833333333333333 0.024166666666666666 0.006666666666666667 0.0008333333333333334 0.47333333333333333 0.0 0.004166666666666667 0.005833333333333334 0.10250000000000001 0.0016666666666666668 0.06333333333333332 1.2283333333333333 0.03916666666666667 0.1625 0.09666666666666666 0.7541666666666667 0.0008333333333333334 0.05833333333333334 0.035833333333333335 0.8341666666666667 0.22416666666666665 0.5875 0.21416666666666667 0.10583333333333335 0.015 0.4925 2.2725 0.1075 0.0475 1.0475 0.3441666666666667 0.6074999999999999 0.7066666666666667 0.185 1.9949999999999999 0.4266666666666667 0.3575 0.1275
1 4.72618254497002 0.014656895403064623 0.03264490339773484 0.826782145236509 0.019986675549633577 2.980013324450366 6.01798800799467 0.05263157894736842 1.3211192538307794 2.1392405063291138 0.5576282478347768 4.035309793471019 5.634910059960027 1.704197201865423 18.756828780812793 4.920719520319787 7.930712858094603 3.7395069953364426 7.547634910059959 6.095936042638241 8.744836775483012 1.3011325782811458 6.934043970686209 7.5229846768820785 4.420386409060626 4.391738840772818 5.634243837441706 3.307128580946036 3.715522984676882 0.6562291805463025 0.47834776815456365 0.6102598267821452 0.2938041305796136 5.542305129913391 0.07195203197868087 0.2138574283810793 0.05729513657561626 0.31312458361092604 1.1492338441039307 0.20919387075283144 1.7128580946035976 0.04530313124583611 0.1492338441039307 0.008660892738174551 0.16189207195203198 0.007994670219853431 0.6595602931379081 0.2878081279147235 0.001998667554963358 0.003997335109926716 0.04663557628247835 0.009993337774816789 0.0 0.03930712858094604 0.004663557628247834 0.7135243171219188 0.001998667554963358 0.09127248500999333 0.001998667554963358 0.005996002664890073 0.001998667554963358 0.16189207195203198 0.05063291139240507 0.003997335109926716 0.0 0.002664890073284477 0.25782811459027316 0.0006662225183211193 0.001998667554963358 0.009327115256495669 0.0 0.0 0.004663557628247834 0.22984676882078617 0.0013324450366422385 0.0073284477015323115 0.003997335109926716 0.13257828114590273 0.0 0.0006662225183211193 0.0033311125916055963 0.07994670219853431 0.002664890073284477 1.001332445036642 0.002664890073284477 0.0006662225183211193 0.0006662225183211193 0.08461025982678214 0.34110592938041306 0.0 0.0006662225183211193 0.48034643570952695 0.002664890073284477 0.008660892738174551 0.06795469686875416 0.002664890073284477 0.20719520319786808 0.0013324450366422385 0.001998667554963358 0.0 0.5796135909393737 0.011992005329780146 0.034643570952698204 0.13990672884743505 0.015989340439706862 0.5336442371752165 3.4303797468354427 0.022651565622918056 0.7068620919387075 0.5789473684210527 0.7115256495669553 1.307128580946036 1.7948034643570951 4.250499666888741 8.786142571618921 6.426382411725516 5.846768820786143 3.305796135909394 1.3204530313124585 5.890739506995336 0.6655562958027981 0.07661558960692871 2.1459027315123254 3.0353097934710194 0.608927381745503 0.21518987341772153 0.564290473017988 0.2684876748834111 0.04330446369087275 0.0013324450366422385 0.0 0.0 0.0 1.5243171219187208 0.0 0.0 0.0 0.017321785476349102 0.08727514990006663 0.2631578947368421 0.0 0.003997335109926716 0.0 0.0 0.001998667554963358 0.0 0.07728181212524984 0.022651565622918056 0.0 0.0 0.018654230512991338 0.0 0.0 0.0006662225183211193 0.0 0.4643570952698201 0.0 0.0013324450366422385 0.0 0.0 0.001998667554963358 0.016655562958027982 0.0013324450366422385 0.0 0.0 0.0 0.010659560293137908 0.0 0.0 0.0 0.0 0.0 0.0 0.07728181212524984 0.0 0.002664890073284477 0.0 0.023984010659560292 0.0 0.0006662225183211193 0.0 0.015989340439706862 0.003997335109926716 1.4417055296469021 0.0013324450366422385 0.0 0.0 0.023317788141239176 0.17921385742838108 0.0 0.0 0.28980679546968685 0.002664890073284477 0.015989340439706862 0.04663557628247835 0.0 0.2911392405063291 0.005996002664890073 0.005329780146568954 0.0
1 14.36657142857143 0.164 0.1977142857142857 0.18314285714285716 0.13 0.7945714285714285 2.1208571428571426 0.07200000000000001 0.3474285714285714 1.0017142857142856 0.27399999999999997 0.6797142857142857 1.1645714285714286 0.2874285714285714 4.450571428571429 1.0574285714285714 1.0374285714285714 0.9665714285714286 1.8862857142857143 1.274857142857143 8.790857142857144 0.12342857142857143 2.9257142857142857 3.3245714285714287 0.8317142857142856 0.9400000000000001 8.247428571428571 9.922285714285714 0.2694285714285714 0.01685714285714286 0.006 0.006857142857142857 0.0 4.066571428571429 0.0 0.008571428571428572 0.0017142857142857142 0.07885714285714285 2.979142857142857 0.023428571428571427 4.880857142857143 0.001142857142857143 0.012857142857142857 0.0 0.032 0.0 0.7662857142857143 0.3051428571428571 0.0 0.0 0.004571428571428572 0.0005714285714285715 0.0 0.011142857142857144 0.0 2.176857142857143 0.0005714285714285715 0.082 0.0005714285714285715 0.00028571428571428574 0.001142857142857143 0.10828571428571428 0.008 0.0014285714285714286 0.00028571428571428574 0.0 0.033428571428571426 0.0 0.00028571428571428574 0.0037142857142857142 0.0 0.00028571428571428574 0.0005714285714285715 0.24742857142857144 0.00028571428571428574 0.00028571428571428574 0.0 0.07171428571428572 0.0 0.0 0.0005714285714285715 0.008571428571428572 0.0017142857142857142 2.959142857142857 0.0 0.0 0.0 0.012 0.2562857142857143 0.0005714285714285715 0.0 1.4822857142857142 0.0008571428571428571 0.012 0.018857142857142857 0.0008571428571428571 0.22514285714285714 0.03314285714285714 0.002 0.0 1.7702857142857142 0.0025714285714285713 0.13342857142857142 0.3322857142857143 0.0 3.2802857142857142 3.55 0.0008571428571428571 1.929142857142857 2.571428571428571 0.822 7.780285714285714 4.452285714285714 1.0365714285714285 19.24657142857143 8.238 3.005714285714286 4.177428571428572 5.920857142857143 1.0451428571428572 2.4365714285714284 0.001142857142857143 5.904571428571429 5.154285714285714 0.44457142857142856 1.1977142857142857 1.8505714285714285 1.618285714285714 0.336 0.0017142857142857142 0.0008571428571428571 0.0008571428571428571 0.0 5.56 0.0 0.00028571428571428574 0.0 1.4314285714285713 2.0 0.7185714285714285 0.0 0.007714285714285714 0.00028571428571428574 0.0 0.08085714285714286 0.0 1.4054285714285712 1.9802857142857142 0.0 0.0 0.002 0.0 0.0005714285714285715 0.0005714285714285715 0.0 1.5505714285714285 0.0 0.024571428571428574 0.0014285714285714286 0.0 0.0005714285714285715 1.508 0.0 0.0 0.0 0.0 0.010857142857142857 0.0 0.0 0.00028571428571428574 0.0 0.0 0.0 1.886857142857143 0.0008571428571428571 0.0008571428571428571 0.0025714285714285713 0.3928571428571429 0.0 0.004857142857142857 0.005142857142857143 0.02142857142857143 0.002 0.8411428571428572 0.012571428571428572 0.016285714285714285 0.006 0.011714285714285714 0.7291428571428571 0.0074285714285714285 0.006 2.027142857142857 0.027428571428571427 0.06028571428571428 0.07857142857142857 0.044571428571428574 0.25457142857142856 0.08800000000000001 0.10628571428571429 0.052571428571428575
3 3.8724262659988873 1.3971202003338898 1.6969254312743463 1.2879104062326099 2.370617696160267 2.423135781858653 2.3782693377851976 2.337576516416249 3.4216750139120755 3.1305648302726765 5.841332776850306 9.547161936560935 17.541736227045075 23.388286032276014 30.302587646076795 20.050083472454087 18.51349471341124 11.917779632721203 10.00591263216472 6.339732888146911 3.767737896494157 1.232262103505843 0.464663327768503 0.2904145798553144 0.15477184195882024 0.1095575959933222 0.09355870895937674 0.0813856427378965 0.05147468002225932 0.03373678352810239 0.020172509738452978 0.0191291040623261 0.0027824151363383415 0.10538397328881469 0.0 0.004173622704507512 0.0003478018920422927 0.014259877573734 0.01669449081803005 0.0038258208124652194 0.023998330550918198 0.0013912075681691708 0.0017390094602114637 0.0 0.002434613244296049 0.0 0.015651085141903172 0.007999443516972732 0.0 0.0 0.004869226488592098 0.0 0.0 0.0003478018920422927 0.0 0.022259321090706732 0.0 0.002434613244296049 0.0006956037840845854 0.0 0.0 0.004173622704507512 0.0 0.0 0.0 0.0 0.12486087924318309 0.0 0.0 0.0 0.0 0.0 0.0003478018920422927 0.006956037840845855 0.0 0.0 0.0 0.004869226488592098 0.0 0.0 0.0 0.0017390094602114637 0.0006956037840845854 0.03582359488035615 0.0 0.0 0.0 0.0003478018920422927 0.006260434056761268 0.0 0.0 0.016346688925987757 0.0 0.0006956037840845854 0.0003478018920422927 0.0 0.0038258208124652194 0.0 0.0 0.0 0.015651085141903172 0.0 0.0 0.004521424596549806 0.0 0.007651641624930439 0.03164997217584863 0.0 0.008695047301057317 0.014259877573734 0.009390651085141904 0.0191291040623261 0.030258764607679466 0.020868113522537562 0.15511964385086255 0.09390651085141903 0.562047857540345 0.7126460767946577 1.0430578742348358 0.8855036171396772 0.6775180856983862 0.3046744574290484 0.35684474123539234 0.4271007234279355 0.3603227601558152 0.1951168614357262 0.22328881469115192 0.1958124652198108 0.2045075125208681 0.06538675570395103 0.06086533110740123 0.07582081246521981 0.011825264329437953 0.5853505843071786 0.0027824151363383415 0.07129938786867002 0.023650528658875906 0.06086533110740123 0.15964106844741235 0.1439899833055092 0.006608235948803562 0.03164997217584863 0.05460489705063996 0.0006956037840845854 0.03721480244852532 0.0003478018920422927 0.08521146355036172 0.07060378408458541 0.0003478018920422927 0.0027824151363383415 0.04730105731775181 0.007651641624930439 0.0 0.03686700055648302 0.004869226488592098 0.09703672787979967 0.003130217028380634 0.050083472454090144 0.004173622704507512 0.010086254869226489 0.007303839732888146 0.05321368948247078 0.023998330550918198 0.01286867000556483 0.006608235948803562 0.0017390094602114637 0.050083472454090144 0.0 0.0027824151363383415 0.004521424596549806 0.01843350027824151 0.001043405676126878 0.010434056761268781 0.09599332220367279 0.008695047301057317 0.026085141903171953 0.017737896494156927 0.07303839732888147 0.0 0.019824707846410685 0.013216471897607125 0.14572899276572066 0.032345575959933225 0.17529215358931552 0.0333889816360601 0.22641903171953257 0.03686700055648302 0.05147468002225932 0.6427378964941569 0.018781302170283808 0.02330272676683361 0.667779632721202 0.18955203116304953 0.4921396772398442 0.9352392877017252 0.2792849193099611 1.1870478575403451 0.6514329437952142 0.6305648302726767 0.2389398998330551
3 0.40943113772455086 0.06511976047904192 0.0905688622754491 0.11152694610778442 0.11788922155688622 0.24962574850299402 0.26235029940119764 0.25 0.4041916167664671 0.5610029940119761 1.0355538922155687 2.0651197604790417 5.151946107784431 9.016467065868264 12.32559880239521 14.238023952095807 17.164296407185628 17.60366766467066 26.6687874251497 26.43001497005988 26.642215568862277 21.503368263473057 9.659805389221557 3.9472305389221556 1.8042664670658681 0.7050898203592815 0.4786676646706587 0.29752994011976047 0.18637724550898202 0.14408682634730538 0.10217065868263474 0.07784431137724551 0.03630239520958083 0.056886227544910184 0.0 0.001122754491017964 0.00037425149700598805 0.00561377245508982 0.0074850299401197605 0.0037425149700598802 0.010104790419161677 0.0 0.0007485029940119761 0.0 0.001122754491017964 0.00037425149700598805 0.0018712574850299401 0.0007485029940119761 0.0 0.0 0.00037425149700598805 0.0 0.0 0.00037425149700598805 0.0 0.0029940119760479044 0.0 0.001122754491017964 0.0 0.0 0.0 0.0 0.0007485029940119761 0.0 0.0 0.0 0.0007485029940119761 0.0 0.0 0.0 0.0 0.0 0.0 0.0 0.0 0.0 0.0 0.0 0.0 0.0 0.0 0.0 0.0 0.00037425149700598805 0.0 0.0 0.0 0.0 0.0 0.0 0.0 0.00037425149700598805 0.0 0.0 0.0 0.0 0.0 0.0 0.0 0.0 0.0 0.0 0.0 0.0 0.0 0.0 0.0 0.0 0.0 0.0 0.0 0.0 0.0 0.0 0.0 0.0 0.0 0.0 0.0 0.0 0.0 0.0 0.0 0.0 0.0 0.0 0.00037425149700598805 0.0 0.0 0.0 0.0 0.0 0.0 0.0014970059880239522 0.0 0.0 0.0 0.0 0.0007485029940119761 0.001122754491017964 0.0 0.0 0.0 0.0 0.0 0.0 0.0007485029940119761 0.0 0.0 0.0 0.00037425149700598805 0.0 0.0 0.0 0.0 0.004116766467065869 0.0 0.0 0.0 0.0 0.0 0.0 0.0 0.0 0.0 0.0 0.0014970059880239522 0.0 0.0 0.0 0.0 0.0 0.0 0.0033682634730538923 0.0 0.0 0.0 0.0037425149700598802 0.0 0.0 0.0 0.0018712574850299401 0.0 0.013847305389221557 0.0 0.0 0.0 0.002245508982035928 0.012350299401197605 0.0 0.0 0.02619760479041916 0.0 0.0018712574850299401 0.0007485029940119761 0.0007485029940119761 0.014970059880239521 0.002245508982035928 0.0014970059880239522 0.00037425149700598805
2 4.369039839095483 0.0 0.026648224403428736 0.35784758484604307 0.0038068892004898196 1.545597015398867 2.3767678241724775 0.007613778400979639 0.8121363627711615 1.3083009219016681 1.352714629240716 3.463000209378906 3.3056487890919937 2.7777601532907386 6.415877265892177 2.8665875679688346 3.8969855782347453 1.8273068162351136 2.1927681794821363 1.05704623466934 1.4872247143246895 0.2093789060269401 2.343774784434899 2.9896769854513385 1.5037212341934787 3.612737851264839 5.841036996618213 6.151932947991549 8.24825993439461 1.8425343730370727 0.8768534791794884 0.7727985076994335 0.05964126414100718 9.92329118261013 0.007613778400979639 0.9796394875927137 0.18273068162351136 0.3502338064450634 0.9618740046570944 0.17257897708887182 1.814617185566814 0.00126896306682994 0.01649651986878922 0.0 0.01649651986878922 0.0 0.2664822440342874 0.06091022720783711 0.0 0.0 0.00253792613365988 0.0 0.0 0.00507585226731976 0.0 0.63194360728131 0.0 0.00253792613365988 0.0 0.0 0.0 0.00253792613365988 0.00126896306682994 0.0 0.0 0.0 0.00126896306682994 0.0 0.0 0.0 0.0 0.0 0.0 0.025379261336598798 0.0 0.0 0.0 0.00253792613365988 0.0 0.0 0.0 0.0 0.0 1.8983687479775901 0.0 0.0 0.0 0.0 0.021572372136108978 0.0 0.0 0.09263430387858562 0.0 0.0 0.0 0.0 0.0 0.0 0.0 0.0 0.01649651986878922 0.0 0.0 0.0 0.0 0.0 0.2779029116357568 0.0 0.0 0.00126896306682994 0.0 0.0 0.02411029826976886 0.0 0.7778743599667532 0.013958593735129338 0.0 0.012689630668299399 0.3108959513733353 0.01015170453463952 1.748631106091657 0.0 6.884124637552425 7.660730034452347 0.47966803926171725 16.825181303098173 7.955129465956894 9.403016325209855 13.279698494375323 0.0038068892004898196 0.0 0.0 0.0 20.177781725662875 0.0 0.0444137073390479 0.0 1.4542316745871111 2.641981105139935 3.8386132771605688 0.0 0.0 0.04822059653953772 0.0 0.29439943150454606 0.0 2.3628092304373483 1.3349491463050966 0.0 0.0 0.00253792613365988 0.0 0.0 0.02284133520293892 0.0 3.17494559320851 0.0 0.07486882094296646 0.0 0.0 0.0 0.23475816736353888 0.0038068892004898196 0.0 0.0 0.0 0.04822059653953772 0.0 0.0 0.0 0.0 0.0 0.0 0.6433642748827796 0.0 0.0 0.0 0.10786186068054489 0.0 0.0 0.0 0.02411029826976886 0.00253792613365988 2.0823683926679317 0.0 0.0 0.0 0.01649651986878922 0.6014884936773915 0.0 0.0 1.079887569872279 0.00126896306682994 0.00253792613365988 0.01015170453463952 0.0 0.6344815334149699 0.0038068892004898196 0.0 0.0
2 9.590018706684138 0.25019159929788126 0.3100200252169399 0.7144799624218151 0.4789570405531245 1.7384855002595863 2.4381319686518825 0.77134168953497 2.346988388670507 2.113278449405424 3.0537219708769068 5.182493180713162 7.998879247117769 7.85482953843111 15.391563038229211 9.77626146505476 12.709337684491581 7.832084847585849 7.9795957048793955 6.606838240747607 5.907851038756624 4.6532670770600015 7.986518002093171 3.4980675253611544 4.323304243203376 2.060372320700141 3.390936735147964 1.9677453913158134 2.716177573405193 1.1733293777349254 1.4197301952252632 1.0068646114036606 0.6651997989237477 2.5038937921827484 0.4522567512999909 0.8886911089684953 0.9966459821833255 0.7186003774300147 1.7468911468763133 0.7751324713425136 1.068506019926327 0.4761551583475488 0.7637601259198826 0.2783752379539667 0.683329624959826 0.1562461371109298 0.5926804947794342 0.7350820374628132 0.1300402976587802 0.17140926434110446 0.5354891344656234 0.42489719564554546 0.036424468672484694 0.5893841627728745 0.16217953472273727 0.5035147140019943 0.1808038105597996 0.39836172299273986 0.18871500737554286 0.26832142533395964 0.1583887529151936 0.3054051604077563 0.18047417735914362 0.24887306649525742 0.17899082795619176 0.10960303921811006 0.24409338508574585 0.037907818075436556 0.1091085894171261 0.22827099145425928 0.09559362819023132 0.0496097966987235 0.17701302875225594 0.32633686864941036 0.1519609055024022 0.07186003774300148 0.16926664853684062 0.20206515200210964 0.016152026832142535 0.09641771119187124 0.16448696712732908 0.21640419623064436 0.062300674923978346 0.308701492414316 0.12245873404369287 0.10515299100925446 0.021920607843622007 0.033457769866580965 0.2521693985018171 0.021426158042638057 0.007251930414431342 0.1597072857178175 0.0637840243269302 0.05554319431053096 0.05257649550462723 0.02159097464296604 0.10597707401089437 0.022415057644605964 0.017470559634766413 0.0013185328026238802 0.25151013210050516 0.0319744204636291 0.026700289253133575 0.026535472652805592 0.023074324045917905 0.05455429470856305 0.1189975854368052 0.008076013416071268 0.03560038567084477 0.021755791243294024 0.02455767344886977 0.02917253825805335 0.04928016349806752 0.01944835883870223 0.10498817440892647 0.01796500943575037 0.0496097966987235 0.016481660032798502 0.024063223647885816 0.02785400545542947 0.047302364294131705 0.007087113814103357 0.2590916957155925 0.04450048208855596 0.029666988059037308 0.022909507445589918 0.1682777489348727 0.1112512052213899 0.1641573339266731 0.04697273109347574 0.2101411654181809 9.408390813122699 0.021096524841982083 0.9419268708744344 0.007746380215415297 0.3866597443694529 0.7457951164841323 0.1620147181224093 0.1389403940764914 0.19959290299718987 0.018789092437390294 0.03049107106067723 0.057356176914138794 0.00395559840787164 0.061146958721682444 0.0021426158042638054 0.26436582692608795 0.1308643806604201 0.0014833494029518651 0.011866795223614921 0.043676399086916035 0.028018822055757453 0.0 0.06312475792561827 0.013679777827222758 0.803810559799583 0.023403957246573875 0.1046585412082705 0.008240830016399251 0.03593001887150074 0.004614864809183581 0.09015468037940781 0.10811968981515817 0.08389164956694438 0.0067574806134473855 0.0 0.24046741987853015 0.00016481660032798502 0.004450048208855596 0.013679777827222758 0.10597707401089437 0.00016481660032798502 0.03972080067904439 0.2932087319834854 0.01730574303443843 0.05059869630069141 0.027689188855101486 0.35056490889762415 0.00016481660032798502 0.013020511425910819 0.012526061624926864 0.3093607588156279 0.04334676588626006 11.064797646418947 0.036589285272812674 0.021920607843622007 0.0018129826036078355 0.16465178372765704 1.3557813542980048 0.011866795223614921 0.0028018822055757456 0.49774613299051484 0.037248551674124615 0.14602750789059474 0.18558349196931115 0.03560038567084477 1.29891962718485 0.1201513016391011 0.09526399498957536 0.008405646616727236
1 120.16 0.009444444444444445 0.02722222222222222 0.04111111111111111 0.05333333333333334 0.10388888888888889 0.10666666666666667 0.14722222222222223 0.2577777777777778 0.1738888888888889 0.20277777777777778 0.2816666666666667 0.33 0.37333333333333335 0.7655555555555555 1.1983333333333335 5.198888888888889 15.178888888888888 29.60333333333333 13.651666666666667 4.386111111111111 1.2661111111111112 0.6277777777777778 0.5166666666666666 0.2594444444444444 0.2616666666666667 0.18833333333333335 0.1411111111111111 0.10111111111111111 0.022222222222222223 0.012222222222222221 0.002777777777777778 0.0005555555555555556 1.2316666666666667 0.0005555555555555556 0.007222222222222222 0.0044444444444444444 0.014444444444444444 0.03666666666666667 0.005 0.08944444444444445 0.051111111111111114 0.0033333333333333335 0.0 0.005555555555555556 0.0 0.01888888888888889 0.011111111111111112 0.0 0.0 0.1138888888888889 0.0022222222222222222 0.0 0.005555555555555556 0.0 0.07166666666666667 0.0 0.0022222222222222222 0.02 0.006666666666666667 0.0 0.0016666666666666668 0.0 0.0 0.0 0.0 0.003888888888888889 0.0 0.0 0.0 0.0 0.0 0.0016666666666666668 0.006666666666666667 0.0 0.005 0.0 0.03611111111111111 0.0 0.0 0.0005555555555555556 0.0005555555555555556 0.0 0.09722222222222222 0.0 0.0 0.0 0.0 0.005 0.0 0.0011111111111111111 0.03166666666666666 0.0 0.0022222222222222222 0.0 0.0 0.0011111111111111111 0.0 0.0 0.0 1.25 0.0 0.0 0.0016666666666666668 0.0016666666666666668 0.0044444444444444444 0.028888888888888888 0.0011111111111111111 0.011111111111111112 0.003888888888888889 0.0005555555555555556 0.010555555555555556 0.003888888888888889 0.003888888888888889 0.012222222222222221 0.0011111111111111111 0.06777777777777778 0.0005555555555555556 0.0016666666666666668 0.0022222222222222222 0.0011111111111111111 0.0 0.06555555555555556 0.0011111111111111111 0.0 0.0061111111111111106 0.0061111111111111106 0.002777777777777778 0.0005555555555555556 0.0005555555555555556 0.0 0.0 0.0 0.08388888888888889 0.0 0.0 0.0 0.0011111111111111111 0.0011111111111111111 0.003888888888888889 0.0 0.007777777777777778 0.0 0.0 0.006666666666666667 0.0 0.0022222222222222222 0.0005555555555555556 0.0 0.0 0.015 0.0 0.0 0.0011111111111111111 0.0 0.028888888888888888 0.0 0.0 0.0011111111111111111 0.0 0.0 0.0 0.0 0.0 0.0 0.0 0.6822222222222223 0.0 0.0 0.0 0.0005555555555555556 0.0005555555555555556 0.0 0.0061111111111111106 0.0 0.0 0.0 0.002777777777777778 0.0 0.0016666666666666668 0.0005555555555555556 0.0 0.0005555555555555556 0.0661111111111111 0.0 0.0005555555555555556 0.0005555555555555556 0.0 0.015555555555555557 0.0 0.0 0.009444444444444445 0.0005555555555555556 0.0022222222222222222 0.0016666666666666668 0.003888888888888889 0.006666666666666667 0.0 0.0005555555555555556 0.005555555555555556
1 108.49416666666667 0.13 0.22083333333333335 0.3125 0.23500000000000001 1.1175 1.1191666666666666 0.4691666666666667 1.5125 1.23 2.5149999999999997 4.315833333333333 7.420833333333333 8.308333333333334 16.0075 8.186666666666667 11.271666666666667 5.0616666666666665 4.031666666666666 1.8758333333333332 1.1741666666666666 0.21666666666666665 0.6558333333333334 0.6591666666666667 0.2658333333333333 0.20166666666666666 0.3375 0.19416666666666665 0.0725 0.01916666666666667 0.01916666666666667 0.004166666666666667 0.0033333333333333335 1.0025 0.0 0.005833333333333334 0.0025 0.02666666666666667 0.05 0.0033333333333333335 0.12416666666666668 0.004166666666666667 0.0008333333333333334 0.0 0.0008333333333333334 0.0 0.03166666666666666 0.008333333333333333 0.0 0.0 0.0825 0.0008333333333333334 0.0 0.0008333333333333334 0.0 0.11083333333333334 0.0 0.0033333333333333335 0.0 0.0 0.0 0.0025 0.0025 0.0 0.0 0.0 0.014166666666666668 0.0 0.0 0.0 0.0 0.0 0.0 0.0325 0.0 0.0 0.0 0.016666666666666666 0.0 0.0 0.0 0.0008333333333333334 0.0 0.31166666666666665 0.0 0.0 0.0 0.0016666666666666668 0.03833333333333334 0.0 0.0 0.08750000000000001 0.0 0.0008333333333333334 0.0 0.0 0.011666666666666667 0.0 0.0 0.0 0.61 0.0 0.0008333333333333334 0.0016666666666666668 0.0 0.016666666666666666 0.23500000000000001 0.0 0.016666666666666666 0.06666666666666667 0.006666666666666667 0.043333333333333335 0.14833333333333332 0.01583333333333333 0.5566666666666666 0.10250000000000001 0.12333333333333332 0.0775 0.19583333333333333 0.10666666666666667 0.29333333333333333 0.0033333333333333335 0.6266666666666667 0.24583333333333332 0.04083333333333333 0.0825 0.8033333333333333 0.2525 0.018333333333333333 0.0008333333333333334 0.0 0.0 0.0 1.3808333333333334 0.0 0.0016666666666666668 0.0008333333333333334 0.03333333333333333 0.13 0.44083333333333335 0.0 0.011666666666666667 0.0016666666666666668 0.0 0.01 0.0 0.17583333333333334 0.04083333333333333 0.0 0.0 0.043333333333333335 0.0 0.0 0.004166666666666667 0.0 0.30833333333333335 0.0 0.010833333333333334 0.0025 0.0 0.0008333333333333334 0.04416666666666667 0.0075 0.0 0.0 0.0 0.4866666666666667 0.0 0.0 0.0 0.0016666666666666668 0.0 0.0025 0.11416666666666667 0.0 0.005 0.0008333333333333334 0.04583333333333333 0.0 0.0 0.0 0.02916666666666667 0.006666666666666667 0.4991666666666667 0.0125 0.025 0.004166666666666667 0.034166666666666665 0.3125 0.014166666666666668 0.0475 0.31 0.12166666666666667 0.11666666666666668 0.11083333333333334 0.06666666666666667 0.4325 0.08416666666666667 0.08166666666666667 0.05416666666666666
1 2.898550724637681 0.055741360089186176 0.10351966873706005 0.09157509157509157 0.09953814301640387 0.23491001751871315 0.6290810638636726 0.01990762860328078 0.15926102882624624 0.410097149227584 0.21102086319477625 0.5056537665233317 3.607262302914477 0.10351966873706005 2.2734511864946647 1.99872591176939 0.27074374900461856 1.6483516483516485 3.149386845039019 0.4260232521102086 2.536231884057971 0.01990762860328078 0.9834368530020704 1.891224717311674 0.179168657429527 0.4260232521102086 5.665711100493709 1.3776078993470298 0.00796305144131231 0.0 0.0 0.0 0.0 5.844879757923236 0.0 0.0 0.0 1.309921962095875 1.8792801401497052 0.1512979773849339 6.903965599617773 0.0 0.027870680044593088 0.0 0.08759356585443542 0.0 0.43000477783086477 0.2229654403567447 0.0 0.0 0.01592610288262462 0.0 0.0 0.01990762860328078 0.0 0.6330625895843287 0.0 0.03185220576524924 0.0 0.0 0.0 0.09953814301640387 0.01990762860328078 0.0 0.0 0.0 0.03981525720656156 0.0 0.0 0.01592610288262462 0.0 0.0 0.0 0.2787068004459309 0.0 0.0 0.0 0.07564898869246695 0.0 0.0 0.0 0.027870680044593088 0.0 0.8321388756171364 0.0 0.0 0.0 0.01990762860328078 0.1433349259436216 0.0 0.0 0.3822264691829909 0.0 0.0 0.0 0.0 0.047778308647873864 0.0 0.0 0.0 0.3663003663003663 0.0 0.003981525720656155 0.0358337314859054 0.0 0.1512979773849339 0.5733397037744864 0.0 0.08361204013377926 0.3105590062111801 0.27472527472527475 2.1659499920369485 0.589265806657111 0.15926102882624624 9.06195254021341 12.764771460423635 45.62828475871954 6.179327918458354 7.616658703615226 13.166905558209907 19.19891702500398 0.023889154323936932 3.3166109253065774 15.591654722089505 2.886606147475713 1.0829749960184742 2.6875298614429046 0.4976907150820194 0.4738015607580825 0.023889154323936932 0.003981525720656155 0.027870680044593088 0.0 1.5488135053352443 0.0 0.10351966873706005 0.0 0.07564898869246695 0.17518713170887085 0.5414874980092371 0.0 0.0 0.0 0.0 0.01990762860328078 0.0 0.03981525720656156 0.0358337314859054 0.0 0.0 0.0 0.0 0.0 0.0 0.0 0.14731645166427776 0.0 0.0 0.0 0.0 0.0 0.0358337314859054 0.0 0.0 0.0 0.0 0.0 0.0 0.0 0.0 0.0 0.0 0.0 0.059722885809842335 0.0 0.0 0.0 0.0 0.0 0.0 0.0 0.0 0.0 0.37028189202102246 0.0 0.0 0.0 0.0 0.07564898869246695 0.0 0.0 0.12342729734034083 0.0 0.0 0.00796305144131231 0.0 0.051759834368530024 0.00796305144131231 0.06370441153049848 0.04379678292721771
1 7.766874491732177 1.7197072377338034 1.3434535104364327 1.8682569802114395 1.621035510978585 5.963675792897805 4.023854703171591 0.573597180807807 4.35673624288425 3.737598265112497 0.8468419625914883 4.727568446733532 3.2030360531309294 0.43372187584711297 6.613174301978857 3.560856600704798 2.0016264570344267 1.0452697207915425 2.4418541610192466 0.5009487666034156 2.2542694497153697 0.149634047167254 2.3919761452968284 1.206831119544592 0.07264841420439143 0.16698292220113853 2.589319598807265 0.8793711032800217 0.04770940634318244 0.02385470317159122 0.01626457034426674 0.02060178910273787 0.01192735158579561 6.647872052046624 0.009758742206560042 0.02060178910273787 0.014095960965031174 0.03686635944700461 0.17999457847655193 0.03686635944700461 1.3141772838167525 0.007590132827324478 0.017348875033884523 0.009758742206560042 0.022770398481973434 0.007590132827324478 0.11385199240986717 0.0314448359989157 0.0054215234480889125 0.008674437516942262 0.010843046896177825 0.01301165627541339 0.0054215234480889125 0.014095960965031174 0.006505828137706695 0.5031173759826512 0.007590132827324478 0.01301165627541339 0.0054215234480889125 0.01192735158579561 0.0021686093792355654 0.024939007861209 0.01301165627541339 0.0032529140688533475 0.0054215234480889125 0.006505828137706695 0.05529953917050691 0.0054215234480889125 0.009758742206560042 0.007590132827324478 0.004337218758471131 0.0021686093792355654 0.007590132827324478 0.050962320412035786 0.004337218758471131 0.004337218758471131 0.0054215234480889125 0.010843046896177825 0.0032529140688533475 0.0010843046896177827 0.0054215234480889125 0.006505828137706695 0.0021686093792355654 3.3461642721604767 0.0021686093792355654 0.004337218758471131 0.0054215234480889125 0.0054215234480889125 0.018433179723502304 0.0 0.004337218758471131 0.09867172675521822 0.0054215234480889125 0.0021686093792355654 0.007590132827324478 0.0054215234480889125 0.03361344537815126 0.0010843046896177827 0.0 0.0 0.10409325020330712 0.0021686093792355654 0.006505828137706695 0.02602331255082678 0.009758742206560042 0.05746814854974248 0.847926267281106 0.01192735158579561 0.05529953917050691 0.1550555706153429 0.049878015722418 0.08023854703171591 0.3827595554350772 0.018433179723502304 35.416644076985634 3.2388181078883167 0.08999728923827596 2.4451070750881 11.917592843589048 0.10734616427216048 26.809433450799673 0.008674437516942262 11.000271076172405 5.353212252642993 0.0693955001355381 0.13445378151260504 11.346164272160477 0.45866088370832203 0.04120357820547574 0.004337218758471131 0.006505828137706695 0.0032529140688533475 0.0 0.8988885876931418 0.0 0.010843046896177825 0.0021686093792355654 0.022770398481973434 0.08457576579018704 0.3458931959880726 0.0 0.0021686093792355654 0.007590132827324478 0.0 0.009758742206560042 0.0 0.07156410951477366 0.019517484413120085 0.0010843046896177827 0.0010843046896177827 0.0032529140688533475 0.0 0.0 0.0054215234480889125 0.0010843046896177827 0.3437245866088371 0.0010843046896177827 0.022770398481973434 0.0010843046896177827 0.006505828137706695 0.0010843046896177827 0.02819192193006235 0.008674437516942262 0.0021686093792355654 0.0032529140688533475 0.0 0.022770398481973434 0.0 0.0 0.0054215234480889125 0.01301165627541339 0.0 0.008674437516942262 0.09758742206560043 0.0054215234480889125 0.0021686093792355654 0.01626457034426674 0.03361344537815126 0.0 0.007590132827324478 0.022770398481973434 0.050962320412035786 0.01301165627541339 1.7988614800759015 0.02060178910273787 0.08891298454865817 0.0314448359989157 0.07373271889400922 0.5920303605313093 0.017348875033884523 0.03252914068853348 0.5345622119815668 0.13336947682298725 0.32312279750609924 0.43914339929520196 0.20927080509623203 1.2599620493358634 0.3404716725399837 0.5204662510165357 0.0813228517213337
1 0.5805204666252503 0.5529095050735142 0.6274591012632015 0.6074411541381929 1.283909712155726 1.3487954718023056 1.6635604334920964 2.10878718851384 2.771450265755505 1.9721129288327466 2.4021536550010354 2.75626423690205 2.7811141022986123 2.7341754676606613 4.976875819700421 3.53972527093256 6.8226685994339755 7.022157796645267 13.305032097742803 19.3304341823704 20.177400427969904 17.71726375371022 13.425139780492856 6.230413474149237 7.23338165251605 2.0597777317595085 4.337682059777732 1.7712431835438671 3.310554290053151 0.7247877407330711 0.4797404569614137 0.710982259957203 0.060744115413819286 2.9999309725961205 0.02208876924138883 1.3846897218195624 0.18361289431904465 1.2335197073238076 3.1718092082556777 1.3135914958238422 1.0319596879961346 0.14771864430178783 3.983571477876717 0.002070822116380203 2.4228618761648373 0.0 2.219231034720784 2.262028025125975 0.0 0.047628908676744665 0.4086422309656934 0.08490370677158832 0.0 0.9297991302547111 0.0773106923448609 1.2645820390695106 0.05039000483191827 0.8614620004141643 0.060744115413819286 0.11389521640091116 0.05729274521985229 0.662663077241665 0.18292262028025127 0.1366742596810934 0.10630220197418376 0.0034513701939670053 0.3044108511078898 0.0006902740387934009 0.07593014426727411 0.132532615448333 0.04693863463795127 0.008973562504314213 0.15945330296127563 0.7668944570994685 0.15186028853454822 0.07938151446124111 0.30372057706909644 0.5998481397114654 0.024849865396562438 0.5839718368192172 1.2266169669358735 2.406985573272589 0.43349209636225583 1.206599019810865 0.3492786636294609 0.03382342790087665 0.031062331745703043 0.12424932698281217 0.742044591702906 0.10561192793539034 0.0034513701939670053 0.5273693656381583 0.1297715192931594 0.14771864430178783 0.2257196106854421 0.0027610961551736038 0.5777593704700766 0.031062331745703043 0.0048319182715538065 0.0 0.7096017118796162 0.0034513701939670053 0.17947125008628426 0.12839097121557258 0.004141644232760406 0.2195071443363015 0.449368399254504 0.0013805480775868019 0.020017947125008626 0.022779043280182234 0.013115206737074617 0.018637399047421826 0.02830123559052944 0.0069027403879340105 0.030372057706909643 0.0006902740387934009 0.0034513701939670053 0.0027610961551736038 0.0034513701939670053 0.0 0.0034513701939670053 0.0 1.1831297024918892 0.0 0.0 0.002070822116380203 0.016566576931041625 0.002070822116380203 0.002070822116380203 0.0 0.0 0.0 0.0 0.05384137502588527 0.0 0.0006902740387934009 0.0 0.0006902740387934009 0.0034513701939670053 0.0048319182715538065 0.0006902740387934009 0.0006902740387934009 0.004141644232760406 0.0 0.0027610961551736038 0.0 0.0048319182715538065 0.008283288465520813 0.0 0.0006902740387934009 0.0034513701939670053 0.0006902740387934009 0.0 0.0069027403879340105 0.0006902740387934009 0.009663836543107613 0.0013805480775868019 0.0055221923103472076 0.0 0.002070822116380203 0.0 0.004141644232760406 0.0013805480775868019 0.0006902740387934009 0.0 0.0 0.002070822116380203 0.0 0.0 0.002070822116380203 0.004141644232760406 0.0 0.0027610961551736038 0.0062124663491406095 0.0006902740387934009 0.0006902740387934009 0.002070822116380203 0.0048319182715538065 0.0 0.0 0.0 0.007593014426727411 0.0 0.020017947125008626 0.0 0.0 0.0 0.0027610961551736038 0.024159591357769034 0.0006902740387934009 0.0 0.0069027403879340105 0.004141644232760406 0.0055221923103472076 0.011734658659487817 0.0069027403879340105 0.060744115413819286 0.03382342790087665 0.0648857596465797 0.1435770000690274
2 1.2880696130066407 0.030532020456453705 0.27097168155102663 0.3988245172124265 0.036256774292038774 1.396839935882757 1.081978474925578 0.28051293794366844 2.2536447599419893 1.268987100221357 3.5665216395694985 4.824059232119685 5.841157163575299 5.719029081749484 12.674604991985344 4.175253797420044 6.940309900007632 1.860544996565148 1.7956644530951835 1.2613540951072437 1.3052438745133959 0.4159987787191817 2.289901534234028 3.1829631325852987 3.938630638882528 5.434699641248759 11.073582169300053 14.645828562705137 28.827952064727885 12.756659796962063 6.37355927028471 1.2556293412716586 0.2499809174872147 4.352721166323182 0.007633005114113426 0.272879932829555 0.09159606136936112 0.11258682543317305 0.3148614609571789 0.12403633310434317 0.3568429890848027 0.00572475383558507 0.03434852301351042 0.0 0.03244027173498206 0.0 0.06869704602702084 0.06297229219143577 0.0 0.0 0.0 0.0 0.0 0.003816502557056713 0.0 0.10877032287611632 0.0 0.00572475383558507 0.0 0.0 0.0 0.009541256392641782 0.0 0.0 0.0 0.0 0.0 0.0 0.0 0.0 0.0 0.0 0.0 0.01717426150675521 0.0 0.0 0.0 0.0019082512785283565 0.0 0.0 0.0 0.0 0.0 0.1316693382184566 0.0 0.0 0.0 0.0 0.00572475383558507 0.0 0.0 0.0706052973055492 0.0 0.0 0.0 0.0 0.003816502557056713 0.0 0.0 0.0 0.026715517899396992 0.0 0.0 0.0 0.0 0.003816502557056713 0.10304556904053126 0.0 0.0 0.026715517899396992 0.0 0.009541256392641782 0.07633005114113425 0.0 0.16601786123196702 0.030532020456453705 0.01717426150675521 0.036256774292038774 0.08587130753377605 0.07823830241966262 0.16410960995343868 0.03244027173498206 0.20418288680253416 0.4446225478971071 0.7690252652469277 0.3549347378062743 3.2669261888405465 4.289748874131746 6.799099305396535 2.8051293794366843 2.7097168155102667 3.118082589115335 0.20418288680253416 2.3147088008548966 0.00572475383558507 2.291809785512556 0.1717426150675521 0.7384932447904741 1.860544996565148 1.5743073047858942 0.00572475383558507 0.10877032287611632 1.1812075414090528 0.0 0.599190901457904 0.0 0.3702007480345012 0.6736127013205099 0.0 0.0019082512785283565 0.246164414930158 0.059155789634379057 0.0 0.4045492710480116 0.0 0.29196244561483853 0.009541256392641782 0.5953743989008472 0.0019082512785283565 0.01717426150675521 0.0019082512785283565 0.4026410197694832 0.299595450728952 0.08396305625524769 0.0 0.0 0.30722845584306546 0.0 0.0 0.007633005114113426 0.18128387146019387 0.0 0.09159606136936112 0.6965117166628502 0.028623769177925352 0.09922906648347454 0.06488054346996412 0.3301274711854057 0.0 0.015266010228226852 0.0 0.3682924967559728 0.09732081520494619 0.5343103579879399 0.007633005114113426 0.0 0.0 0.1889168765743073 0.7232272345622471 0.0 0.0 0.3702007480345012 0.0 0.11831157926875811 0.1412105946110984 0.0 0.5362186092664682 0.043889779406152206 0.0019082512785283565 0.0
3 1.4373543123543122 0.06963869463869464 0.10722610722610723 0.1955128205128205 0.1282051282051282 0.5055361305361306 0.5332167832167832 0.41637529137529133 0.9367715617715617 1.1107226107226107 2.179195804195804 5.321969696969697 10.807983682983684 11.90588578088578 14.871794871794872 18.07837995337995 23.630244755244757 20.429778554778554 20.344696969696972 15.872377622377623 12.352855477855478 11.65530303030303 8.390442890442891 5.8243006993007 3.745920745920746 1.8208041958041958 1.5206876456876457 1.0544871794871795 0.6800699300699301 0.4460955710955711 0.4618298368298368 0.5833333333333334 0.2552447552447552 0.22581585081585082 0.1150932400932401 0.017773892773892772 0.0 0.0 0.001456876456876457 0.0 0.0020396270396270395 0.0020396270396270395 0.0 0.0 0.002331002331002331 0.0 0.0008741258741258741 0.0 0.0 0.0 0.0034965034965034965 0.0 0.0 0.0002913752913752914 0.0 0.002331002331002331 0.0 0.0 0.0 0.0 0.0 0.0 0.0 0.0 0.0 0.0 0.10664335664335664 0.0 0.0 0.0 0.0 0.0 0.0 0.0 0.0 0.0 0.0 0.0005827505827505828 0.0 0.0 0.0 0.0 0.0 0.015442890442890442 0.0 0.0 0.0 0.0 0.0026223776223776225 0.0 0.0 0.0020396270396270395 0.0 0.0002913752913752914 0.0 0.0 0.0 0.0 0.0 0.0 0.0017482517482517483 0.0 0.0 0.0 0.0 0.0 0.001456876456876457 0.0 0.0020396270396270395 0.0 0.0 0.0026223776223776225 0.0002913752913752914 0.0002913752913752914 0.0020396270396270395 0.0 0.01078088578088578 0.0 0.0005827505827505828 0.0017482517482517483 0.0011655011655011655 0.0 0.012237762237762238 0.003205128205128205 0.0005827505827505828 0.012237762237762238 0.009906759906759906 0.01078088578088578 0.012237762237762238 0.008158508158508158 0.0017482517482517483 0.013694638694638694 0.0 0.19726107226107226 0.0 0.021853146853146852 0.007284382284382284 0.010198135198135198 0.047494172494172496 0.04020979020979021 0.004662004662004662 0.015151515151515152 0.03117715617715618 0.0017482517482517483 0.016025641025641024 0.0005827505827505828 0.030303030303030304 0.032342657342657344 0.001456876456876457 0.0026223776223776225 0.03671328671328671 0.008158508158508158 0.0002913752913752914 0.024766899766899768 0.004662004662004662 0.04516317016317017 0.004370629370629371 0.039335664335664336 0.007867132867132868 0.005244755244755245 0.002913752913752914 0.03292540792540793 0.021853146853146852 0.013403263403263404 0.006118881118881119 0.0 0.040501165501165504 0.0 0.002331002331002331 0.007284382284382284 0.020396270396270396 0.0008741258741258741 0.017191142191142192 0.050990675990675985 0.011363636363636364 0.02651515151515152 0.0168997668997669 0.045454545454545456 0.0002913752913752914 0.011655011655011656 0.009906759906759906 0.06585081585081586 0.017191142191142192 0.08041958041958042 0.020687645687645688 0.013986013986013986 0.001456876456876457 0.03583916083916084 0.14073426573426573 0.00844988344988345 0.002331002331002331 0.05536130536130537 0.017191142191142192 0.05011655011655012 0.038461538461538464 0.006701631701631702 0.13374125874125875 0.0270979020979021 0.022144522144522144 0.001456876456876457
3 1.4333333333333333 0.24444444444444444 0.3111111111111111 0.4722222222222222 0.46444444444444444 1.2944444444444445 1.3544444444444443 1.3066666666666666 2.3044444444444445 3.155555555555556 4.97 7.246666666666666 12.117777777777777 12.682222222222222 14.627777777777778 12.05111111111111 8.795555555555556 5.322222222222222 3.82 2.16 1.3566666666666667 0.6533333333333333 0.6122222222222222 0.29555555555555557 0.3111111111111111 0.42 1.001111111111111 1.0422222222222222 1.9544444444444444 1.7366666666666666 2.4455555555555555 3.0155555555555558 2.0566666666666666 2.32 1.7855555555555556 1.5277777777777777 0.7788888888888889 0.9444444444444444 1.488888888888889 0.6566666666666667 0.9400000000000001 0.51 0.8955555555555555 0.9288888888888889 0.9833333333333333 0.41111111111111115 0.8588888888888889 1.2644444444444445 0.20777777777777778 0.17222222222222222 0.2 0.24555555555555555 0.005555555555555556 0.2188888888888889 0.03888888888888889 0.5 0.05 0.8022222222222222 0.13555555555555557 0.1811111111111111 0.13777777777777778 0.47000000000000003 0.9188888888888889 0.1411111111111111 0.24444444444444444 0.16333333333333333 0.8622222222222222 0.07111111111111111 0.15 0.5577777777777778 0.15666666666666668 0.07666666666666667 0.33666666666666667 0.8688888888888888 0.17666666666666667 0.1711111111111111 0.21666666666666665 0.8611111111111112 0.0033333333333333335 0.1977777777777778 0.29444444444444445 0.8022222222222222 0.0988888888888889 0.31555555555555553 0.18444444444444444 0.05444444444444444 0.0 0.2777777777777778 1.2444444444444445 0.08 0.0 0.21666666666666665 0.14333333333333334 0.15666666666666668 0.21222222222222223 0.01888888888888889 0.9655555555555556 0.09777777777777777 0.11333333333333334 0.0 1.1755555555555555 0.32666666666666666 0.4066666666666666 0.5922222222222222 0.53 2.5877777777777777 2.038888888888889 0.2533333333333333 2.703333333333333 1.1244444444444444 2.3933333333333335 3.138888888888889 3.4155555555555557 3.464444444444444 6.762222222222222 3.2177777777777776 5.7155555555555555 2.0633333333333335 2.8899999999999997 1.1022222222222222 0.5877777777777777 0.12444444444444445 0.33333333333333337 0.5888888888888889 0.3 0.23888888888888887 0.22555555555555554 0.18666666666666668 0.2988888888888889 0.03777777777777778 0.0 0.012222222222222221 0.0 0.7766666666666666 0.0 0.09 0.0033333333333333335 0.2588888888888889 0.21222222222222223 0.3288888888888889 0.0 0.0033333333333333335 0.2033333333333333 0.0 0.08222222222222222 0.0 0.13555555555555557 0.07888888888888888 0.0 0.0011111111111111111 0.09 0.0033333333333333335 0.0 0.09666666666666666 0.0 0.18 0.0033333333333333335 0.13999999999999999 0.0 0.007777777777777778 0.0 0.13999999999999999 0.10555555555555554 0.01888888888888889 0.0 0.0 0.1288888888888889 0.0 0.0 0.005555555555555556 0.06999999999999999 0.0 0.024444444444444442 0.44999999999999996 0.01 0.06333333333333332 0.017777777777777778 0.17222222222222222 0.0 0.008888888888888889 0.0033333333333333335 0.26 0.07333333333333333 0.4555555555555556 0.044444444444444446 0.0044444444444444444 0.0011111111111111111 0.15555555555555556 0.6766666666666666 0.016666666666666666 0.0 0.3 0.04666666666666667 0.16 0.1688888888888889 0.028888888888888888 0.4855555555555556 0.15 0.07333333333333333 0.0011111111111111111
1 111.84665646665555 0.027772307474790318 0.09089118809931376 0.1757229636586733 0.16915860007372285 0.24995076727311288 0.48525795424133633 0.4423371154166604 0.6746145961149067 1.0876645509217882 1.2608627593554804 2.6686662728048516 3.8643903473558243 5.56557041794798 9.931882104030015 12.244052939067556 11.87947828458031 11.151843828740803 7.534374542388115 4.775322032528946 3.331666994884846 1.9869823620599982 1.9723387817551088 1.065446704941956 0.5009114366362182 0.664515575214983 0.3479112700023733 0.2494458162281167 0.1514853134988563 0.11613874034912317 0.06513868480450821 0.04393074091466832 0.011108922989916128 0.6882482743298037 0.009089118809931377 0.024237650159817006 0.03433667105974076 0.02726735642979413 0.07927731406440146 0.012623776124904692 0.06311888062452345 0.07018819525447008 0.02575250329480557 0.012623776124904692 0.0853367266043557 0.027772307474790318 0.03837627941971026 0.018178237619862755 0.012118825079908503 0.006059412539954252 0.11260408303414984 0.009594069854927565 0.01060397194491994 0.016158433439878002 0.007069314629946627 0.03635647523972551 0.003029706269977126 0.007069314629946627 0.02373269911482082 0.013633678214897065 0.0040396083599695005 0.008079216719939001 0.005554461494958064 0.0020198041799847502 0.0010099020899923751 0.0 0.12421795706906216 0.0 0.0 0.0020198041799847502 0.0035346573149733136 0.003029706269977126 0.007069314629946627 0.005554461494958064 0.0010099020899923751 0.019693090754851317 0.0035346573149733136 0.032316866879756004 0.001514853134988563 0.001514853134988563 0.009594069854927565 0.002524755224980938 0.0010099020899923751 0.06867334211948152 0.001514853134988563 0.01060397194491994 0.01464358030488944 0.0020198041799847502 0.02827725851978651 0.001514853134988563 0.003029706269977126 0.01918813970985513 0.002524755224980938 0.012623776124904692 0.005049510449961876 0.0040396083599695005 0.0040396083599695005 0.0040396083599695005 0.003029706269977126 0.0 0.14896055827387536 0.0010099020899923751 0.0040396083599695005 0.0040396083599695005 0.006564363584950439 0.01060397194491994 0.013633678214897065 0.0035346573149733136 0.014138629259893254 0.007069314629946627 0.005049510449961876 0.02726735642979413 0.00858416776493519 0.011613874034912316 0.011108922989916128 0.006564363584950439 0.04292083882467595 0.002524755224980938 0.006564363584950439 0.018683188664858942 0.004544559404965689 0.002524755224980938 0.02272279702482844 0.00858416776493519 0.002524755224980938 0.02120794388983988 0.010099020899923752 0.009594069854927565 0.006564363584950439 0.008079216719939001 0.009089118809931377 0.001514853134988563 0.001514853134988563 0.12926746751902402 0.0020198041799847502 0.004544559404965689 0.006564363584950439 0.013128727169900878 0.019693090754851317 0.013633678214897065 0.0040396083599695005 0.015653482394881818 0.005554461494958064 0.002524755224980938 0.025247552249809384 0.002524755224980938 0.012118825079908503 0.004544559404965689 0.0020198041799847502 0.0005049510449961876 0.04140598568968739 0.002524755224980938 0.001514853134988563 0.007574265674942814 0.005049510449961876 0.02928716060977888 0.0020198041799847502 0.006059412539954252 0.009594069854927565 0.0010099020899923751 0.01060397194491994 0.005554461494958064 0.0010099020899923751 0.002524755224980938 0.0005049510449961876 0.0005049510449961876 0.11916844661910028 0.0 0.001514853134988563 0.0005049510449961876 0.002524755224980938 0.0040396083599695005 0.009594069854927565 0.009594069854927565 0.0005049510449961876 0.016663384484874193 0.007069314629946627 0.03635647523972551 0.005554461494958064 0.01918813970985513 0.006564363584950439 0.005554461494958064 0.001514853134988563 0.07624760779442433 0.0040396083599695005 0.010099020899923752 0.020198041799847504 0.011108922989916128 0.05200995763460733 0.0035346573149733136 0.016158433439878002 0.032316866879756004 0.01060397194491994 0.032821817924752195 0.02120794388983988 0.01918813970985513 0.026257454339801756 0.017673286574866567 0.015148531349885627 0.0005049510449961876
2 5.637345679012346 0.24537037037037035 0.5648148148148148 0.9151234567901234 0.48919753086419754 3.3873456790123457 2.817901234567901 0.3719135802469136 2.2391975308641974 1.8811728395061729 2.6790123456790123 5.54320987654321 7.231481481481482 7.680555555555555 19.035493827160494 5.958333333333334 7.089506172839506 1.9043209876543212 6.057098765432099 1.0493827160493827 3.160493827160494 0.220679012345679 2.9074074074074074 2.7901234567901234 0.7592592592592593 0.3719135802469136 1.9444444444444444 1.4506172839506173 0.5509259259259259 0.1280864197530864 0.04938271604938272 0.18364197530864199 0.00617283950617284 2.1604938271604937 0.00617283950617284 0.3719135802469136 0.13117283950617284 0.30092592592592593 0.6466049382716049 0.3117283950617284 0.8410493827160495 0.12345679012345678 0.48456790123456783 0.00617283950617284 0.3256172839506173 0.009259259259259259 0.6990740740740741 0.5478395061728395 0.00154320987654321 0.01080246913580247 0.23919753086419754 0.06481481481481481 0.0 0.36728395061728397 0.009259259259259259 0.558641975308642 0.027777777777777776 0.6033950617283951 0.00308641975308642 0.026234567901234566 0.00154320987654321 0.5108024691358025 0.18981481481481483 0.04783950617283951 0.00617283950617284 0.0 0.34413580246913583 0.0 0.0 0.05092592592592592 0.0 0.0 0.013888888888888888 0.7453703703703703 0.020061728395061727 0.06018518518518519 0.02160493827160494 0.3487654320987654 0.0 0.0 0.0 0.4182098765432099 0.02314814814814815 0.75 0.00154320987654321 0.00154320987654321 0.0 0.18209876543209877 1.2222222222222223 0.0 0.0 1.0169753086419753 0.0 0.00308641975308642 0.029320987654320986 0.0 0.34567901234567905 0.0 0.0 0.0 0.7191358024691359 0.0 0.004629629629629629 0.07253086419753087 0.0 0.14814814814814814 1.251543209876543 0.0 0.04320987654320988 0.37808641975308643 0.033950617283950615 0.2037037037037037 0.8688271604938272 0.09567901234567902 2.2793209876543212 0.7021604938271605 1.3024691358024691 1.3657407407407407 2.864197530864198 3.3811728395061724 4.8734567901234565 2.0 3.9675925925925926 9.69135802469136 8.583333333333334 3.265432098765432 5.362654320987654 3.888888888888889 4.890432098765432 1.2098765432098766 0.44290123456790126 0.9305555555555555 0.01234567901234568 4.7253086419753085 0.007716049382716049 0.9166666666666666 0.13734567901234568 0.31790123456790126 1.125 2.5200617283950617 0.02314814814814815 0.14969135802469136 0.3271604938271605 0.00308641975308642 0.19907407407407407 0.0 0.404320987654321 0.7962962962962963 0.00154320987654321 0.004629629629629629 0.42592592592592593 0.04938271604938272 0.00308641975308642 0.21604938271604937 0.00154320987654321 1.1064814814814816 0.009259259259259259 0.41512345679012347 0.01080246913580247 0.020061728395061727 0.0 0.33024691358024694 0.15123456790123457 0.038580246913580245 0.009259259259259259 0.0 0.17592592592592593 0.0 0.00308641975308642 0.013888888888888888 0.06172839506172839 0.0 0.06327160493827161 0.5617283950617284 0.016975308641975308 0.08333333333333334 0.05555555555555555 0.41358024691358025 0.0 0.05246913580246913 0.015432098765432098 0.3117283950617284 0.08333333333333334 1.726851851851852 0.033950617283950615 0.04938271604938272 0.00617283950617284 0.24691358024691357 1.1296296296296295 0.02314814814814815 0.0 1.1435185185185186 0.04320987654320988 0.1574074074074074 0.22530864197530864 0.038580246913580245 1.2376543209876543 0.06327160493827161 0.09876543209876544 0.05092592592592592
1 134.23551968609266 0.05127747803986267 0.11147277834752753 0.11593168948142864 0.12819369509965667 0.14268515628483525 0.20288045659250012 0.20176572880902482 0.25415793463236275 0.25861684576626387 0.2764524903018683 0.555134436170687 0.6075266419940251 0.841619476523833 1.3031167788825968 1.8894635929905916 3.5035894234627905 3.139073438266375 3.757747358095153 4.095509876488162 5.919204530253712 3.6128327462433676 4.87693405270433 3.882596869844384 2.236143933651402 4.328487983234494 2.275159406073037 2.0800820439648637 1.5483568912471575 1.7478931644892317 0.6710661256521158 0.2898292237035716 0.008917822267802203 4.484549872921033 0.006688366700851652 0.18281535648994515 0.23520756231328308 0.3901547242163464 0.6777544923529674 0.044589111339011014 0.5083158692647255 0.4548089356579123 0.1359967895839836 0.020065100102554956 0.5005127747803986 0.030097650153832433 0.17501226200561823 0.05016275025638739 0.011147277834752754 0.0 0.46595621349266503 0.007803094484326927 0.007803094484326927 0.047933294689436835 0.005573638917376377 0.13376733401703306 0.0011147277834752754 0.006688366700851652 0.05796584474071432 0.02898292237035716 0.003344183350425826 0.020065100102554956 0.003344183350425826 0.003344183350425826 0.003344183350425826 0.0 0.39907254648414864 0.0 0.0 0.0022294555669505507 0.0044589111339011014 0.003344183350425826 0.008917822267802203 0.016720916752129132 0.0022294555669505507 0.030097650153832433 0.005573638917376377 0.04681856690596156 0.0 0.008917822267802203 0.016720916752129132 0.0022294555669505507 0.0 0.07914567262674455 0.0011147277834752754 0.0022294555669505507 0.008917822267802203 0.0 0.03567128907120881 0.0011147277834752754 0.003344183350425826 0.013376733401703304 0.0011147277834752754 0.012262005618228027 0.010032550051277478 0.007803094484326927 0.0011147277834752754 0.0011147277834752754 0.0 0.0 0.16832389530476657 0.0011147277834752754 0.003344183350425826 0.0011147277834752754 0.0044589111339011014 0.006688366700851652 0.010032550051277478 0.0 0.0022294555669505507 0.005573638917376377 0.0 0.01449146118517858 0.007803094484326927 0.006688366700851652 0.005573638917376377 0.0011147277834752754 0.044589111339011014 0.0 0.0 0.0011147277834752754 0.0 0.0 0.030097650153832433 0.003344183350425826 0.0011147277834752754 0.017835644535604406 0.015606188968653853 0.007803094484326927 0.005573638917376377 0.007803094484326927 0.0022294555669505507 0.0 0.0 0.2842555847861952 0.0 0.0 0.006688366700851652 0.005573638917376377 0.015606188968653853 0.013376733401703304 0.0044589111339011014 0.024524011236456054 0.006688366700851652 0.0 0.03901547242163464 0.005573638917376377 0.013376733401703304 0.003344183350425826 0.003344183350425826 0.0 0.06688366700851653 0.0011147277834752754 0.0011147277834752754 0.012262005618228027 0.0011147277834752754 0.017835644535604406 0.0 0.0 0.008917822267802203 0.0 0.005573638917376377 0.0 0.0 0.0 0.0 0.0 0.1081285949971017 0.0 0.0 0.0 0.0 0.0 0.0044589111339011014 0.003344183350425826 0.0 0.012262005618228027 0.0 0.010032550051277478 0.0 0.0044589111339011014 0.0022294555669505507 0.0011147277834752754 0.0 0.036786016854684085 0.0011147277834752754 0.003344183350425826 0.005573638917376377 0.0022294555669505507 0.02675346680340661 0.008917822267802203 0.020065100102554956 0.015606188968653853 0.01449146118517858 0.030097650153832433 0.036786016854684085 0.04235965577206046 0.04124492798858519 0.04570383912248629 0.02675346680340661 0.0
1 15.18313636744615 0.13515212471712346 0.8140558209705809 0.5406084988684938 0.24411197720224623 2.33739837398374 0.8685357472131422 0.8894895649987429 3.4573799346240888 2.403402900008382 5.568477076523343 8.687452853909983 12.310367949040316 13.28891123962786 19.867362333417148 16.266448746961697 25.084862962031686 14.927499790461823 19.5603889028581 15.836895482356885 11.37373229402397 1.9413712178358897 0.8653926745453021 1.7548822395440449 0.16239208783840414 0.28287654010560725 0.17077361495264437 0.13829519738496354 0.053432235353281364 0.0073338362249601875 0.009429218003520241 0.0073338362249601875 0.0 0.5825161344396949 0.0 0.017810745117760454 0.0020953817785600536 0.02200150867488056 0.05762299891040148 0.01676305422848043 0.09848294359232253 0.0 0.0 0.0 0.0 0.0 0.017810745117760454 0.0020953817785600536 0.0 0.0 0.0010476908892800268 0.0 0.0 0.0 0.0 0.09429218003520241 0.0 0.0 0.0 0.0 0.0 0.0 0.0 0.0 0.0 0.0 0.0 0.0 0.0 0.0 0.0 0.0 0.0 0.005238454446400134 0.0 0.0 0.0 0.0010476908892800268 0.0 0.0 0.0 0.0 0.0 0.194870505406085 0.0 0.0 0.0 0.0 0.004190763557120107 0.0 0.0 0.01676305422848043 0.0 0.0 0.0 0.0 0.0 0.0 0.0 0.0 0.014667672449920375 0.0 0.0 0.0 0.0 0.0010476908892800268 0.024096890453440614 0.0 0.0 0.0010476908892800268 0.0 0.009429218003520241 0.008381527114240214 0.010476908892800268 0.009429218003520241 0.010476908892800268 0.04400301734976112 0.012572290671360321 0.006286145335680161 0.008381527114240214 0.010476908892800268 0.0020953817785600536 0.07543374402816193 0.028287654010560725 0.020953817785600536 0.005238454446400134 0.005238454446400134 0.017810745117760454 0.008381527114240214 0.0 0.0 0.0 0.0 0.312211885005448 0.0 0.0 0.0 0.051336853574721314 0.03666918112480094 0.01676305422848043 0.0 0.0020953817785600536 0.006286145335680161 0.0 0.009429218003520241 0.0 0.06076607157824156 0.06600452602464169 0.0 0.0 0.011524599782080295 0.0031430726678400803 0.0 0.008381527114240214 0.0 0.0817198893638421 0.0020953817785600536 0.018858436007040482 0.0 0.0020953817785600536 0.0 0.06181376246752158 0.0020953817785600536 0.0020953817785600536 0.0 0.0 0.02933534489984075 0.0 0.0 0.0 0.0031430726678400803 0.0 0.004190763557120107 0.07543374402816193 0.004190763557120107 0.0157153633392004 0.0010476908892800268 0.03352610845696086 0.0 0.0031430726678400803 0.004190763557120107 0.09953063448160254 0.019906126896320507 0.26820886765568686 0.008381527114240214 0.012572290671360321 0.0 0.39707484703713014 0.313259575894728 0.005238454446400134 0.0 0.07543374402816193 0.014667672449920375 0.0586706897996815 0.41383790126561054 0.02304919956416059 0.7229067136032186 0.08800603469952224 0.02933534489984075 0.012572290671360321
3 0.9007108461362073 0.055950470075670715 0.08071543224031186 0.11832148589772987 0.20178858060077962 0.4228387984407246 0.5081403347855996 0.8520981426278376 1.9087365283191926 2.736986929603302 4.554001375831231 7.713827103875258 14.312313689520753 19.890850722311395 20.37606053657418 8.730107773446457 18.1123595505618 10.476496216464113 15.600091722082091 11.246961706030726 8.396239394634259 4.093556523733088 3.400137583123137 3.5368034854391195 4.570511350607659 2.576473285943591 5.339142398532447 3.455170832377895 5.097913322632424 2.134372850263701 1.6500802568218298 1.1401054803944048 0.9098830543453337 1.888557670259115 0.5393258426966292 0.5099747764274248 0.6833295115799128 0.572345792249484 1.2859435909195138 0.5659252465030956 1.2217381334556294 0.4063288236642972 0.7062600321027288 0.4466865397844531 0.7640449438202248 0.19720247649621644 0.5567530382939693 0.5356569594129786 0.13391423985324466 0.13391423985324466 0.3632194450814033 0.163265306122449 0.02751662462737904 0.33753726209584956 0.03944049529924329 0.21004356798899332 0.028433845448291677 0.1293281357486815 0.031185507911029583 0.04127493694106856 0.022013299701903234 0.07337766567301078 0.0449438202247191 0.033937170373767485 0.03668883283650539 0.011006649850951617 0.2036230222426049 0.0018344416418252694 0.022930520522815866 0.09355652373308875 0.021096078880990597 0.009172208209126348 0.07796376977757395 0.14858977298784684 0.04127493694106856 0.03577161201559275 0.02476496216464114 0.05228158679202018 0.0009172208209126347 0.0018344416418252694 0.009172208209126348 0.04127493694106856 0.006420545746388443 0.5989451960559505 0.002751662462737904 0.0 0.0009172208209126347 0.005503324925475808 0.14583811052510892 0.0 0.0 0.2375601926163724 0.0 0.0036688832836505388 0.0 0.002751662462737904 0.010089429030038982 0.0 0.0 0.0 0.028433845448291677 0.0 0.0 0.0 0.0 0.0 0.042192157761981194 0.0 0.0 0.0 0.0 0.0 0.0009172208209126347 0.0 0.0018344416418252694 0.0 0.0 0.0 0.0 0.0 0.0009172208209126347 0.0 0.019261637239165328 0.0 0.0 0.0009172208209126347 0.0018344416418252694 0.0 0.0 0.0 0.0 0.0 0.0 0.05228158679202018 0.0 0.0 0.0 0.0 0.0018344416418252694 0.0018344416418252694 0.0 0.0009172208209126347 0.0 0.0 0.0 0.0 0.0036688832836505388 0.0009172208209126347 0.0 0.0 0.0 0.0 0.0 0.0 0.0 0.005503324925475808 0.0 0.0009172208209126347 0.0 0.0009172208209126347 0.0 0.0009172208209126347 0.0 0.0 0.0009172208209126347 0.0 0.0 0.0 0.0 0.0018344416418252694 0.0 0.0 0.0 0.005503324925475808 0.0009172208209126347 0.0 0.0 0.0018344416418252694 0.0 0.0 0.0 0.0 0.0 0.0898876404494382 0.0018344416418252694 0.002751662462737904 0.0 0.0009172208209126347 0.014675533134602155 0.0018344416418252694 0.0009172208209126347 0.009172208209126348 0.0009172208209126347 0.0 0.0018344416418252694 0.0018344416418252694 0.04127493694106856 0.0009172208209126347 0.009172208209126348 0.0036688832836505388
