366 200
1 68.14166366870528 5.164488148059319 4.872686573130271 4.452971979054244 4.165167685973538 4.241116041092057 5.136507175120918 5.452292441140025 5.388335931566535 5.780069552704161 5.760083143462445 5.716113043130671 5.907982571851141 5.40832234080825 5.224447375784467 4.816724627253468 4.1771595315185674 3.8693688291961466 3.593556381660471 3.561578126873726 2.9579885677739135 2.522284846304513 2.298437062797298 2.1545349162569454 2.0106327697165924 1.734820322180917 1.5389535116121038 1.4070432106167807 1.263141064076428 1.2831274733181437 1.0952552264460167 0.9753367709957229 0.9073829795738897 0.8154454970619979 0.9273693888156054 0.6715433505216453 0.631570532038214 0.6195786864931847 0.5276412039812928 0.5196466402846065 0.4317064396210577 0.42770915777271457 0.4676819762561458 0.41971459407602835 0.3957309029859695 0.3317743934124795 0.3077907023224208 0.31978254786745014 0.2878042930807051 0.315785266019107 0.27581244753567574 0.27581244753567574 0.219850501658872 0.28380701123236196 0.1798776831754407 0.20386137426549947 0.21585321981052885 0.24383419274893073 0.19186952872047008 0.1758804013270976 0.21185593796218571 0.20386137426549947 0.1758804013270976 0.13990486469200944 0.15589399208538196 0.12791301914698006 0.21585321981052885 0.15589399208538196 0.1478994283886957 0.1319103009953232 0.16388855578206818 0.15589399208538196 0.1359075828436663 0.08394291881520566 0.16388855578206818 0.11192389175360754 0.1478994283886957 0.10792660990526443 0.09993204620857817 0.1039293280569213 0.11192389175360754 0.0879402006635488 0.09593476436023504 0.05596194587680377 0.08394291881520566 0.09993204620857817 0.0439701003317744 0.06395650957349003 0.07994563696686253 0.08394291881520566 0.0439701003317744 0.05196466402846065 0.05196466402846065 0.05596194587680377 0.03997281848343127 0.05196466402846065 0.031978254786745014 0.05196466402846065 0.03597553663508814 0.07594835511851941 0.06795379142183315 0.07195107327017627 0.06795379142183315 0.06395650957349003 0.07195107327017627 0.031978254786745014 0.019986409241715634 0.0599592277251469 0.04796738218011752 0.0599592277251469 0.0599592277251469 0.031978254786745014 0.0439701003317744 0.03997281848343127 0.04796738218011752 0.03597553663508814 0.02398369109005876 0.03597553663508814 0.0439701003317744 0.03597553663508814 0.04796738218011752 0.03597553663508814 0.031978254786745014 0.03597553663508814 0.03997281848343127 0.015989127393372507 0.03597553663508814 0.031978254786745014 0.031978254786745014 0.05196466402846065 0.031978254786745014 0.02398369109005876 0.019986409241715634 0.031978254786745014 0.03997281848343127 0.01199184554502938 0.019986409241715634 0.019986409241715634 0.01199184554502938 0.03597553663508814 0.01199184554502938 0.015989127393372507 0.015989127393372507 0.019986409241715634 0.015989127393372507 0.019986409241715634 0.003997281848343127 0.01199184554502938 0.02398369109005876 0.015989127393372507 0.0 0.031978254786745014 0.02398369109005876 0.01199184554502938 0.007994563696686253 0.007994563696686253 0.003997281848343127 0.0 0.003997281848343127 0.003997281848343127 0.003997281848343127 0.0 0.003997281848343127 0.01199184554502938 0.0 0.015989127393372507 0.01199184554502938 0.019986409241715634 0.01199184554502938 0.015989127393372507 0.01199184554502938 0.003997281848343127 0.01199184554502938 0.007994563696686253 0.003997281848343127 0.0 0.0 0.01199184554502938 0.01199184554502938 0.015989127393372507 0.003997281848343127 0.015989127393372507 0.007994563696686253 0.007994563696686253 0.0 0.007994563696686253 0.0 0.003997281848343127 0.007994563696686253 0.007994563696686253 0.003997281848343127 0.0 0.0 0.01199184554502938 0.0 0.007994563696686253 0.003997281848343127 0.0 0.0 0.003997281848343127
3 56.118400976502905 2.1148315624971104 1.4120453851915555 0.7296030182816878 0.5030469479660813 0.41242451983983874 0.35694140057887386 0.32919984094839144 0.3819088042463081 0.4373919235072729 0.4947244800769366 0.6482277766989394 0.7712153577274115 0.8914287827928352 0.9912983974625721 1.1891881894933465 1.4351633515502908 1.5544520579613652 1.6487733607050052 1.919715926429384 1.944683330096818 2.0685956297796397 2.3608067245540543 2.435708935556357 2.432934779593309 2.657641412600216 2.689081846848097 2.692780721465494 2.808370553259171 2.830563800963557 2.98314237893121 2.860154797902738 2.9100896052376064 3.0099592199073433 2.9905401281660056 2.9526266633376794 2.8675525471375334 2.8943693881136663 2.927659259670245 2.7760054003569414 2.7630593391960496 2.560545953893528 2.5337291129173947 2.5013639600151656 2.4773212750020805 2.3987201893823804 2.2896033881691493 2.22579780101904 2.196206804079859 2.0168113851360725 1.9650271404925053 1.9788979203077464 1.9030709906510943 1.86238336985972 1.7467935380660433 1.629354268963668 1.5054419692808463 1.408346510574158 1.5017430946634487 1.3593364218936388 1.3214229570653129 1.3112510518674692 1.335293736880554 1.207682562580335 1.1605219112085148 1.1337050702323819 1.038459048834392 1.056028703267031 0.9996208653517167 0.8914287827928352 0.9108478745341729 0.9191703424233177 0.8479670060384128 0.8165265717905327 0.743473798096929 0.705560333268603 0.6408300274641441 0.6473030580445899 0.6713457430576747 0.6149379051423604 0.5566806299183473 0.5687019724248897 0.5400356941400579 0.479928981607346 0.47068179506385177 0.41242451983983874 0.41334923849418814 0.39208070944415163 0.3578661192332233 0.3587908378875727 0.36156499385062096 0.3310492782570903 0.31995265440489734 0.32365152902229494 0.2811144709222219 0.274641440341776 0.24967403667434185 0.26354481648958306 0.2468998807112936 0.22933022627865474 0.21083585319166642 0.20436282261122055 0.22933022627865474 0.209911134537317 0.1756965443263887 0.17014823240029223 0.14610554738720744 0.14980442200460511 0.1433313914241592 0.15257857796765334 0.11928870641107443 0.1313100489176168 0.10541792659583321 0.12021342506542383 0.129460611608918 0.09986961466973672 0.09432130274364024 0.10634264525018262 0.07860108561970021 0.08507411620014611 0.08692355350884494 0.0776763669653508 0.08137524158274845 0.061956149841410756 0.06657974311315783 0.0656550244588084 0.064730305804459 0.05455840060661544 0.061031431187061336 0.05085952598921778 0.05085952598921778 0.06657974311315783 0.04623593271747071 0.04161233944572364 0.04716065137182012 0.03791346482832598 0.0258921223217836 0.0388381834826754 0.030515715593530668 0.029590996939181255 0.023117966358735354 0.023117966358735354 0.0258921223217836 0.027741559630482426 0.0194190917413377 0.020343810395687112 0.02219324770438594 0.016644935778289457 0.0129460611608918 0.009247186543494141 0.01109662385219297 0.013870779815241213 0.01109662385219297 0.0129460611608918 0.01756965443263887 0.007397749234795314 0.010171905197843556 0.0027741559630482427 0.012021342506542384 0.007397749234795314 0.004623593271747071 0.004623593271747071 0.004623593271747071 0.009247186543494141 0.008322467889144728 0.0027741559630482427 0.004623593271747071 0.0027741559630482427 0.0027741559630482427 0.0009247186543494142 0.004623593271747071 0.0027741559630482427 0.0018494373086988284 0.0018494373086988284 0.0009247186543494142 0.0018494373086988284 0.0009247186543494142 0.0027741559630482427 0.0009247186543494142 0.0018494373086988284 0.0009247186543494142 0.0 0.0009247186543494142 0.0009247186543494142 0.0 0.0018494373086988284 0.0009247186543494142 0.0018494373086988284 0.0 0.0018494373086988284 0.0018494373086988284 0.0009247186543494142 0.0009247186543494142 0.0009247186543494142 0.0009247186543494142 0.0 0.0 0.0 0.0 0.0018494373086988284
3 10.805475200127807 4.803067390150802 3.4473904931445887 2.7467292012575384 2.4386208155743083 2.411233403513577 2.214956950411667 2.314236319131819 2.380422564945254 2.5630053120167977 2.8528554229928735 3.062825582125149 3.3207237123637046 3.496459606420066 3.8376611150100137 4.020243862081557 4.3032471200424505 4.626190353925243 4.746010281690944 4.928593028762488 4.973097573361177 5.087211790280892 5.084929505942498 5.23213684576893 4.9297341709316855 4.881806199825405 4.823607949196351 4.841866223903505 4.628472638263638 4.304388262211647 4.19940318264551 3.9004239343158567 3.8970005078082655 3.517000165465615 3.445108208806194 3.2442671870274955 3.0651078664635434 2.8768194085460137 2.7615640494571014 2.5801224445547546 2.4534556637738714 2.3108128926242277 2.0392210563553057 1.9673290996958854 1.8840257213444938 1.711713253795724 1.5793407621688547 1.5599413452925033 1.5542356344465176 1.3020432150539476 1.2347158270713157 1.1856467137958384 1.0601210751841517 1.0783793498913061 0.9277485835572825 0.8421629208674962 0.8204812196527504 0.7234841352709928 0.7223429931017956 0.6892498701950782 0.6242047665508408 0.6025230653360949 0.5797002219521519 0.4838442797395913 0.5009614122775485 0.47357400021681695 0.41879917609535383 0.427928313448931 0.3936940483730165 0.41994031826455097 0.36060092546629924 0.3651654941430878 0.33891922425155335 0.3240843760519904 0.2784386892841044 0.3024026748372446 0.275015262776513 0.27387412060731586 0.25561584590016145 0.24078099770059852 0.24078099770059852 0.24876899288497856 0.25219241939257003 0.18144160490234676 0.19969987960950114 0.20882901696307835 0.17117132537957241 0.19741759527110683 0.17573589405636103 0.15177190850322086 0.1848650314099382 0.15633647718000948 0.14720733982643228 0.14948962416482658 0.15633647718000948 0.14834848199562942 0.15519533501081234 0.1152553590889121 0.15177190850322086 0.14264277114964366 0.11753764342730638 0.14036048681124938 0.13009020728847503 0.13123134945767218 0.11867878559650354 0.12210221210409498 0.1106907904121235 0.0947148000433634 0.09129137353577195 0.07417424099781471 0.09927936872015199 0.0810210940129976 0.06846853015182897 0.0924325157049691 0.08672680485898336 0.07417424099781471 0.07189195665942041 0.06618624581343467 0.06846853015182897 0.06390396147504036 0.057057108459857474 0.060480534967448915 0.04336340242949168 0.04678682893708312 0.06732738798263183 0.03993997592190023 0.047927971106280276 0.045645686767885975 0.033093122906717336 0.051351397613871724 0.045645686767885975 0.03765769158350593 0.030810838568323035 0.03423426507591448 0.036516549414308784 0.027387412060731586 0.03423426507591448 0.033093122906717336 0.029669696399125884 0.03195198073752018 0.026246269891534436 0.027387412060731586 0.029669696399125884 0.025105127722337285 0.033093122906717336 0.013693706030365793 0.02168170121474584 0.02168170121474584 0.01597599036876009 0.02054055904554869 0.011411421691971494 0.018258274707154392 0.01597599036876009 0.011411421691971494 0.02168170121474584 0.011411421691971494 0.013693706030365793 0.006846853015182897 0.013693706030365793 0.014834848199562942 0.010270279522774345 0.005705710845985747 0.010270279522774345 0.01711713253795724 0.004564568676788598 0.006846853015182897 0.004564568676788598 0.005705710845985747 0.009129137353577196 0.007987995184380045 0.002282284338394299 0.010270279522774345 0.002282284338394299 0.010270279522774345 0.004564568676788598 0.004564568676788598 0.0034234265075914483 0.0011411421691971495 0.002282284338394299 0.004564568676788598 0.004564568676788598 0.002282284338394299 0.002282284338394299 0.0034234265075914483 0.002282284338394299 0.002282284338394299 0.005705710845985747 0.0034234265075914483 0.0011411421691971495 0.0034234265075914483 0.0011411421691971495 0.0011411421691971495 0.0 0.0011411421691971495 0.0 0.002282284338394299 0.0011411421691971495 0.0034234265075914483 0.0011411421691971495 0.002282284338394299
3 6.809124226463462 5.243025654376865 4.2256623875993835 3.7690505277071273 3.9172491138125083 4.2697214267117936 5.339154466985761 5.339154466985761 5.843830733182465 6.3044479602667565 6.292431858690646 6.412592874451765 6.781086656119199 6.356517733763242 6.452646546372138 6.43662507760399 6.24036208519416 6.0000400536719205 5.811787795646166 5.158912943344081 4.898564075861655 4.822462099212945 4.926601646205916 4.201630184447159 4.145555043758637 3.9132437466204713 3.60082510564156 3.440610417960067 3.372519175695432 2.9799931908757733 2.971982456491699 2.9279234173792883 2.623515510784451 2.487333026255182 2.2149680571966432 1.9986782288266276 1.8905333146416199 1.8224420723769852 1.8064206036088357 1.4940019626299241 1.5140287985901109 1.3137604389882442 1.261690665491759 1.2857228686439828 1.213626259187311 0.9612881260889592 0.9813149620491459 0.8371217431358019 0.7329821961428314 0.7449982977189433 0.7169607273746821 0.6208319147657861 0.5647567740772635 0.5967997116135622 0.5567460396931889 0.508681633388741 0.4806440630444796 0.42056355516391963 0.37249914885947166 0.37650451605150903 0.37650451605150903 0.24833276590631448 0.2923918050187251 0.26835960186650115 0.33244547693909837 0.2803757034426131 0.22029519556205313 0.2923918050187251 0.20427372679390382 0.24432739871427714 0.18825225802575452 0.20026835960186648 0.16822542206556787 0.20427372679390382 0.15620932048945588 0.16822542206556787 0.15620932048945588 0.18024152364167986 0.14018785172130654 0.10013417980093324 0.14819858610538122 0.15220395329741854 0.12817175014519455 0.12416638295315724 0.09212344541685859 0.10013417980093324 0.11615564856908257 0.09612881260889591 0.11615564856908257 0.08010734384074661 0.12817175014519455 0.0680912422646346 0.1201610157611199 0.08411271103278394 0.09212344541685859 0.09212344541685859 0.09612881260889591 0.09612881260889591 0.07610197664870927 0.07610197664870927 0.05607514068852262 0.0520697734964853 0.03204293753629864 0.04405903911241063 0.04806440630444796 0.06408587507259728 0.0680912422646346 0.07209660945667194 0.040053671920373304 0.02803757034426131 0.04405903911241063 0.040053671920373304 0.040053671920373304 0.03604830472833597 0.06008050788055995 0.02803757034426131 0.07610197664870927 0.06008050788055995 0.02803757034426131 0.01602146876814932 0.03204293753629864 0.0520697734964853 0.01602146876814932 0.03204293753629864 0.03604830472833597 0.04806440630444796 0.020026835960186652 0.01201610157611199 0.02803757034426131 0.00400536719203733 0.020026835960186652 0.02403220315222398 0.01602146876814932 0.00801073438407466 0.020026835960186652 0.02403220315222398 0.01602146876814932 0.0 0.02803757034426131 0.01201610157611199 0.00801073438407466 0.00801073438407466 0.0 0.01602146876814932 0.020026835960186652 0.020026835960186652 0.00400536719203733 0.00801073438407466 0.02403220315222398 0.00801073438407466 0.00400536719203733 0.01201610157611199 0.0 0.01602146876814932 0.00801073438407466 0.00801073438407466 0.00801073438407466 0.0 0.01201610157611199 0.01201610157611199 0.00400536719203733 0.0 0.00801073438407466 0.00400536719203733 0.00400536719203733 0.00801073438407466 0.00400536719203733 0.00400536719203733 0.00400536719203733 0.01201610157611199 0.02803757034426131 0.01201610157611199 0.00801073438407466 0.01201610157611199 0.01201610157611199 0.00801073438407466 0.01602146876814932 0.01201610157611199 0.0 0.00801073438407466 0.00400536719203733 0.00400536719203733 0.00400536719203733 0.00801073438407466 0.00400536719203733 0.00400536719203733 0.01201610157611199 0.0 0.00400536719203733 0.00400536719203733 0.00801073438407466 0.01602146876814932 0.00400536719203733 0.00801073438407466 0.00801073438407466 0.01602146876814932 0.0 0.01201610157611199 0.01602146876814932 0.00801073438407466
2 0.7499024448176991 0.9124687090788786 2.31387011048028 4.294278870550057 6.416586077603028 7.34355310626497 7.567197397705873 7.459231188044748 7.180986842003791 6.840739044128874 6.585630314443875 6.189548562429918 5.904209294039803 5.6845751761006005 5.307310392056155 5.038937242327073 4.79493360849293 4.576841864977458 4.351038249343334 4.213458450746586 3.9509463238276794 3.7951665070309137 3.601444279410381 3.431783092800042 3.3222745087151866 3.1044912400844606 3.054826783640343 2.838277414548601 2.734938328158667 2.6695416525925 2.527643205609307 2.4551516076939803 2.302765014629421 2.239836138141223 2.1210733075139854 2.0485817095986585 2.02729694255118 1.9378392259748194 1.8298730163136945 1.737639025774619 1.6410863868490988 1.582167683862599 1.572913437320217 1.490550643093016 1.3986251274386867 1.3545132189199984 1.3205809815979308 1.2360588631775071 1.1947232286215337 1.1450587721774164 1.1277841786316363 1.0503569825603722 1.0293806903976397 0.9945230284213334 0.9470178961704385 0.8988958141500515 0.8763771475635883 0.8267126911194708 0.8060448738414839 0.7428075224685394 0.7329363261566652 0.7147363079566469 0.6937600157939141 0.6567430296243856 0.6419362351565742 0.6064616234107759 0.5728378609734541 0.5429157971530852 0.5574141167361506 0.5299598519937503 0.5185462812581457 0.4793699708953946 0.4704241992377586 0.4540750303462168 0.44266145961061215 0.4099631218275286 0.389912254319034 0.3929970031664947 0.37078681146477754 0.37016986169528543 0.3747969849664765 0.3331528755257569 0.3383969485664401 0.31556980709523086 0.29983758797318116 0.29860368843419693 0.27793587115621016 0.25171550595279407 0.25510872968500087 0.2390680356782052 0.24893923199007947 0.2332070128680298 0.23629176171549052 0.21253919559004303 0.21068834628156663 0.1974239262374856 0.18786120481035737 0.18508493084764271 0.17305441034254593 0.1715120359188156 0.16750186241711665 0.16873576195610096 0.14405777117641524 0.15392896748828952 0.14930184421709847 0.13079335113233417 0.12616622786114312 0.11814588085774526 0.13017640136284203 0.11135943339333171 0.1156780817797767 0.10241366173569563 0.09994586265772706 0.09501026450178993 0.10087128731196526 0.08606449284415386 0.09408483984755171 0.07742719607126386 0.07866109561024816 0.078044145840756 0.0792780453797403 0.07557634676278743 0.07094922349159637 0.07403397233905709 0.06909837418311995 0.06724752487464351 0.059844127640737814 0.058918702986499594 0.06076955229497602 0.05583395413903888 0.050898355983101745 0.045037333172926394 0.051206830867847816 0.03732546105427462 0.03547461174579818 0.03362376243732176 0.033006812667829614 0.030539013589861046 0.030230538705114975 0.02837968939663855 0.028071214511892477 0.027454264742400338 0.024061041010193553 0.02097629216273284 0.01634916889154177 0.0182000182000182 0.01881696796951034 0.01573221912204963 0.015115269352557487 0.013572894928827134 0.009562721427128208 0.012955945159334991 0.008020347003397852 0.011722045620350705 0.006169497694921425 0.009254246542382136 0.01017967119662035 0.00771187211865178 0.006169497694921425 0.006477972579667496 0.004010173501698926 0.0055525479254292815 0.0030847488474607123 0.0024677990779685697 0.0024677990779685697 0.0027762739627146408 0.00524407304068321 0.004318648386444997 0.0037016986169528545 0.0024677990779685697 0.0027762739627146408 0.0012338995389842848 0.0018508493084764272 0.0018508493084764272 0.0018508493084764272 0.0009254246542382136 0.0018508493084764272 0.0 0.0006169497694921424 0.0006169497694921424 0.0006169497694921424 0.0012338995389842848 0.0012338995389842848 0.0009254246542382136 0.0003084748847460712 0.0003084748847460712 0.0 0.0 0.0 0.0 0.0003084748847460712 0.0 0.0 0.0 0.0 0.0 0.0003084748847460712 0.0 0.0003084748847460712 0.0003084748847460712
2 0.11148272017837235 3.984040368479728 8.7631285571789 10.385495511353634 10.942909112245497 10.04811359502435 8.93035263744646 7.900604353693598 6.7241682802323535 6.771108372939036 5.9672592853370885 5.491990846681922 5.436249486592736 5.295429208472687 4.946312268966731 4.614797864225782 4.509182655635745 4.230475855189814 4.344892331162354 4.001642903244734 3.9664378337147213 3.6114533826204305 3.464765592912046 3.206595083025289 3.133251188171097 2.995364665845215 2.9396233057560286 2.8604118993135015 2.660916505310098 2.4584873555125273 2.3470046353341547 2.3323358563633163 2.1533767529190873 2.0829666138590626 2.1005691486240687 1.827729859766473 1.7778560112656223 1.6223669541747345 1.5050167224080269 1.3994015138179898 1.3847327348471514 1.3553951769054744 1.2585812356979404 1.158833538696239 1.1441647597254003 0.9974769700170157 0.9593381446928357 0.918265563574488 0.8507891803086312 0.8566566918969666 0.833186645543625 0.7481077275127619 0.6894326116294079 0.7422402159244265 0.6102212051868803 0.5808836472452032 0.5104735081851787 0.5280760429501848 0.5398110661268556 0.4635334154784955 0.4283283459484833 0.39312327641847095 0.38432200903596786 0.38432200903596786 0.3667194742709617 0.33738191632928477 0.29630933521093705 0.26697177726926014 0.27577304465176317 0.3139118699759432 0.2845743120342663 0.22003168456257702 0.19656163820923547 0.20242914979757085 0.21416417297424165 0.24643548671008628 0.19656163820923547 0.1789591034442293 0.1349527665317139 0.15548905709088776 0.15548905709088776 0.11148272017837235 0.1290852549433785 0.11148272017837235 0.1290852549433785 0.12615149914921084 0.12028398756087544 0.09681394120753388 0.0997476970017016 0.0938801854133662 0.11148272017837235 0.0938801854133662 0.08214516223669542 0.14668778970838467 0.08507891803086311 0.07921140644252772 0.0498738485008508 0.06160887167752157 0.044006336912515404 0.07334389485419233 0.09094642961919851 0.04107258111834771 0.08801267382503081 0.06160887167752157 0.07627765064836003 0.06454262747168925 0.06160887167752157 0.0498738485008508 0.0469400927066831 0.026403802147509238 0.035205069530012324 0.035205069530012324 0.035205069530012324 0.06160887167752157 0.03813882532418002 0.029337557941676935 0.03813882532418002 0.032271313735844624 0.026403802147509238 0.03813882532418002 0.020536290559173855 0.020536290559173855 0.020536290559173855 0.03813882532418002 0.020536290559173855 0.014668778970838467 0.029337557941676935 0.008801267382503081 0.014668778970838467 0.008801267382503081 0.011735023176670774 0.020536290559173855 0.035205069530012324 0.020536290559173855 0.017602534765006162 0.017602534765006162 0.011735023176670774 0.017602534765006162 0.011735023176670774 0.014668778970838467 0.011735023176670774 0.014668778970838467 0.011735023176670774 0.005867511588335387 0.005867511588335387 0.005867511588335387 0.008801267382503081 0.0 0.005867511588335387 0.005867511588335387 0.008801267382503081 0.0029337557941676935 0.011735023176670774 0.011735023176670774 0.0029337557941676935 0.005867511588335387 0.0 0.008801267382503081 0.0 0.0029337557941676935 0.0029337557941676935 0.005867511588335387 0.0029337557941676935 0.0 0.0029337557941676935 0.008801267382503081 0.0029337557941676935 0.0 0.005867511588335387 0.0 0.0 0.0 0.005867511588335387 0.0 0.0 0.005867511588335387 0.005867511588335387 0.0029337557941676935 0.0 0.0 0.0 0.0 0.0 0.0 0.0 0.0 0.0 0.0 0.0 0.0 0.0 0.0 0.0 0.0 0.0 0.0029337557941676935 0.0 0.0029337557941676935 0.0 0.0029337557941676935
2 25.15170249036547 35.50767231610181 31.695471578803264 22.952410236128934 17.011322411116193 12.685967967822231 9.819999630590177 7.276395690073849 5.962709164731792 4.622077452202172 3.8565299162200253 3.06740534144876 2.6266125010457557 2.208092900051826 1.8596525157352286 1.5676014546055081 1.3707277482189557 1.1575565495818607 1.0009919740283164 0.8583345918619015 0.7695675840706138 0.6437509438964262 0.5808426238093324 0.49587836420983783 0.4624141801220573 0.3992885601382896 0.35267773230173827 0.3099783026053171 0.27868711748427566 0.2540235792117881 0.21762584651890998 0.20339270328676962 0.1757956164091844 0.16938526945730437 0.15406562674179447 0.14091898299302358 0.12157929218904658 0.1094104979753082 0.10625964947353667 0.09115730665470069 0.09409085525979832 0.08094421151102743 0.07659821357754945 0.07377331492078876 0.07181761585072366 0.06638511843387618 0.0613872208103765 0.05508552380683343 0.05106547571836629 0.047588677371583905 0.044220528973138475 0.040309130833008286 0.039113981401301845 0.03205173475940012 0.02759708687758519 0.028140336619269936 0.023033789047433306 0.027379786980911293 0.025967337652530946 0.024446238375813653 0.025098138065835347 0.020860790080694316 0.018470491217281424 0.016080192353868535 0.016080192353868535 0.012168794213738352 0.012277444162075301 0.012820693903760049 0.012929343852097 0.011408244575379704 0.011408244575379704 0.011082294730368855 0.012168794213738352 0.01260339400708615 0.009561195453651562 0.010430395040347158 0.007605496383586469 0.010430395040347158 0.010430395040347158 0.011082294730368855 0.009452545505314611 0.009452545505314611 0.007714146331923419 0.007605496383586469 0.006627646848553923 0.007388196486912571 0.010647694937021057 0.009669845401988512 0.01021309514367326 0.008583345918619017 0.011190944678705805 0.00988714529866241 0.011516894523716653 0.009126595660303763 0.01260339400708615 0.00988714529866241 0.0124947440587492 0.01021309514367326 0.01021309514367326 0.0124947440587492 0.011299594627042754 0.011734194420390554 0.009561195453651562 0.009452545505314611 0.008148746125271217 0.008040096176934268 0.008691995866955966 0.009778495350325461 0.008040096176934268 0.0057584472618583266 0.005541147365184428 0.005432497416847478 0.004454647881814933 0.004237347985141033 0.0038027481917932344 0.0022816489150759406 0.002716248708423739 0.002716248708423739 0.0022816489150759406 0.001521099276717294 0.0020643490184020417 0.00249894881174984 0.0017383991733911932 0.00249894881174984 0.00249894881174984 0.0028248986567606885 0.0034767983467823864 0.0036940982434562853 0.0028248986567606885 0.003259498450108487 0.003585448295119336 0.0026075987600867895 0.0023902988634128906 0.001955699070065092 0.004237347985141033 0.0029335486050976385 0.0014124493283803443 0.0010864994833694958 0.0029335486050976385 0.0021729989667389916 0.0016297492250542435 0.001521099276717294 0.0020643490184020417 0.001521099276717294 0.0018470491217281427 0.0014124493283803443 0.0016297492250542435 0.001955699070065092 0.0016297492250542435 0.0014124493283803443 0.0020643490184020417 0.0026075987600867895 0.001955699070065092 0.0018470491217281427 0.001521099276717294 0.001955699070065092 0.0020643490184020417 0.001521099276717294 0.0014124493283803443 0.000977849535032546 0.000760549638358647 0.000760549638358647 0.0010864994833694958 0.0013037993800433948 0.000977849535032546 0.000760549638358647 0.000977849535032546 0.0005432497416847479 0.0008691995866955966 0.0010864994833694958 0.0011951494317064453 0.0004345997933477983 0.0016297492250542435 0.0018470491217281427 0.000977849535032546 0.000977849535032546 0.0014124493283803443 0.0013037993800433948 0.0021729989667389916 0.0010864994833694958 0.0010864994833694958 0.001521099276717294 0.0011951494317064453 0.0008691995866955966 0.0014124493283803443 0.0014124493283803443 0.001521099276717294 0.0004345997933477983 0.0008691995866955966 0.0003259498450108487 0.00010864994833694957 0.00010864994833694957 0.0003259498450108487 0.0004345997933477983 0.000977849535032546 0.00021729989667389915 0.00021729989667389915 0.000760549638358647 0.0016297492250542435 0.000760549638358647
3 0.07007007007007006 0.22837652467282096 0.323656990323657 0.4041078115152189 0.4986467949430912 0.556853149445742 0.6384161939717495 0.7081155229303377 0.8156304452600748 0.8682756830904979 0.9009009009009009 1.046231416601787 1.16894672450228 1.3076039001964928 1.502984465947429 1.7198680161643123 1.9738256775293812 2.1703184666147632 2.388684981277574 2.6311496681867053 2.8980832684536386 3.1272012753494236 3.3585437289140994 3.4964594223853487 3.693322952582212 3.8608979349720087 3.9580321061802546 4.078152226300374 4.20123827531235 4.322099877655433 4.372520668816965 4.364735105475846 4.392169947725503 4.339895451006562 4.388833277722166 4.368442516590665 4.253883513142773 4.182330478626775 4.121899677455233 4.012531049568087 3.976198420642865 3.8890742594446297 3.772290809327846 3.732621510399288 3.540577614651689 3.537982426871316 3.4015496978459945 3.2599265932599266 3.1542653764875985 3.0448967486004523 2.9444259073888706 2.7683238794349903 2.734586438290142 2.5959292625959294 2.50806361917473 2.406109813517221 2.3141660178697214 2.1465910354799242 2.089867645423201 1.9808697586475366 1.9274830385941497 1.8195973751529309 1.6768620472324178 1.655729803877952 1.5945575204834466 1.5174433692952212 1.4332851369888406 1.3565417269120974 1.2731249768286805 1.2353093834575315 1.1704296889482073 1.0744077410744077 1.056612167723279 0.9594779965150336 0.9457605753902051 0.8827345864382901 0.8504801097393689 0.813035257479702 0.7737366996626256 0.6884662440217996 0.6788269751232714 0.6773440106773441 0.6280354428502577 0.5950394839283728 0.5275646016386758 0.5449894338783228 0.5201497794090386 0.49234419604789975 0.44266488710933155 0.42820598376153934 0.4219033848663479 0.3618433248062878 0.3796388981574167 0.35665294924554186 0.33589144700255813 0.3303303303303303 0.30697364030697366 0.30623215808400994 0.29362696029362695 0.24765506246987729 0.235791346902458 0.22985948911874837 0.22689356022689358 0.21540058577095614 0.20613205798390982 0.1924146368590813 0.1946390835279724 0.1660920179438698 0.16831646461276092 0.16090164238312385 0.15719423126830534 0.1475549623697772 0.14088162236310384 0.11974937900863826 0.11048085122159197 0.11604196789381975 0.11604196789381975 0.11159307455603752 0.10047084121158195 0.09565120676231788 0.09194379564749935 0.0774848922997071 0.07711415118822526 0.0923145367589812 0.075260445630816 0.06154302450598747 0.06376747117487859 0.06302598895191487 0.06895784673562451 0.0589478367256145 0.0589478367256145 0.051533014495977456 0.04634263893523153 0.04819634449264079 0.042635227820413006 0.03855707559411263 0.037815593371148926 0.0411522633744856 0.03559114670225781 0.031512994475957436 0.03225447669892114 0.025951877803729657 0.02854706558410262 0.0255811366922478 0.025951877803729657 0.024468913357802248 0.02150298446594743 0.016683350016683352 0.016683350016683352 0.022244466688911134 0.02187372557742928 0.020761502242983725 0.01853705557409261 0.01482964445927409 0.015571126682237793 0.015571126682237793 0.013717421124828533 0.011122233344455567 0.011122233344455567 0.009639268898528158 0.009639268898528158 0.00815630445260075 0.008897786675564453 0.008897786675564453 0.009639268898528158 0.007044081118155193 0.007044081118155193 0.005931857783709636 0.0055611166722277835 0.007044081118155193 0.0066733400066733405 0.004078152226300375 0.0037074111148185226 0.004078152226300375 0.004078152226300375 0.0037074111148185226 0.0025951877803729656 0.0037074111148185226 0.0011122233344455566 0.0033366700033366703 0.001482964445927409 0.001482964445927409 0.0033366700033366703 0.004078152226300375 0.002965928891854818 0.00037074111148185224 0.002965928891854818 0.0007414822229637045 0.0011122233344455566 0.0007414822229637045 0.00037074111148185224 0.0011122233344455566 0.0011122233344455566 0.0007414822229637045 0.0 0.0 0.00037074111148185224 0.00037074111148185224 0.0007414822229637045 0.00037074111148185224
2 0.20449821714736144 5.635970864581281 11.985826414476987 16.33903573513391 17.43960795832698 14.787823804336107 11.95831210889716 9.325862331800217 7.941967124122981 6.250209145903901 5.241847027897275 4.513833374852668 4.189610746939033 3.7716907540778806 3.5091894062487223 3.239995389494741 3.220661012600808 3.057062438882919 2.7759703440403642 2.818357247230908 2.6153462898446183 2.5729593866540745 2.484467430870307 2.3506140523738526 2.2717892850370514 2.204862595788824 2.050187580637365 2.0858818149030864 1.981773631628066 1.856100181817506 1.8092514993437465 1.7319139917680173 1.6776290104888996 1.617394990165495 1.5474937813951242 1.4694126439388588 1.4619763451335002 1.3132503690263282 1.3288665965175812 1.287966953088109 1.2314510821673836 1.1637807630386203 1.1057776323568234 0.9763860331435839 1.0901614048655703 0.9577952861301873 0.8901249670014241 0.8663288108242765 0.7949403422928341 0.7406553610137163 0.7547843287438976 0.6744723016460248 0.6358035478581601 0.6023402032340464 0.5681332287293968 0.5264899554193887 0.5145918773308149 0.5123609876892073 0.508642838286528 0.44617792832151576 0.4060219147725794 0.37925123907328845 0.403047395250436 0.36289138170149954 0.3472751542102465 0.32794077731631416 0.2870411338868418 0.2907592832895211 0.26696312711237363 0.25580867890433573 0.24688512033790544 0.2617577179486226 0.24242334105469024 0.23721793189093923 0.21862718487754276 0.17921480120914218 0.1844202103728932 0.1754966518064629 0.15913679443467396 0.17103487252324773 0.16062405419574569 0.15244412550985123 0.13905878766020577 0.13608426813806232 0.11377537172198654 0.10039003387234105 0.11674989124412997 0.08626106614215973 0.09667188446966177 0.09444099482805418 0.0884919557837673 0.0884919557837673 0.08477380638108802 0.0609776502039405 0.08031202709787284 0.07287572829251425 0.0535413513985819 0.07064483865090668 0.062464909965012215 0.05205409163751018 0.0498232019959026 0.03792512390732884 0.03569423426572127 0.04015601354893642 0.04313053307107986 0.038668753787864704 0.03792512390732884 0.03792512390732884 0.031232454982506107 0.0349506043851854 0.031976084863041966 0.027514305579826807 0.03048882510197025 0.02602704581875509 0.031232454982506107 0.02305252629661165 0.014872597610717195 0.017847117132860635 0.02677067569929095 0.014872597610717195 0.02156526653553993 0.014128967730181333 0.019334376893932352 0.02007800677446821 0.008923558566430317 0.012641707969109614 0.014128967730181333 0.019334376893932352 0.015616227491253054 0.013385337849645474 0.006692668924822737 0.016359857371788914 0.015616227491253054 0.02230889641607579 0.014872597610717195 0.015616227491253054 0.010410818327502036 0.02007800677446821 0.013385337849645474 0.008179928685894457 0.012641707969109614 0.006692668924822737 0.014872597610717195 0.014128967730181333 0.011154448208037895 0.010410818327502036 0.011154448208037895 0.010410818327502036 0.009667188446966176 0.008923558566430317 0.020821636655004073 0.02007800677446821 0.014128967730181333 0.010410818327502036 0.008179928685894457 0.0029745195221434384 0.008179928685894457 0.010410818327502036 0.005205409163751018 0.004461779283215159 0.0074362988053585976 0.0022308896416075794 0.0037181494026792988 0.0037181494026792988 0.0029745195221434384 0.0007436298805358596 0.0022308896416075794 0.0022308896416075794 0.0014872597610717192 0.0014872597610717192 0.0 0.0 0.0014872597610717192 0.0007436298805358596 0.0014872597610717192 0.0037181494026792988 0.0 0.0 0.0 0.0 0.0014872597610717192 0.0007436298805358596 0.0014872597610717192 0.0 0.0007436298805358596 0.0014872597610717192 0.0007436298805358596 0.0014872597610717192 0.0014872597610717192 0.0 0.0 0.0007436298805358596 0.0007436298805358596 0.0 0.0 0.0 0.0 0.0 0.0 0.0014872597610717192
3 4.296312253443378 16.57399054838232 10.938025931361329 9.521629663538567 9.361409933623255 9.913427490474332 9.66165362917884 9.562021192088647 9.216000430842971 8.207558601376004 7.445505096064518 7.147954169078939 6.470722873722617 6.037187133951773 5.565952634200853 5.232049331520202 4.879296648849515 4.4632639047837035 4.2249538863382385 3.752373002302317 3.518102136711861 3.457514843886742 3.122265156921088 2.865105758485587 2.5944825172000594 2.3413622716195657 2.2807749787944473 2.0465041132039907 1.890323536143686 1.6452815962732084 1.6102756048631401 1.4204354206777698 1.3652336649926622 1.2884897607475125 1.1767398650922947 1.089224886567124 0.9586256109218693 0.9747822223419009 0.8778425538217118 0.8064841867165726 0.7230083610464099 0.708198133911381 0.6193367711012078 0.58971631683115 0.5089332597309923 0.5035477225909819 0.41468635978080864 0.4402676611958585 0.4402676611958585 0.370255678375722 0.2854334684205566 0.2854334684205566 0.2921653898455697 0.26658408843051984 0.2369636341604621 0.2329244813054542 0.24100278701546995 0.1682980356253282 0.2059967956054017 0.17233718848033605 0.12790650707524942 0.14002396564027306 0.12790650707524942 0.11713543279522841 0.09290051566518115 0.09155413138017852 0.09693966852018904 0.0848222099551654 0.06731921425013127 0.08078305710015753 0.08886136281017327 0.07001198282013653 0.07135836710513915 0.06462644568012603 0.03904514426507614 0.04981621854509714 0.04039152855007876 0.04981621854509714 0.047123449975091894 0.035005991410068264 0.037698759980073514 0.032313222840063015 0.028274069985055134 0.04173791283508139 0.037698759980073514 0.028274069985055134 0.02288853284504463 0.030966838555060383 0.021542148560042006 0.017502995705034132 0.02288853284504463 0.014810227135028881 0.021542148560042006 0.02019576427503938 0.01211745856502363 0.010771074280021003 0.010771074280021003 0.016156611420031507 0.01211745856502363 0.008078305710015754 0.017502995705034132 0.008078305710015754 0.010771074280021003 0.009424689995018378 0.008078305710015754 0.006731921425013128 0.009424689995018378 0.008078305710015754 0.004039152855007877 0.009424689995018378 0.008078305710015754 0.008078305710015754 0.009424689995018378 0.010771074280021003 0.010771074280021003 0.009424689995018378 0.008078305710015754 0.008078305710015754 0.006731921425013128 0.01211745856502363 0.01211745856502363 0.006731921425013128 0.005385537140010502 0.014810227135028881 0.005385537140010502 0.008078305710015754 0.013463842850026256 0.006731921425013128 0.005385537140010502 0.013463842850026256 0.006731921425013128 0.008078305710015754 0.006731921425013128 0.005385537140010502 0.004039152855007877 0.009424689995018378 0.005385537140010502 0.006731921425013128 0.010771074280021003 0.0013463842850026254 0.0013463842850026254 0.006731921425013128 0.005385537140010502 0.0013463842850026254 0.008078305710015754 0.004039152855007877 0.004039152855007877 0.006731921425013128 0.002692768570005251 0.004039152855007877 0.0013463842850026254 0.002692768570005251 0.002692768570005251 0.008078305710015754 0.006731921425013128 0.004039152855007877 0.004039152855007877 0.0013463842850026254 0.004039152855007877 0.002692768570005251 0.0 0.004039152855007877 0.002692768570005251 0.0013463842850026254 0.0013463842850026254 0.002692768570005251 0.0013463842850026254 0.0 0.0 0.002692768570005251 0.0013463842850026254 0.0 0.0013463842850026254 0.0 0.0013463842850026254 0.0 0.0013463842850026254 0.0013463842850026254 0.002692768570005251 0.0 0.0013463842850026254 0.004039152855007877 0.0 0.0013463842850026254 0.0013463842850026254 0.0 0.0 0.0 0.0 0.0 0.0013463842850026254 0.0013463842850026254 0.0 0.0013463842850026254 0.0013463842850026254 0.0 0.0 0.0 0.0 0.0013463842850026254
1 30.91070218849327 59.777200619728575 32.8054997840774 19.502211415858746 10.91688310093512 7.65614478889728 4.912802061395699 3.5177987765068024 2.711414835417856 2.2034338857268 1.773226006496098 1.554642745307521 1.3029035961858448 1.1612747415580402 1.0253765342273145 0.9267275343276007 0.8456798082689146 0.7535801195658626 0.7044602855909013 0.6643457545113498 0.6209565678334674 0.5644687587622621 0.5374528500760334 0.509618277490222 0.4907890077998203 0.4744157298081666 0.4437158335738159 0.40319197054447287 0.4003266468959335 0.37822272160720094 0.3716734104105395 0.3655334311636694 0.338926854427232 0.32378157228495236 0.3213255805862043 0.30331497479538516 0.29349100800039296 0.2930816760506016 0.2795737217074873 0.27548040220957387 0.26320044371583357 0.23536587113002225 0.24518983792501448 0.24027785452751835 0.22881655993336075 0.23659386697939627 0.2132619458412897 0.20016332344796675 0.1997539914981754 0.1809247218077736 0.18788336495422645 0.15431814507133634 0.16987275916340736 0.16332344796674586 0.14613150607550945 0.13016756003364707 0.1567741367700844 0.14121952267801335 0.14040085877843067 0.12730223638510768 0.1207529251884462 0.1113382903432453 0.10970096254407993 0.12320891688719425 0.10437964719679246 0.08882503310472144 0.07654507461098115 0.08104772605868593 0.07981973020931189 0.07449841486202444 0.07572641071139846 0.0675397717155716 0.06303712026786683 0.05935313271974474 0.06426511611724085 0.05976246466953608 0.054441149322248625 0.04707317422600445 0.04666384227621311 0.04911983397496117 0.039295867179968934 0.038477203280386243 0.04216119082850833 0.0323372240335161 0.030290564284559382 0.03397455183268147 0.0380678713305949 0.028653236485394012 0.035202547682055496 0.03069989623435073 0.02701590868622864 0.023741253087897894 0.026606576736437296 0.030290564284559382 0.028653236485394012 0.022513257238523866 0.025787912836854613 0.015963946041862378 0.01882926969040178 0.01841993774061044 0.023331921138106556 0.019238601640193122 0.019238601640193122 0.01882926969040178 0.019647933589984467 0.012279958493740292 0.011051962644366262 0.013098622393322977 0.011051962644366262 0.012689290443531634 0.009005302895409547 0.011461294594157605 0.009823966794992233 0.007367975096244175 0.012689290443531634 0.011461294594157605 0.00941463484520089 0.006139979246870146 0.006958643146452831 0.006139979246870146 0.009005302895409547 0.006139979246870146 0.006958643146452831 0.007777307046035518 0.006958643146452831 0.005730647297078803 0.00818663899582686 0.0036839875481220873 0.00409331949791343 0.0032746555983307443 0.005321315347287459 0.0032746555983307443 0.0028653236485394014 0.0028653236485394014 0.005730647297078803 0.005730647297078803 0.00409331949791343 0.0024559916987480584 0.002046659748956715 0.0032746555983307443 0.00409331949791343 0.0032746555983307443 0.0028653236485394014 0.006139979246870146 0.00409331949791343 0.0036839875481220873 0.00409331949791343 0.0036839875481220873 0.00409331949791343 0.002046659748956715 0.0032746555983307443 0.0024559916987480584 0.004911983397496117 0.0032746555983307443 0.0016373277991653722 0.0028653236485394014 0.0032746555983307443 0.002046659748956715 0.0028653236485394014 0.0036839875481220873 0.00409331949791343 0.0036839875481220873 0.0024559916987480584 0.0028653236485394014 0.0036839875481220873 0.0012279958493740292 0.002046659748956715 0.0036839875481220873 0.0016373277991653722 0.002046659748956715 0.002046659748956715 0.0024559916987480584 0.0024559916987480584 0.0028653236485394014 0.0012279958493740292 0.002046659748956715 0.00040933194979134304 0.0012279958493740292 0.0016373277991653722 0.0016373277991653722 0.0012279958493740292 0.0008186638995826861 0.0008186638995826861 0.0028653236485394014 0.0012279958493740292 0.0012279958493740292 0.0008186638995826861 0.0 0.0016373277991653722 0.0008186638995826861 0.0012279958493740292 0.0016373277991653722 0.0 0.00040933194979134304 0.0 0.0 0.0 0.0 0.0 0.00040933194979134304
2 50.35795173508968 7.762996902090438 6.332677553358051 5.849210274795364 5.695244541468476 5.6379722638541265 6.145241008438364 6.658460119527987 6.669617056725588 6.915813470885972 6.773004674756685 6.585568129836997 6.2984629459520765 5.972680379782142 5.3553298548482475 4.990126110580124 4.578807025895252 4.279801108999558 3.81864770483207 3.4311300861687446 3.115016865570064 2.7565072836205005 2.4760962620541407 2.258164088794344 1.948745030514223 1.7910603181214693 1.6207310769047683 1.5225500295658836 1.3388324637120619 1.2711470447132853 1.114949923946878 1.0182564682343405 0.9855294524547121 0.8687535097864935 0.8114812321721441 0.7571841378104882 0.7066060225146993 0.6381768077027494 0.6218132998129354 0.5890862840333072 0.5370205771111715 0.5392519645506916 0.483467278562689 0.4217322260692995 0.45222785440940755 0.42545120513516627 0.39569937260823157 0.3748730898393773 0.3309891368621486 0.3190884038513747 0.31165044571964107 0.2707416759951058 0.26479130948971885 0.24917159741307815 0.23801466021547765 0.22388253976518366 0.23578327277595756 0.20826282768854296 0.21867596907297007 0.2052876444358495 0.18520515748016853 0.18966793235920876 0.15768471239275395 0.17999858678795497 0.1561971207664072 0.1398336128765931 0.1331394505580328 0.1561971207664072 0.1495029584478469 0.12718908405264587 0.12718908405264587 0.11677594266821872 0.10115623059157801 0.11528835104187199 0.10041243477840463 0.10933798453648504 0.10710659709696495 0.10859418872331168 0.09520586408619106 0.09446206827301769 0.08776790595445738 0.08107374363589707 0.08702411014128401 0.0758671729436835 0.07958615200955034 0.0758671729436835 0.07289198969099003 0.07140439806464328 0.06842921481194982 0.06991680643829655 0.06322264411973626 0.06545403155925635 0.053553298548482474 0.04388395297722869 0.05429709436165584 0.048346727856268895 0.050578115295789004 0.04388395297722869 0.04611534041674879 0.04909052366944227 0.048346727856268895 0.03421460740597491 0.042396361350881956 0.03793358647184175 0.031983219966454805 0.03867738228501512 0.048346727856268895 0.08479272270176391 0.03421460740597491 0.026776649274241237 0.03421460740597491 0.02900803671376134 0.029751832526934707 0.04611534041674879 0.05801607342752268 0.020082486955680927 0.023801466021547764 0.01785109951616082 0.020826282768854294 0.024545261834721135 0.015619712076640722 0.018594895329334192 0.015619712076640722 0.008181753944907043 0.014132120450293986 0.013388324637120618 0.012644528823947251 0.011156937197600515 0.010413141384427147 0.007437958131733677 0.011156937197600515 0.013388324637120618 0.008181753944907043 0.006694162318560309 0.00892554975808041 0.004462774879040205 0.004462774879040205 0.006694162318560309 0.0029751832526934705 0.006694162318560309 0.0037189790658668383 0.0052065706922135736 0.0029751832526934705 0.0022313874395201026 0.0014875916263467352 0.0014875916263467352 0.0014875916263467352 0.0014875916263467352 0.0007437958131733676 0.0014875916263467352 0.0007437958131733676 0.0022313874395201026 0.0 0.0037189790658668383 0.0 0.0014875916263467352 0.0014875916263467352 0.0 0.0014875916263467352 0.0007437958131733676 0.0 0.0014875916263467352 0.0007437958131733676 0.0 0.0014875916263467352 0.0 0.0 0.0 0.0 0.0007437958131733676 0.0 0.0 0.0 0.0 0.0 0.0 0.0 0.0007437958131733676 0.0007437958131733676 0.0 0.0 0.0 0.0 0.0 0.0 0.0 0.0 0.0 0.0 0.0 0.0 0.0 0.0007437958131733676 0.0 0.0007437958131733676 0.0037189790658668383 0.0007437958131733676 0.03421460740597491 0.006694162318560309 0.016363507889814086
1 21.22523859584029 40.567035050987805 28.40004593761319 21.388964960791068 17.560241584729866 13.607545547437946 10.251449537826385 7.832657520370093 6.0993960381753345 4.848773966330086 3.8039877381909415 3.1564440753730225 2.5831073261658877 2.143755282089337 1.818363855343634 1.55275022011773 1.3283626480089283 1.1790654051491352 1.0156335120777642 0.885476941379483 0.7962519619188966 0.7261676546198221 0.6348813720033806 0.5438895612663469 0.5138534295667435 0.45260327864990535 0.3934144308889223 0.35866674911879287 0.3230356517104399 0.32038540479576905 0.27415331972873247 0.27857039791985067 0.22939359405873536 0.21496447196774943 0.2070137312237368 0.19523485604742177 0.1722660494536074 0.16578766810663415 0.1442912209098592 0.13310128949235994 0.1310399863365048 0.10983801101913772 0.11160484229558497 0.10983801101913772 0.11072142665736134 0.0992370233604542 0.07685716052545562 0.06861194790203509 0.06861194790203509 0.06272251031387757 0.051827050775786164 0.05212152265519404 0.0477044444640759 0.04623208506703652 0.03710345680539237 0.03386426613190573 0.03268637861427423 0.0232632784732222 0.02179091907618282 0.01796278464388043 0.020024087799735565 0.014429122090985921 0.011778875176315038 0.013545706452762292 0.008539684502828403 0.007067325105789022 0.004417078191118139 0.004122606311710263 0.005889437588157519 0.0017668312764472555 0.0017668312764472555 0.0029447187940787596 0.0011778875176315037 0.0011778875176315037 0.0017668312764472555 0.0005889437588157519 0.0005889437588157519 0.0011778875176315037 0.0 0.0005889437588157519 0.0023557750352630074 0.0008834156382236277 0.0002944718794078759 0.0005889437588157519 0.0002944718794078759 0.0008834156382236277 0.0 0.0011778875176315037 0.0 0.0002944718794078759 0.0 0.0 0.0 0.0 0.0 0.0 0.0 0.0 0.0 0.0 0.0 0.0 0.0 0.0 0.0 0.0 0.0 0.0 0.0 0.0 0.0 0.0 0.0005889437588157519 0.0002944718794078759 0.0 0.0 0.0014723593970393798 0.0002944718794078759 0.0002944718794078759 0.0005889437588157519 0.0008834156382236277 0.0002944718794078759 0.0011778875176315037 0.0002944718794078759 0.0002944718794078759 0.0008834156382236277 0.0002944718794078759 0.0 0.0 0.0 0.0 0.0 0.0 0.0 0.0 0.0 0.0 0.0 0.0 0.0 0.0 0.0 0.0 0.0 0.0 0.0 0.0 0.0 0.0002944718794078759 0.0002944718794078759 0.0 0.0005889437588157519 0.0011778875176315037 0.0017668312764472555 0.0014723593970393798 0.0011778875176315037 0.0008834156382236277 0.0008834156382236277 0.0017668312764472555 0.0002944718794078759 0.0026502469146708835 0.0023557750352630074 0.0014723593970393798 0.0029447187940787596 0.004417078191118139 0.005594965708749643 0.011189931417499285 0.0011778875176315037 0.0002944718794078759 0.0020613031558551313 0.0011778875176315037 0.0 0.0017668312764472555 0.0023557750352630074 0.003533662552894511 0.003533662552894511 0.0064783813469732705 0.005889437588157519 0.007656268864604774 0.004711550070526015 0.005594965708749643 0.004711550070526015 0.005300493829341767 0.004122606311710263 0.005594965708749643 0.005889437588157519 0.00942310014105203 0.01737384088506468 0.018551728402696185 0.012073347055722914 0.008245212623420525 0.007656268864604774 0.005006021949933891 0.0064783813469732705 0.005300493829341767 0.005889437588157519 0.0064783813469732705 0.010012043899867783 0.009128628261644154 0.007656268864604774
2 0.0 0.08811807822482126 0.7930627040233914 1.5660985720865959 2.691606753049086 3.700959285442493 4.926601646205916 5.83581999879839 6.348506999379168 6.54076462459696 6.745038351390864 7.03743015640959 6.969338914144954 6.773075921735125 6.416598241643803 6.232351350810085 6.0000400536719205 6.12020106943304 5.647567740772636 5.379208138906135 5.327138365409649 5.034746560390923 4.482005887889772 4.498027356657921 4.4299361143932865 4.1495604109506745 3.7690505277071273 3.672921715098232 3.484669457072477 3.156229347325416 3.156229347325416 3.072116636292632 3.0560951675244827 2.7596979953137204 2.8117677688102054 2.4352632527586966 2.3952095808383236 2.2390002603488677 2.0667694710912623 2.002683596018665 1.8985440490256946 1.8745118458734704 1.594136142430857 1.6662327518875295 1.4980073298219614 1.4178999859812147 1.441932189133439 1.249674563915647 1.1935994232271243 1.0814491418500791 1.0333847355456312 0.9612881260889592 0.8811807822482125 0.9292451885526606 0.7850519696393168 0.7089499929906073 0.7810466024472794 0.5927943444215249 0.6288426491498608 0.5807782428454128 0.5967997116135622 0.5607514068852262 0.4886547974285543 0.5206977349648528 0.4325796567400317 0.4325796567400317 0.34846694570724773 0.42456892235595695 0.38451525043558366 0.32443474255502375 0.436585023932069 0.29639717221076245 0.36448841447539704 0.33645084413113574 0.2403220315222398 0.2763703362505758 0.21628982837001584 0.21628982837001584 0.28838643782668777 0.20026835960186648 0.24833276590631448 0.2523381330983518 0.23631666433020249 0.2082790939859412 0.20026835960186648 0.18825225802575452 0.20026835960186648 0.21628982837001584 0.15220395329741854 0.1361824845292692 0.14419321891334388 0.14819858610538122 0.16822542206556787 0.21228446117797847 0.12416638295315724 0.1201610157611199 0.1321771173372319 0.1041395469929706 0.11615564856908257 0.08010734384074661 0.1201610157611199 0.11215028137704525 0.10814491418500792 0.08010734384074661 0.09612881260889591 0.10013417980093324 0.10013417980093324 0.0680912422646346 0.06008050788055995 0.08411271103278394 0.0520697734964853 0.08811807822482126 0.040053671920373304 0.07610197664870927 0.10013417980093324 0.08010734384074661 0.0520697734964853 0.0520697734964853 0.0520697734964853 0.06008050788055995 0.08411271103278394 0.040053671920373304 0.05607514068852262 0.02803757034426131 0.04405903911241063 0.03204293753629864 0.03604830472833597 0.0520697734964853 0.03204293753629864 0.01602146876814932 0.03604830472833597 0.02803757034426131 0.01201610157611199 0.02803757034426131 0.03604830472833597 0.040053671920373304 0.01201610157611199 0.01201610157611199 0.01602146876814932 0.02403220315222398 0.02403220315222398 0.020026835960186652 0.020026835960186652 0.01602146876814932 0.02803757034426131 0.020026835960186652 0.00801073438407466 0.00801073438407466 0.01602146876814932 0.01201610157611199 0.00400536719203733 0.01201610157611199 0.00801073438407466 0.01201610157611199 0.01201610157611199 0.0 0.0 0.01602146876814932 0.01201610157611199 0.00801073438407466 0.01602146876814932 0.00400536719203733 0.01201610157611199 0.0 0.00400536719203733 0.00400536719203733 0.0 0.00400536719203733 0.00400536719203733 0.0 0.020026835960186652 0.00400536719203733 0.00400536719203733 0.0 0.00400536719203733 0.0 0.0 0.00400536719203733 0.00400536719203733 0.00400536719203733 0.0 0.00400536719203733 0.0 0.0 0.0 0.0 0.0 0.0 0.0 0.0 0.0 0.00801073438407466 0.0 0.00400536719203733 0.0 0.0 0.0 0.0 0.0 0.00400536719203733
1 88.57085507828182 3.649136892814131 2.8502609393817746 1.7864311521477316 1.5937374548374146 1.7141710156563628 1.7262143717382576 1.846647932557206 1.702127659574468 1.702127659574468 1.9108791649939783 2.0152549177037336 2.272179847450823 2.448815736651947 2.7418707346447206 2.565234845443597 2.7498996386993175 2.6134082697711762 2.753914090726616 2.810116419108792 2.7619429947812124 2.6896828582898435 2.5050180650341227 2.6455238859895625 2.5291047771979125 2.5732637494981936 2.3765556001605783 2.300281011641911 2.0995584102769973 2.0433560818948213 2.0393416298675233 1.90686471296668 1.7984745082296267 1.730228823765556 1.7422721798474508 1.774387796065837 1.4612605379365717 1.46527498996387 1.364913689281413 1.336812525090325 1.2645523885989562 1.2203934162986751 1.216378964271377 1.0919309514251305 1.027699718988358 0.9152950622240065 0.9032517061421117 0.8831794460056202 0.8069048574869531 0.7226013649136892 0.6583701324769169 0.7466880770774789 0.6543556804496187 0.6583701324769169 0.5861099959855479 0.5018065034122842 0.5459654757125653 0.4496186270574067 0.49779205138498595 0.5419510236852669 0.5098354074668808 0.3171417101565636 0.43757527097551185 0.37735849056603776 0.3010839020473705 0.409474106784424 0.3532717784022481 0.3331995182657567 0.3532717784022481 0.28502609393817746 0.2810116419108792 0.3050983540746688 0.27699718988358085 0.21678040947410682 0.2890405459654757 0.24086712163789645 0.26896828582898435 0.23283821758329987 0.22882376555600162 0.1806503412284223 0.1806503412284223 0.2127659574468085 0.12846246487354476 0.16459253311922922 0.22079486150140504 0.14853472501003614 0.15656362906463267 0.12846246487354476 0.16459253311922922 0.12043356081894822 0.14452027298273784 0.11240465676435167 0.11641910879164993 0.10437575270975512 0.08430349257326375 0.11641910879164993 0.05218787635487756 0.09634684865515857 0.0762745885186672 0.09634684865515857 0.07226013649136892 0.11240465676435167 0.056202328382175835 0.10437575270975512 0.056202328382175835 0.0762745885186672 0.06824568446407066 0.04014452027298274 0.08430349257326375 0.06021678040947411 0.04817342432757928 0.04817342432757928 0.02007226013649137 0.028101164191087918 0.04817342432757928 0.04817342432757928 0.0762745885186672 0.06824568446407066 0.02007226013649137 0.02408671216378964 0.04817342432757928 0.02007226013649137 0.03211561621838619 0.04817342432757928 0.03613006824568446 0.02408671216378964 0.03211561621838619 0.03613006824568446 0.04415897230028101 0.03211561621838619 0.04415897230028101 0.008028904054596548 0.028101164191087918 0.02007226013649137 0.02007226013649137 0.008028904054596548 0.01204335608189482 0.02408671216378964 0.03613006824568446 0.008028904054596548 0.01204335608189482 0.016057808109193095 0.016057808109193095 0.0 0.01204335608189482 0.02408671216378964 0.01204335608189482 0.008028904054596548 0.008028904054596548 0.01204335608189482 0.008028904054596548 0.016057808109193095 0.02007226013649137 0.004014452027298274 0.01204335608189482 0.004014452027298274 0.016057808109193095 0.008028904054596548 0.008028904054596548 0.016057808109193095 0.004014452027298274 0.008028904054596548 0.01204335608189482 0.004014452027298274 0.02007226013649137 0.004014452027298274 0.008028904054596548 0.008028904054596548 0.004014452027298274 0.016057808109193095 0.004014452027298274 0.008028904054596548 0.004014452027298274 0.008028904054596548 0.0 0.0 0.004014452027298274 0.004014452027298274 0.0 0.004014452027298274 0.0 0.004014452027298274 0.004014452027298274 0.0 0.004014452027298274 0.004014452027298274 0.004014452027298274 0.0 0.0 0.0 0.004014452027298274 0.0 0.004014452027298274 0.004014452027298274 0.0 0.0 0.0 0.0 0.0 0.004014452027298274
2 0.008021175904387582 0.24865645303601508 0.637683484398813 1.1911446218015562 1.7927328146306247 2.675062164113259 3.597497393117831 3.99855618833721 4.752546723349643 4.916980829389588 5.606801957166921 5.430336087270394 6.076040747573595 5.883532525868293 6.152241918665276 5.7471725354937035 5.7712360632068656 5.80733135477661 5.751183123445897 5.157616106521216 5.22579610170851 5.02526670409882 4.624207908879441 4.636239672736023 4.291329108847357 4.138926766663993 3.902302077484559 3.8461538461538463 3.4571268147910486 3.312745648512072 2.8274645062966233 2.999919788240956 2.767305687013716 2.675062164113259 2.6870939279698405 2.330151600224593 2.322130424320205 2.265982192989492 2.0052939760968957 2.1256116146627093 1.9691986845271519 1.9852410363359267 1.8528916339135317 1.7245528194433302 1.6242881206384854 1.499959894120478 1.5681398893077725 1.3515681398893078 1.4839175423117028 1.42776931098099 1.2272399133713003 1.1430175663752307 1.1911446218015562 1.175102269992781 1.1590599181840058 1.1309858025186492 1.0106681639528354 0.9464987567177348 0.8783187615304404 0.9104034651479906 0.8863399374348279 0.8903505253870218 0.7820646506777894 0.8061281783909521 0.6898211277773322 0.7299270072992701 0.597577604876875 0.8502446458650839 0.6777893639207508 0.6617470121119756 0.6136199566856502 0.693831715729526 0.6416940723510066 0.5735140771637122 0.5213764337851928 0.5053340819764177 0.4892917301676426 0.4772599663110612 0.5053340819764177 0.38902703136279776 0.4451752626935109 0.34089997593647225 0.46923879040667366 0.4171011470281543 0.39303761931499154 0.385016443410604 0.4130905590759605 0.3208470361755033 0.3689740916018288 0.4050693831715729 0.3248576241276971 0.31282586027111575 0.2927729205101468 0.24063527713162747 0.2446458650838213 0.20855057351407716 0.21256116146627096 0.2326141012272399 0.1844870458009144 0.20453998556188338 0.22058233737065852 0.19651880965749577 0.15641293013555788 0.19651880965749577 0.20052939760968955 0.19651880965749577 0.1483917542311703 0.16042351808775165 0.17245528194433304 0.16042351808775165 0.11229646266142618 0.13234940242239512 0.1844870458009144 0.13635999037458893 0.10026469880484477 0.10026469880484477 0.12432822651800754 0.11630705061361996 0.11229646266142618 0.08422234699606962 0.10828587470923237 0.10427528675703858 0.07620117109168204 0.096254110852651 0.096254110852651 0.05614823133071309 0.07219058313948826 0.07620117109168204 0.05213764337851929 0.0481270554263255 0.08021175904387583 0.0481270554263255 0.06015881928290687 0.03609529156974413 0.02406352771316275 0.05614823133071309 0.03609529156974413 0.02406352771316275 0.040105879521937914 0.03208470361755033 0.016042351808775165 0.04411646747413171 0.03208470361755033 0.02406352771316275 0.020052939760968957 0.012031763856581374 0.020052939760968957 0.008021175904387582 0.016042351808775165 0.012031763856581374 0.004010587952193791 0.012031763856581374 0.012031763856581374 0.008021175904387582 0.0 0.020052939760968957 0.008021175904387582 0.004010587952193791 0.016042351808775165 0.020052939760968957 0.004010587952193791 0.0 0.004010587952193791 0.004010587952193791 0.020052939760968957 0.008021175904387582 0.004010587952193791 0.004010587952193791 0.012031763856581374 0.0 0.004010587952193791 0.004010587952193791 0.0 0.008021175904387582 0.004010587952193791 0.0 0.008021175904387582 0.008021175904387582 0.0 0.0 0.0 0.0 0.0 0.004010587952193791 0.0 0.0 0.008021175904387582 0.0 0.0 0.008021175904387582 0.0 0.0 0.0 0.004010587952193791 0.004010587952193791 0.0 0.0 0.0 0.0 0.004010587952193791
2 0.12065487858476172 0.6881672991856632 2.326867769271776 4.494979119353076 6.462556045193775 7.638690443364901 8.63200429143668 8.768701923960688 8.74931692961743 8.648381269416328 8.417766681539636 7.859278310029562 7.398717582356981 6.830870937715678 6.569841962162497 6.147048551055229 5.648720506817335 5.405739629445806 5.064831108236785 4.697853111876484 4.448521977737337 4.1460492211744295 4.018709861781648 3.676464444411022 3.4682428672411976 3.288096109465058 3.1039386632041057 2.9471875882560354 2.787762720984758 2.645383279773931 2.4562124729069637 2.354608364625059 2.2413064149291193 2.1002638698798965 1.9682453739215007 1.8900369484676665 1.781748359377742 1.6778046828130302 1.5972566890763886 1.4759333624108248 1.4241286361486696 1.332217025038394 1.2570166159481686 1.1691156933227052 1.0645035686771913 1.0528057272631564 0.9836213509001488 0.9451855862540336 0.9141027504967404 0.827872948073282 0.7844238228211518 0.7249319436297734 0.6848250587816531 0.6600924797919789 0.6343572286811018 0.5822182783785455 0.5521381147424553 0.5324188963587961 0.4816168422178439 0.4705874488846108 0.44217840545052567 0.4044110888852124 0.3890367830267663 0.37633626949152826 0.3602935155522802 0.34024007312822 0.30614922100731784 0.2867642266640597 0.27807440161363367 0.2723925929268166 0.24899691009874647 0.2376332927251124 0.22794079555348337 0.21290071373543826 0.19752640787699222 0.18883658282656612 0.17880986161453608 0.17747296545293206 0.16544089999849598 0.15875641919047595 0.14705857777644088 0.13703185656441083 0.12600246323117775 0.13034737575639077 0.10962548525152865 0.10895703717072665 0.11296772565553867 0.0992645399990976 0.09491962747388458 0.09391695535268156 0.09090893898907254 0.07954532161543848 0.07553463313062644 0.06784748020140341 0.06417101575699238 0.07386351292862144 0.07118972060541343 0.05514696666616534 0.05715231090857134 0.04645714161573928 0.04679136565614028 0.0497993820197493 0.04913093393894729 0.036096196363308214 0.034425076161303206 0.0334224040401002 0.03709886848451122 0.044117573332932265 0.027406371312882163 0.036096196363308214 0.030748611716892187 0.03175128383809519 0.0340908521209022 0.026069475151278155 0.02506680303007515 0.02038766646446112 0.022727234747268135 0.019050770302857116 0.025735251110877155 0.021056114545263127 0.019050770302857116 0.017379650100852104 0.016042753939248096 0.017713874141253104 0.012032065454436072 0.014371633737243086 0.013368961616040079 0.012700513535238078 0.010360945252431062 0.010695169292832063 0.011029393333233066 0.007687152929223047 0.011029393333233066 0.011363617373634068 0.008021376969624048 0.0070187048484210415 0.0070187048484210415 0.006684480808020039 0.008689825050426052 0.006350256767619039 0.006016032727218036 0.006350256767619039 0.00501336060601503 0.005681808686817034 0.002673792323208016 0.003676464444411022 0.004344912525213026 0.0033422404040100197 0.005347584646416032 0.004679136565614028 0.003676464444411022 0.004010688484812024 0.004344912525213026 0.0033422404040100197 0.004344912525213026 0.003676464444411022 0.0016711202020050098 0.002005344242406012 0.002339568282807014 0.000668448080802004 0.001002672121203006 0.0016711202020050098 0.002339568282807014 0.002339568282807014 0.002339568282807014 0.002339568282807014 0.002005344242406012 0.001336896161604008 0.000668448080802004 0.000668448080802004 0.001336896161604008 0.0016711202020050098 0.000334224040401002 0.000334224040401002 0.001336896161604008 0.001002672121203006 0.000334224040401002 0.000334224040401002 0.000334224040401002 0.0 0.000668448080802004 0.000334224040401002 0.0 0.001002672121203006 0.0 0.000334224040401002 0.0 0.0 0.0 0.0 0.0 0.000334224040401002 0.000668448080802004 0.000334224040401002 0.0 0.000334224040401002 0.0 0.0 0.0 0.000334224040401002
2 4.035606640764967 1.8267021702626938 1.7297464396872124 2.020613631413657 2.5559778828521846 3.1236607111492063 3.403286658750957 3.646378562947454 3.8121869137866833 3.8683931344101508 3.8332642465204834 4.166286103714529 4.129752060309275 4.190173747479502 4.25481090119649 4.094623172419608 4.1339675268560345 4.287129478054983 4.138182993402795 4.0510633514364205 3.9822107311726724 4.02998601870262 4.04684788488966 3.8838498450816044 3.8697982899257375 3.876824067503671 3.7559806931632163 3.6323270077915875 3.706800250117682 3.4426310131873845 3.4777599010770515 3.4201485249379973 3.3625371487989435 3.1840823983194344 3.0646441794945654 2.9466111161852835 2.8861894290150563 2.932559561029417 2.896025517624163 2.6726057906458798 2.540521172180731 2.526469617024864 2.5306850835716244 2.2932138014374743 2.1358363836917653 2.190637448799646 2.0782250075527107 1.9348991449628687 1.9082011901667215 1.8477795029964943 1.816866081653587 1.6594886639078779 1.5400504450830097 1.479628757912782 1.4444998700231149 1.2829069857306457 1.326466806713833 1.2028131213422044 1.1353656565940435 1.1086677017978965 1.0103068157068285 0.9414541954430807 0.8430933093520125 0.8332572207429056 0.8304469097117323 0.7545685118700513 0.7320860236206642 0.6899313581530636 0.6913365136686502 0.633725137529596 0.6449663816542897 0.5592518952035016 0.5452003400476347 0.512881763189141 0.4468394539565666 0.4482446094721533 0.4187363436448329 0.4580806980812601 0.35269403441225855 0.3540991899278453 0.3498837233810852 0.31475483549141803 0.3007032803355511 0.337237323740805 0.25292799280560374 0.24168674868091025 0.25152283729001707 0.21920426043152327 0.22482488249387003 0.1911011501197895 0.18407537254185605 0.17704959496392264 0.16299803980805574 0.17142897290157588 0.16018772877688237 0.14473101810542882 0.10819697470017495 0.14192070707425544 0.1011711971222415 0.11803306330928176 0.08149901990402787 0.09836088609106812 0.08430933093520125 0.07587839784168113 0.09695573057548144 0.07025777577933438 0.08571448645078794 0.07306808681050776 0.07587839784168113 0.06463715371698762 0.06885262026374768 0.07306808681050776 0.06323199820140094 0.06042168717022756 0.07025777577933438 0.07025777577933438 0.06463715371698762 0.06885262026374768 0.06604230923257431 0.07447324232609444 0.06182684268581425 0.05480106510788082 0.06182684268581425 0.05199075407670743 0.05058559856112075 0.05339590959229412 0.06323199820140094 0.05339590959229412 0.06885262026374768 0.05761137613905419 0.067447464748161 0.07728355335726782 0.06182684268581425 0.06042168717022756 0.08149901990402787 0.06323199820140094 0.07166293129492107 0.067447464748161 0.07166293129492107 0.07025777577933438 0.06463715371698762 0.05480106510788082 0.09555057505989475 0.07306808681050776 0.07306808681050776 0.08290417541961456 0.07728355335726782 0.09836088609106812 0.05761137613905419 0.09836088609106812 0.12084337434045513 0.11522275227810838 0.08149901990402787 0.12786915191838857 0.07868870887285451 0.09133510851313469 0.08852479748196132 0.09133510851313469 0.09695573057548144 0.09133510851313469 0.09414541954430806 0.08430933093520125 0.09555057505989475 0.08571448645078794 0.09133510851313469 0.09555057505989475 0.08430933093520125 0.08149901990402787 0.07868870887285451 0.07306808681050776 0.08149901990402787 0.06604230923257431 0.09695573057548144 0.07306808681050776 0.09133510851313469 0.07306808681050776 0.06182684268581425 0.06042168717022756 0.06182684268581425 0.05480106510788082 0.067447464748161 0.06885262026374768 0.039344354436427253 0.06042168717022756 0.05761137613905419 0.03653404340525388 0.05620622062346751 0.040749509952013936 0.025292799280560375 0.025292799280560375 0.030913421342907126 0.021077332733800313 0.021077332733800313 0.02669795479614706 0.022482488249387002 0.025292799280560375 0.03231857685849381 0.019672177218213627 0.008430933093520126 0.0028103110311733753
3 0.31750247482917643 2.3842866455803176 3.3367940700678465 3.4575174445276096 3.8740130864137914 4.1166670690779155 4.7335635125673035 5.023299611270734 5.201970205471183 5.425308448221744 5.308206774995774 5.408407175797378 5.526716082767946 5.395127604606804 5.278025931380833 5.129536180795326 4.9556945215732675 5.001569403867976 4.668372890359032 4.4776299587126065 4.3508704155298545 4.1058019653765365 4.115459835333318 3.9911147596397614 3.819687567906898 3.7581186469324193 3.439408938358645 3.2909191877731363 3.2438370717338296 3.055508607576599 2.984281816645339 2.694545717941908 2.7247265615568486 2.543641499867204 2.521911292464447 2.3915300480479034 2.203201583890673 2.206823285124466 2.0740275732187263 2.0293599246686145 1.8337880580437984 1.7806697732815027 1.7034068136272544 1.6032064128256511 1.694956177415071 1.4655817659415216 1.441437091049569 1.3883188062872733 1.37986817007509 1.33399328778038 1.239829055701765 1.1673950310259074 1.1396286549001617 1.0696090977134993 1.0478788903107419 1.0768525001810851 0.9078397759374169 0.9380206195523577 0.9150831784050028 0.8583431924089143 0.8692082961102928 0.8136755438588019 0.7629717265857016 0.7617644928411039 0.7533138566289205 0.6265543134461694 0.673636429485477 0.6253470797015718 0.641041118381341 0.5698143274500809 0.598787937320424 0.520317743921578 0.5046237052418089 0.5130743414539923 0.4853079653282469 0.48651519907284446 0.4937586015404303 0.3875220320158389 0.4140811743969868 0.4044233044402057 0.39838713571721757 0.3899364995050342 0.3488905521887148 0.3778641620590579 0.34043991597653134 0.3223314098075669 0.3368182147427385 0.3657918246130816 0.3018084361494072 0.2957722674264191 0.2631769563222831 0.25955525508849026 0.23420334645194002 0.29335779993722383 0.24989738513170923 0.24265398266412344 0.2655914238114784 0.19919356785860878 0.22937441147354948 0.1955718666248159 0.18591399666803488 0.21368037279378033 0.20643697032619457 0.2040225028369993 0.1834995291788396 0.16901272424366806 0.16539102300987515 0.17384165922205858 0.15935485428688703 0.13641741313953207 0.12313784194895815 0.1291740106719463 0.15573315305309413 0.1460752830963131 0.1243450756935558 0.12193060820436052 0.11830890697056763 0.11589443948137239 0.1207233744597629 0.10985827075838422 0.1291740106719463 0.09295699833401744 0.10502933577999371 0.10623656952459136 0.0917497645894198 0.08933529710022454 0.09295699833401744 0.10382210203539609 0.09295699833401744 0.06398338846367434 0.08450636212183403 0.08209189463263877 0.057947219740686194 0.06277615471907672 0.07605572590965062 0.07001955718666249 0.06036168722988145 0.0543255185068933 0.04949658352850279 0.06156892097447907 0.04828934978390516 0.04708211603930753 0.03863147982712413 0.04466764855011227 0.057947219740686194 0.030180843614940726 0.042253181060917015 0.03863147982712413 0.035009778593331244 0.03621701233792887 0.032595311104135986 0.03138807735953836 0.035009778593331244 0.020522973658159693 0.028973609870343097 0.02535190863655021 0.018108506168964436 0.010865103701378661 0.035009778593331244 0.01207233744597629 0.01327957119057392 0.021730207402757322 0.020522973658159693 0.02535190863655021 0.006036168722988145 0.020522973658159693 0.008450636212183404 0.009657869956781032 0.010865103701378661 0.006036168722988145 0.01207233744597629 0.006036168722988145 0.004828934978390516 0.007243402467585774 0.006036168722988145 0.006036168722988145 0.009657869956781032 0.007243402467585774 0.008450636212183404 0.004828934978390516 0.001207233744597629 0.007243402467585774 0.002414467489195258 0.007243402467585774 0.004828934978390516 0.008450636212183404 0.003621701233792887 0.001207233744597629 0.001207233744597629 0.004828934978390516 0.001207233744597629 0.003621701233792887 0.002414467489195258 0.002414467489195258 0.001207233744597629 0.003621701233792887 0.0 0.0 0.001207233744597629 0.001207233744597629
1 66.97255059106392 15.2474454017231 6.547786014826689 2.913243838910038 2.300140252454418 2.42837106792226 2.312161891404528 2.248046483670607 2.1518733720697254 2.0276497695852536 2.0356641955519934 1.7150871568823882 1.8513323983169707 1.7832097775996794 1.7511520737327189 1.450611099979964 1.5427769985974753 1.514726507713885 1.6389501101983572 1.7431376477659788 1.5027048687637747 1.5908635543979162 1.5908635543979162 1.6870366659987979 1.6028851933480266 1.703065517932278 1.6269284712482468 1.5347625726307352 1.6670006010819476 1.7391304347826086 1.5547986375475857 1.7311160088158684 1.6549789621318374 1.6389501101983572 1.6149068322981366 1.6389501101983572 1.634942897214987 1.7832097775996794 1.6068924063313963 1.5387697856141054 1.5507914245642156 1.4265678220797435 1.2582648767782008 1.3504307753957123 1.286315367661791 1.3664596273291925 1.266279302744941 1.1861350430775397 1.2302143858946104 1.0579042276096973 1.1580845521939491 1.1620917651773193 0.9497094770587057 0.9737527549589261 0.905630134241635 1.0178320977759967 0.8094570226407534 0.9416950510919656 0.8936084952915248 0.7573632538569425 0.8174714486074935 0.669204568222801 0.721298337006612 0.6852334201562813 0.6531757162893208 0.60909637347225 0.5730314566219195 0.5249449008214786 0.5529953917050692 0.5930675215387698 0.5089160488879984 0.548988178721699 0.49288719695451816 0.5169304748547385 0.3806852334201563 0.4047285113203767 0.4047285113203767 0.37267080745341613 0.4047285113203767 0.3766780204367862 0.4127429372871168 0.3085553997194951 0.4167501502704869 0.364656381486676 0.33660589060308554 0.2644760569024243 0.25245441795231416 0.33259867761971545 0.42476457623722697 0.32458425165297533 0.304548186736125 0.2604688439190543 0.2764976958525346 0.24043277900220394 0.24043277900220394 0.26848326988579446 0.21638950110198354 0.26848326988579446 0.17231015828491283 0.20837507513524345 0.1763173712682829 0.2284111400520938 0.180324584251653 0.17231015828491283 0.1402524544179523 0.1763173712682829 0.19234622320176317 0.16830294530154277 0.1442596674013224 0.11620917651773191 0.16830294530154277 0.13624524143458225 0.16830294530154277 0.12823081546784212 0.1402524544179523 0.12021638950110197 0.1402524544179523 0.14826688038469246 0.10819475055099177 0.10418753756762172 0.11620917651773191 0.11220196353436186 0.13223802845121216 0.11220196353436186 0.06812262071729112 0.09216589861751152 0.06812262071729112 0.08415147265077139 0.0721298337006612 0.060108194750550986 0.0721298337006612 0.0721298337006612 0.09216589861751152 0.04808655580044079 0.08415147265077139 0.07613704668403125 0.0360649168503306 0.06812262071729112 0.0721298337006612 0.05209376878381086 0.07613704668403125 0.060108194750550986 0.06812262071729112 0.04808655580044079 0.016028851933480266 0.03205770386696053 0.044079342817070724 0.02003606491685033 0.028050490883590466 0.06411540773392106 0.024043277900220397 0.03205770386696053 0.0360649168503306 0.03205770386696053 0.07613704668403125 0.03205770386696053 0.03205770386696053 0.044079342817070724 0.016028851933480266 0.04007212983370066 0.02003606491685033 0.044079342817070724 0.024043277900220397 0.044079342817070724 0.012021638950110198 0.016028851933480266 0.008014425966740133 0.024043277900220397 0.024043277900220397 0.012021638950110198 0.028050490883590466 0.028050490883590466 0.024043277900220397 0.024043277900220397 0.016028851933480266 0.012021638950110198 0.012021638950110198 0.004007212983370066 0.004007212983370066 0.004007212983370066 0.008014425966740133 0.016028851933480266 0.0 0.008014425966740133 0.004007212983370066 0.008014425966740133 0.004007212983370066 0.004007212983370066 0.0 0.008014425966740133 0.0 0.0 0.004007212983370066 0.0 0.0 0.0 0.0 0.004007212983370066 0.0 0.004007212983370066
1 136.59073015980226 4.0665044230042655 1.9405918024032607 1.1765128025446785 1.0937727561511525 0.9890812688777114 1.038894153951365 1.081108463335817 1.195509241767682 1.2161942533660635 1.1984642434245936 1.247432842310558 1.2622078505951162 1.3158200235133704 1.2250592583367983 1.3052664461672574 1.291335724070388 1.2769828588796743 1.3065328754487908 1.262629993688961 1.2495435577797804 1.3217300268271936 1.1912878108292368 1.1520285031016964 1.1684920837616326 1.1879106660784806 1.1456963566940286 1.0857520373681067 1.054513448423612 1.0355170092006087 1.0084998511945595 0.9878148395961779 0.9447562440240368 0.9460226733055703 0.9071855086718745 0.8565283374105321 0.8219126037152814 0.8210683175275924 0.753525422512469 0.7455047037294231 0.7117332562218615 0.7032903943449711 0.6826053827465897 0.6467232197698054 0.6517889368959395 0.5985989070715301 0.5964881916023074 0.5774917523793041 0.5665160319393464 0.49728456454884506 0.48884170267195476 0.4681566910735732 0.47533312366893005 0.44916025185056974 0.4132780888737856 0.39470379274462664 0.37781806899084586 0.3558666281109307 0.3440466214832842 0.33053804248025953 0.31787374966492393 0.3115416032572561 0.29592230878500886 0.2739708679050938 0.24357656514828832 0.2575072872451575 0.24864228227442253 0.2228915535499068 0.2038951143269034 0.19671868173154655 0.18194367344698834 0.18996439223003422 0.15999223256707326 0.16168080494245135 0.14395079500098149 0.14395079500098149 0.15366008615940546 0.12622078505951162 0.12959792981026777 0.11524506461955408 0.12031078174568834 0.10258077180421848 0.10595791655497463 0.10047005633499588 0.09624862539655066 0.08907219280119381 0.0700757535781904 0.0742971845166356 0.06121074860745547 0.0658543226397452 0.06036646241976643 0.06247717788898903 0.05825574695054383 0.05319002982440958 0.05614503148132122 0.04263645247829657 0.04432502485367465 0.04052573700907396 0.04390288175983013 0.04094788010291849 0.04010359391522945 0.031238588944494515 0.027439301099893832 0.03377144750756164 0.028705730381427395 0.02701715800604931 0.029550016569116433 0.029127873475271914 0.022373583973759586 0.025328585630671228 0.02617287181836027 0.022795727067604105 0.019840725410692463 0.014352865190713698 0.0164635806599363 0.02026286850453698 0.01773000994146986 0.020685011598381504 0.01604143756609178 0.013508579003024655 0.01604143756609178 0.012242149721491093 0.00886500497073493 0.01013143425226849 0.012242149721491093 0.0067542895015123275 0.00802071878304589 0.007598575689201369 0.0067542895015123275 0.01013143425226849 0.006332146407667807 0.007176432595356849 0.005065717126134245 0.00886500497073493 0.010553577346113011 0.0025328585630671227 0.0037992878446006847 0.0067542895015123275 0.002955001656911643 0.00802071878304589 0.004221430938445205 0.005065717126134245 0.004643574032289725 0.005487860219978766 0.005910003313823286 0.0021107154692226026 0.004643574032289725 0.0037992878446006847 0.0033771447507561637 0.0037992878446006847 0.0021107154692226026 0.0025328585630671227 0.0016885723753780819 0.0012664292815335613 0.0021107154692226026 0.0016885723753780819 0.0012664292815335613 0.0021107154692226026 0.0008442861876890409 0.0016885723753780819 0.0037992878446006847 0.0012664292815335613 0.0025328585630671227 0.0016885723753780819 0.0016885723753780819 0.0012664292815335613 0.0012664292815335613 0.0008442861876890409 0.0008442861876890409 0.0021107154692226026 0.002955001656911643 0.00042214309384452047 0.0021107154692226026 0.0008442861876890409 0.0 0.00042214309384452047 0.00042214309384452047 0.0008442861876890409 0.0 0.0025328585630671227 0.0 0.00042214309384452047 0.0 0.0 0.0008442861876890409 0.00042214309384452047 0.0 0.00042214309384452047 0.00042214309384452047 0.00042214309384452047 0.0 0.00042214309384452047 0.0 0.0008442861876890409 0.0 0.0 0.0 0.0 0.0 0.00042214309384452047
2 0.6210708866247561 0.5733795794493822 0.6134836332104922 0.6861044873184479 0.834597875569044 1.0730544114459137 1.102319531758075 1.250812920008671 1.4101452417082159 1.5933232169954477 1.7591588987643614 2.0897463689572944 2.346629091697377 2.5265553869499238 2.7455018426186864 3.0500758725341424 3.251680034684587 3.172555820507262 3.5194016908736176 3.6245393453284196 3.6440494255365277 3.7903750270973333 3.85432473444613 4.037502709733362 4.01690873618036 4.136137004118795 3.9323650552785603 3.8868415347929766 4.036418816388467 3.878170388033818 3.8315629742033384 3.8478213743767613 3.7882072404075435 3.6386299588120528 3.6863212659874267 3.5866030782570992 3.579015824842836 3.431606329937134 3.313461955343594 3.231086061131585 3.266854541513115 3.14979406026447 2.9655321916323434 2.960112724907869 2.9319314979406026 2.768263602861478 2.6934749620637333 2.6035118144374594 2.5634077606763497 2.4864513331888145 2.3954042922176457 2.300021677866898 2.1927162367223065 2.1060047691307178 2.042055061781921 2.0203771948840235 1.9152395404292217 1.8827227400823758 1.7927595924561022 1.827444179492738 1.6431823108606112 1.6713635378278777 1.6019943637546066 1.4589204422284847 1.4025579882939518 1.3657056145675266 1.2930847604595708 1.267071320182094 1.164101452417082 1.14133969217429 1.0567960112724908 1.0188597442011706 1.0112724907869066 0.9971818773032733 0.9299804899197919 0.9299804899197919 0.8324300888792543 0.7988293951875135 0.8107522219813571 0.747886407977455 0.747886407977455 0.6817689139388684 0.6438326468675483 0.6470843269022328 0.5733795794493822 0.5896379796228052 0.5625406460004335 0.5018426186863213 0.5083459787556904 0.4866681118577932 0.42055061781920655 0.4183828311294169 0.4346412313028398 0.4075438976804682 0.4075438976804682 0.34142640364188165 0.3240841101235638 0.31541296336440494 0.2948189898114026 0.29156730977671796 0.25796661608497723 0.27097333622371556 0.2557988293951875 0.21786256232386733 0.2536310427053978 0.19726858877086492 0.21894645566876222 0.19401690873618035 0.1755907218729677 0.20052026880554952 0.16475178842401908 0.15499674831996532 0.149577281595491 0.13765445480164754 0.12356384131801432 0.15499674831996532 0.11706048124864514 0.12247994797311944 0.11597658790375026 0.12356384131801432 0.11055712117927596 0.1127249078690657 0.0921309343160633 0.07912421417732496 0.08562757424669412 0.08562757424669412 0.07045306741816605 0.07587253414264036 0.07262085410795578 0.06936917407327119 0.05961413396921743 0.057446347279427705 0.05527856058963798 0.045523520485584223 0.05094298721005853 0.040104053761109905 0.045523520485584223 0.030349013657056147 0.03793626707132018 0.031432907001951005 0.03251680034684587 0.022761760242792112 0.030349013657056147 0.03251680034684587 0.022761760242792112 0.029265120312161285 0.016258400173422935 0.026013440277476697 0.016258400173422935 0.015174506828528073 0.015174506828528073 0.015174506828528073 0.006503360069369174 0.022761760242792112 0.013006720138738348 0.01842618686321266 0.006503360069369174 0.010838933448948623 0.010838933448948623 0.006503360069369174 0.013006720138738348 0.008671146759158898 0.007587253414264037 0.008671146759158898 0.008671146759158898 0.008671146759158898 0.004335573379579449 0.005419466724474312 0.004335573379579449 0.004335573379579449 0.005419466724474312 0.003251680034684587 0.003251680034684587 0.003251680034684587 0.0010838933448948623 0.0021677866897897246 0.004335573379579449 0.0010838933448948623 0.0010838933448948623 0.0021677866897897246 0.003251680034684587 0.003251680034684587 0.0 0.0010838933448948623 0.0010838933448948623 0.0021677866897897246 0.0010838933448948623 0.0010838933448948623 0.0 0.0 0.0 0.0 0.0021677866897897246 0.0 0.0 0.0 0.0 0.0 0.0 0.0010838933448948623
2 14.87803621066736 3.5283014613751806 6.794412180595953 8.961028921507049 9.724248778429496 9.014175693565376 8.15352008786933 7.378221419115444 6.684575518342078 6.0142819871094915 5.4177497334608855 5.116262590148199 4.709609258489794 4.462879395479626 4.181362554394916 3.9059656446381346 3.772615562019062 3.5368371550693967 3.348568741323387 3.2318068936194884 3.0406395650339335 2.92291141238352 2.826280917732018 2.692769784288526 2.6320536234824985 2.511265505168121 2.4577966314609565 2.275487098218456 2.2571273042346705 2.134728677676101 2.1105710540132256 1.9889776815767521 1.9466213147545102 1.8528897349425533 1.7841210329155675 1.7493340548410268 1.672673862417502 1.605676719459127 1.5330427976460812 1.4747423992063415 1.411610476034027 1.3695762108606233 1.2961370349254817 1.2359040265927121 1.220604198272891 1.171322646000625 1.095789809348034 1.0490850702664747 0.9960993490325677 0.974679589384818 0.9205665123799769 0.8894837032670769 0.8558240809634705 0.7912427003713832 0.7627367044491901 0.7289160313211643 0.7092678307420256 0.6828554955372816 0.6445253993255191 0.6223003855556737 0.5995922193125707 0.5530485310554304 0.5464454472542445 0.5087595543401587 0.48540718479937894 0.4676915941132702 0.4517475624957724 0.43741403912246624 0.4237247190468368 0.3881324868502002 0.3802409964536609 0.3739600143013132 0.35237920382914445 0.34674242497447344 0.3108280911289985 0.3140491076173819 0.29391775456498564 0.27958423119167947 0.2728200965660743 0.26186864050557074 0.24801826960552215 0.23143003469034756 0.23626155942292268 0.21113763081353215 0.21468074895075387 0.20727241102747204 0.20372929289025032 0.17908851675411727 0.18118217747156648 0.1670097049226795 0.16185607854126605 0.1470394026947024 0.15042147000750497 0.13463848921442628 0.12368703315392272 0.13318903179465377 0.12658594799346778 0.10983666225387408 0.1070987982387482 0.1021062226817539 0.0988852061933705 0.08455168282006435 0.08213592045377681 0.0837464286979685 0.0848737844689027 0.07746544654562086 0.07327812511072243 0.07070131192001572 0.06619188883627895 0.06828554955372816 0.06313192317231471 0.05427412782926036 0.05427412782926036 0.05379097535600284 0.04767104402807438 0.0470268407303977 0.04074585857805006 0.04670473908155936 0.0346259272501216 0.04010165528037338 0.03365962230360657 0.03929640115827753 0.03800799456292416 0.03881324868502002 0.032371215708253215 0.03253226653267238 0.032371215708253215 0.028183894273354788 0.03043860581522317 0.026251284380324744 0.024801826960552213 0.027539690975678106 0.02737864015125893 0.023674471189618018 0.02464077613613304 0.02383552201403719 0.025284979433809723 0.036880638791989974 0.029794402517546486 0.04090690940246923 0.03076070746406151 0.028989148395450637 0.032854368181510725 0.028344945097773955 0.02641233520474391 0.03253226653267238 0.02641233520474391 0.021419759647749635 0.021580810472168806 0.026573386029163083 0.027539690975678106 0.02335236954077968 0.022225013769845488 0.02351342036519885 0.021419759647749635 0.020936607174492125 0.01610508244191702 0.020292403876815447 0.024801826960552213 0.02286921706752217 0.02286921706752217 0.023674471189618018 0.019165048105881256 0.02286921706752217 0.028989148395450637 0.01626613326633619 0.019326098930300423 0.019809251403557934 0.02238606459426466 0.016427184090755362 0.01626613326633619 0.014494574197725318 0.012723015129114446 0.011434608533761085 0.011273557709341913 0.010468303587246063 0.011112506884922744 0.00773043957212017 0.00805254122095851 0.007408337923281829 0.00869674451863519 0.012239862655856934 0.011434608533761085 0.007408337923281829 0.00869674451863519 0.011112506884922744 0.029794402517546486 0.03317646983034906 0.005475728030251787 0.004026270610479255 0.002254711541868383 0.012078811831437764 0.001449457419772532 0.001449457419772532 0.000805254122095851 0.0003221016488383404 0.0003221016488383404 0.0006442032976766808 0.0001610508244191702 0.0003221016488383404
1 110.06914270601126 4.478533015956978 8.715255475371848 9.32985730658304 7.652296570572159 6.954572360549616 6.435687207969673 6.178763491643682 5.513784461152882 4.5918817143360915 3.979798743088878 3.5868565887079504 2.780821400234254 2.4710016246646767 2.0956914900316117 1.8639563733454239 1.4508633392526542 1.3475900807294618 1.098222944295412 0.8387803680054408 0.7380259694462287 0.6045263913552726 0.5440737522197454 0.5088097127240211 0.4483570735884938 0.42820619387665143 0.2795934560018136 0.29218775582171513 0.24936713643404995 0.24684827647006966 0.216621956902306 0.19647107719046358 0.18135791740658178 0.2040276570824045 0.15868817773075905 0.15868817773075905 0.14357501794687724 0.16876361758668026 0.11334869837911361 0.09067895870329089 0.0957166786312515 0.08060351884736969 0.06800921902746818 0.07304693895542878 0.07556579891940908 0.05541491920756666 0.04785833931562575 0.05541491920756666 0.04282061938766514 0.040301759423684844 0.03778289945970454 0.045339479351645444 0.06549035906348787 0.05037719927960605 0.040301759423684844 0.025188599639803026 0.02770745960378333 0.04282061938766514 0.05037719927960605 0.03274517953174393 0.03274517953174393 0.020150879711842422 0.025188599639803026 0.025188599639803026 0.035264039495724236 0.03022631956776363 0.012594299819901513 0.025188599639803026 0.020150879711842422 0.03022631956776363 0.025188599639803026 0.03022631956776363 0.012594299819901513 0.03022631956776363 0.020150879711842422 0.015113159783881815 0.020150879711842422 0.025188599639803026 0.015113159783881815 0.010075439855921211 0.010075439855921211 0.015113159783881815 0.017632019747862118 0.012594299819901513 0.010075439855921211 0.022669739675822722 0.020150879711842422 0.017632019747862118 0.0050377199279606055 0.012594299819901513 0.007556579891940907 0.015113159783881815 0.017632019747862118 0.007556579891940907 0.02770745960378333 0.015113159783881815 0.025188599639803026 0.015113159783881815 0.007556579891940907 0.017632019747862118 0.007556579891940907 0.017632019747862118 0.022669739675822722 0.017632019747862118 0.02770745960378333 0.025188599639803026 0.010075439855921211 0.0050377199279606055 0.020150879711842422 0.017632019747862118 0.022669739675822722 0.012594299819901513 0.0050377199279606055 0.015113159783881815 0.007556579891940907 0.022669739675822722 0.015113159783881815 0.017632019747862118 0.007556579891940907 0.022669739675822722 0.017632019747862118 0.012594299819901513 0.015113159783881815 0.03022631956776363 0.0050377199279606055 0.015113159783881815 0.010075439855921211 0.007556579891940907 0.007556579891940907 0.0050377199279606055 0.0050377199279606055 0.010075439855921211 0.015113159783881815 0.010075439855921211 0.012594299819901513 0.007556579891940907 0.007556579891940907 0.007556579891940907 0.010075439855921211 0.007556579891940907 0.010075439855921211 0.007556579891940907 0.0050377199279606055 0.010075439855921211 0.007556579891940907 0.0050377199279606055 0.0050377199279606055 0.015113159783881815 0.007556579891940907 0.0025188599639803027 0.007556579891940907 0.0050377199279606055 0.007556579891940907 0.015113159783881815 0.010075439855921211 0.0050377199279606055 0.007556579891940907 0.0 0.0025188599639803027 0.0050377199279606055 0.0050377199279606055 0.0 0.007556579891940907 0.0025188599639803027 0.0050377199279606055 0.0025188599639803027 0.0050377199279606055 0.0 0.0025188599639803027 0.0050377199279606055 0.0050377199279606055 0.0050377199279606055 0.0 0.015113159783881815 0.0 0.0 0.007556579891940907 0.0 0.0 0.0 0.007556579891940907 0.0025188599639803027 0.0025188599639803027 0.0025188599639803027 0.0050377199279606055 0.0050377199279606055 0.0025188599639803027 0.0 0.0025188599639803027 0.0 0.0 0.0 0.0 0.0 0.0 0.0 0.0 0.0 0.0 0.0025188599639803027
3 30.94505392608562 9.809273779925935 6.514016145951052 3.797138237390685 2.2520877885378816 2.260201331780169 2.2544059437499637 2.3842226356265686 2.4294266622621716 2.6218335448649963 3.0101245428887693 3.07387381122103 3.2998939443990474 3.703252951301354 3.7275935810282177 3.966363567872687 4.203974477111115 4.242224038110471 4.337268401805843 4.280473599109828 4.363927186744789 4.348859177866253 4.464766938470365 4.341904712230008 4.213247097959444 4.185429235414457 3.9767952663270574 3.741502512300711 3.726434503422177 3.4969371374260363 3.4042109289427476 3.195576959855347 3.1967360374613882 2.829308436346355 2.6426969417737363 2.515198405109214 2.351768462657417 2.320473367294307 2.072430759601509 1.976227318300097 1.8220699966966287 1.7026850032743943 1.6632763646689963 1.5647547681555019 1.3978475928855816 1.2807807546754293 1.2529628921304425 1.1695093044954825 1.0257836813463845 0.9921704307711924 0.9098759207422733 0.834535876349601 0.7858546168958742 0.7649912199871343 0.7557185991388053 0.6606742354434341 0.5714252597782685 0.5250621555366239 0.5308575435668295 0.5401301644151585 0.4381313350835405 0.46015380959832164 0.38945007562981376 0.38713192041773153 0.360473135478786 0.36163221308482707 0.33960973857004595 0.30367833278277145 0.2770195478438259 0.2723832374196615 0.2526789181169625 0.23645183163238692 0.24688353008675695 0.2039976586632358 0.20515673626927694 0.16342994245179687 0.17270256330012576 0.1576345544215913 0.15299824399742684 0.16690717526992022 0.16227086484575576 0.13445300230076904 0.12402130384639905 0.1112714501799468 0.10895329496786457 0.1112714501799468 0.1019988293316179 0.10895329496786457 0.10547606214974124 0.10431698454370013 0.09736251890745344 0.08808989805912455 0.07649912199871342 0.06722650115038452 0.06722650115038452 0.07070373396850786 0.0649083459383023 0.06027203551413785 0.054476647483932286 0.0556357250899734 0.06954465636246675 0.03245417296915115 0.045204026635603384 0.04868125945372672 0.04752218184768561 0.0556357250899734 0.0463631042416445 0.04752218184768561 0.052158492271850064 0.045204026635603384 0.04056771621143894 0.052158492271850064 0.0370904833933156 0.02665878493894559 0.044044949029562276 0.03593140578727449 0.02665878493894559 0.02665878493894559 0.028976940151027815 0.020863396908740027 0.025499707332904475 0.0185452416966578 0.02318155212082225 0.020863396908740027 0.0185452416966578 0.017386164090616687 0.012749853666452237 0.02434062972686336 0.016227086484575576 0.019704319302698912 0.01390893127249335 0.01390893127249335 0.012749853666452237 0.017386164090616687 0.019704319302698912 0.01390893127249335 0.016227086484575576 0.006954465636246675 0.0092726208483289 0.0092726208483289 0.010431698454370014 0.0011590776060411126 0.005795388030205562 0.011590776060411125 0.006954465636246675 0.0092726208483289 0.0034772328181233375 0.006954465636246675 0.008113543242287788 0.005795388030205562 0.0034772328181233375 0.00463631042416445 0.00463631042416445 0.002318155212082225 0.00463631042416445 0.01390893127249335 0.00463631042416445 0.005795388030205562 0.0011590776060411126 0.005795388030205562 0.0011590776060411126 0.0011590776060411126 0.002318155212082225 0.00463631042416445 0.0034772328181233375 0.0034772328181233375 0.006954465636246675 0.002318155212082225 0.0034772328181233375 0.0034772328181233375 0.002318155212082225 0.0034772328181233375 0.0 0.005795388030205562 0.002318155212082225 0.002318155212082225 0.0 0.0011590776060411126 0.0 0.0034772328181233375 0.002318155212082225 0.0011590776060411126 0.0 0.0011590776060411126 0.0011590776060411126 0.0 0.0 0.0 0.0 0.0011590776060411126 0.0 0.0 0.0011590776060411126 0.002318155212082225 0.0 0.0 0.0011590776060411126 0.0 0.0011590776060411126 0.0011590776060411126
2 0.8884078317061931 0.2775604685306442 0.9355609614951829 2.155112363764963 3.3317972844083887 4.201986861423382 4.997160095592254 5.22649577229325 5.490124634295328 5.544779398368931 5.470834717563469 5.372241809822855 5.314372059627276 5.101111313536164 4.9553652760065585 4.7045963584923856 4.666016525028667 4.395957690782635 4.481690654035344 4.320941347936515 4.076602402666295 4.000514397779517 4.013374342267423 3.8183318508675104 3.684374095785153 3.679015785581859 3.482901632141288 3.444321798677569 3.3489438770589306 3.259995927684246 3.1903378950414196 3.052093491796427 3.039233547308521 2.878484241209692 2.881699227331669 2.662008508996603 2.60842540696366 2.5730605596219176 2.371588095978052 2.3405098967989457 2.34586820700224 2.1443957433583747 2.0908126413254315 2.0672360764309365 1.9439949417551683 1.8732652470716835 1.7457374642332792 1.6107080471102633 1.5592682691586381 1.5935614544597216 1.5710565516058854 1.476750292027906 1.3385058887829135 1.2624178838961344 1.251701263489546 1.1595383279928841 1.1595383279928841 1.2174080781884624 1.0234372488292092 1.0223655867885504 1.0373688553577742 0.9184143688446411 0.8616162806897217 0.866974590893016 0.8498279982424743 0.7683816831524011 0.7212285533634113 0.6890786921436456 0.6676454513304685 0.6815770578590336 0.6387105762326792 0.6569288309238798 0.5754825158338066 0.5336876962481112 0.5111827933942752 0.45331304319869686 0.5143977795162518 0.45974301544265 0.4340231264668374 0.38794165871850655 0.38472667259652993 0.4008016032064128 0.38151168647455336 0.3322152326042459 0.3322152326042459 0.2775604685306442 0.30863866770975107 0.3097103297504099 0.2743454824086676 0.2775604685306442 0.24219562118890187 0.248625593432855 0.22719235261967788 0.23040733874165445 0.22826401466033674 0.2164757322130893 0.16825094038344068 0.22290570445704241 0.1757525746680527 0.1596776440581698 0.14788936161092237 0.15110434773289896 0.1596776440581698 0.1596776440581698 0.15539099589553437 0.12752778283840407 0.14681769957026353 0.12859944487906294 0.1093095281472035 0.11573950039115664 0.1221694726351098 0.12645612079774524 0.09430625957797949 0.0964495836592972 0.10073623182193263 0.08787628733402635 0.08573296325270863 0.08787628733402635 0.0685863706021669 0.07180135672414346 0.058941412236237174 0.0610847363175549 0.06751470856150804 0.05679808815491947 0.05679808815491947 0.05786975019557832 0.05251143999228403 0.041794819585695454 0.049296453870307455 0.04393814366701317 0.041794819585695454 0.036436509382401165 0.037508171423060024 0.047153129788989744 0.036436509382401165 0.032149861219765735 0.0203615787725183 0.027863213057130302 0.032149861219765735 0.03429318530108345 0.024648226935153728 0.022504902853836013 0.011788282447247436 0.0203615787725183 0.023576564894494872 0.018218254691200583 0.021433240813177157 0.02571988897581259 0.017146592650541723 0.016074930609882868 0.010716620406588578 0.016074930609882868 0.009644958365929721 0.012859944487906295 0.009644958365929721 0.011788282447247436 0.008573296325270862 0.005358310203294289 0.009644958365929721 0.011788282447247436 0.008573296325270862 0.009644958365929721 0.010716620406588578 0.0032149861219765738 0.0064299722439531476 0.007501634284612005 0.007501634284612005 0.008573296325270862 0.0032149861219765738 0.004286648162635431 0.0032149861219765738 0.004286648162635431 0.0032149861219765738 0.004286648162635431 0.004286648162635431 0.0010716620406588577 0.005358310203294289 0.004286648162635431 0.0010716620406588577 0.005358310203294289 0.005358310203294289 0.004286648162635431 0.0010716620406588577 0.0064299722439531476 0.0032149861219765738 0.0010716620406588577 0.0021433240813177154 0.0010716620406588577 0.0010716620406588577 0.0 0.0010716620406588577 0.0 0.0 0.0 0.0 0.0 0.0 0.0 0.0 0.0010716620406588577
