29 200
1 74.14281234023723 38.97545614283812 21.728452343616862 13.482438089018919 6.004287549351927 4.067014081320234 3.35872353039735 3.212941124242984 2.8048076688992283 2.4456502281967234 2.1652553841395044 1.9893999865387562 1.7831851880492795 1.6583106711862077 1.5068000761849116 1.401687810843748 1.2968619549449305 1.173419485293591 1.087783062031989 1.0342244963131944 0.9279665932026446 0.8872964523894423 0.7867667381258224 0.7337809912917209 0.6773583311494613 0.6636106779168296 0.6252318126423991 0.5676635147307536 0.5138185395696125 0.4717163515446777 0.4413569506559492 0.4324782579432079 0.40068680984274685 0.3582982123754656 0.3519972046438427 0.3350990475453995 0.2955745445015831 0.27438024576794245 0.2657879624975476 0.24001111268636305 0.24087034101340252 0.22397218391495932 0.21652553841395042 0.19475842079561678 0.18072435812063853 0.1744233503890156 0.16124851604107684 0.15867083105995838 0.14836009113548457 0.1391949889803967 0.13174834347938782 0.12057837522787451 0.1157094147079841 0.10196176147535232 0.09651998207076891 0.10854917864932172 0.09222384043557148 0.0853500138192556 0.07475286445243526 0.0787625966452862 0.0727479983560098 0.06873826616315887 0.06415571508561495 0.06931108504785186 0.06845185672081237 0.05384497516114111 0.053272156276448115 0.048689605198904196 0.05212651850706214 0.04439346356370676 0.038665274716776867 0.0366604086203514 0.035228361408618916 0.040956550255548826 0.040956550255548826 0.03465554252392593 0.03179144810046098 0.03179144810046098 0.033796314196886446 0.02549044036883808 0.030072991446382005 0.02921376311934252 0.023199164830066118 0.022912755387719624 0.02176711761833364 0.022053527060680138 0.02176711761833364 0.020335070406601163 0.016038928771403737 0.024058393157105604 0.01575251932905724 0.016898157098443223 0.01517970044436425 0.013747653232631775 0.01403406267497827 0.011456377693859812 0.013747653232631775 0.012888424905592286 0.01460688155967126 0.012888424905592286 0.007733054943355373 0.009737921039780838 0.01088355880916682 0.012888424905592286 0.008878692712741354 0.008305873828048363 0.008019464385701868 0.009737921039780838 0.007446645501008877 0.008592283270394858 0.010024330482127334 0.010597149366820326 0.006301007731622896 0.007733054943355373 0.004582551077543925 0.006014598289276401 0.005155369962236915 0.003436913308157944 0.003436913308157944 0.004009732192850934 0.004868960519890419 0.005728188846929906 0.003150503865811448 0.005155369962236915 0.003436913308157944 0.004296141635197429 0.00544177940458341 0.004868960519890419 0.003436913308157944 0.003150503865811448 0.003150503865811448 0.003436913308157944 0.002004866096425467 0.0025776849811184575 0.0022912755387719625 0.0022912755387719625 0.0022912755387719625 0.0005728188846929906 0.002864094423464953 0.0037233227505044384 0.0025776849811184575 0.0014320472117324765 0.0014320472117324765 0.0025776849811184575 0.0014320472117324765 0.002004866096425467 0.0025776849811184575 0.0011456377693859813 0.0005728188846929906 0.001718456654078972 0.0011456377693859813 0.0011456377693859813 0.001718456654078972 0.002004866096425467 0.0014320472117324765 0.0011456377693859813 0.000859228327039486 0.002864094423464953 0.000859228327039486 0.0011456377693859813 0.0005728188846929906 0.0005728188846929906 0.000859228327039486 0.001718456654078972 0.000859228327039486 0.0005728188846929906 0.0014320472117324765 0.0002864094423464953 0.0011456377693859813 0.0005728188846929906 0.0002864094423464953 0.0002864094423464953 0.0002864094423464953 0.0 0.0002864094423464953 0.0002864094423464953 0.0 0.0002864094423464953 0.0 0.0 0.0 0.0002864094423464953 0.0 0.0002864094423464953 0.0 0.0 0.0 0.0 0.0 0.0002864094423464953 0.0 0.0 0.0002864094423464953 0.0 0.0 0.0 0.0 0.0 0.0002864094423464953 0.0005728188846929906
3 0.25249266759898303 0.6364628706742321 1.1344732703031655 1.7454776261504286 2.4272775780233733 2.9992222946840528 3.5976717665070566 4.161944054041801 4.7652759807631275 5.319085864944323 5.741766960427703 6.129922124844372 6.5215647570455575 6.731161570894989 7.032130040698749 7.228474476967019 7.168490031073338 7.146867730809337 7.016785182446878 6.914602376360548 6.649903571515758 6.3611412389578055 6.167238030138696 5.825814934034547 5.616218120185114 5.256311444823028 5.03032353238637 4.6571644794431215 4.341897391722844 4.124279401969024 3.8159872498177796 3.5139725396786647 3.22904642168368 2.9336579003351457 2.702787533000164 2.5793311734282858 2.3306747203922704 2.1081742757401276 1.9585619077843768 1.8120882608346904 1.628647455369131 1.5003086408989297 1.3946383670280846 1.2659508057794315 1.1696966949267806 1.1034348070209703 0.9740497522154138 0.9123215724294746 0.8199036761397916 0.7553855221262393 0.71283841515514 0.6486690079200393 0.5963569911522942 0.5635747939778406 0.5196326998929347 0.4746443654726739 0.44534963608273664 0.3972225806564112 0.3728103061647968 0.3435155767748595 0.3177083151694386 0.2974810020192438 0.2877160922225981 0.2528414143774347 0.24307650458078892 0.23679906256865954 0.21447926874775491 0.19494944915446344 0.2127355348554968 0.18483579257936603 0.17995333768104316 0.17890709734568827 0.1628647455369131 0.15902853097394512 0.14682239372813793 0.1405449517160085 0.13635999037458893 0.13078004191936277 0.12938505480555623 0.12275886601497518 0.11857390467355558 0.10462403353549021 0.110552728769168 0.10880899487690981 0.10462403353549021 0.10706526098465165 0.10706526098465165 0.09590536407419936 0.09555661729574773 0.0941616301819412 0.08927917528361831 0.08962792206206995 0.07951426548697256 0.08160674615768237 0.07219058313948826 0.07532930414555296 0.07498055736710132 0.07358557025329478 0.06591314112735884 0.06591314112735884 0.060681939450584324 0.06103068622903596 0.07149308958258498 0.05649697810916472 0.05370700388155164 0.04987078931858367 0.05091702965393857 0.05475324421690655 0.04987078931858367 0.046732068312518964 0.049173295761680405 0.043593347306454255 0.036269664958969945 0.042547106971099355 0.04638332153406733 0.04115211985729282 0.030340969725292162 0.02824848905458236 0.03347969073135687 0.03592091818051831 0.027899742276130724 0.030340969725292162 0.031735956839098696 0.030340969725292162 0.034874677845163404 0.029992222946840525 0.03243345039600197 0.02580726160542092 0.02301728737780785 0.02162230026400131 0.02162230026400131 0.02476102127006602 0.031038463282195432 0.02301728737780785 0.029992222946840525 0.019529819593291507 0.021273553485549677 0.020924806707098044 0.018134832479484973 0.023366034156259482 0.0163910985872268 0.02162230026400131 0.02301728737780785 0.016739845365678435 0.022319793820904578 0.02301728737780785 0.01708859214413007 0.019529819593291507 0.01987856637174314 0.017437338922581702 0.018134832479484973 0.01883232603638824 0.019529819593291507 0.016042351808775165 0.014996111473420263 0.013949871138065362 0.011857390467355558 0.012554884024258825 0.011857390467355558 0.01290363080271046 0.008369922682839218 0.011857390467355558 0.010462403353549022 0.007672429125935949 0.006974935569032681 0.009764909796645753 0.006974935569032681 0.0066261887905810475 0.007672429125935949 0.008718669461290851 0.0055799484552261445 0.0055799484552261445 0.005928695233677779 0.005928695233677779 0.004882454898322877 0.0038362145629679744 0.004184961341419609 0.005231201676774511 0.0055799484552261445 0.0027899742276130722 0.0027899742276130722 0.003138721006064706 0.0013949871138065361 0.0010462403353549022 0.0027899742276130722 0.0010462403353549022 0.0010462403353549022 0.0006974935569032681 0.00034874677845163403 0.0010462403353549022 0.00034874677845163403 0.0013949871138065361 0.00034874677845163403 0.0010462403353549022 0.0006974935569032681 0.0013949871138065361 0.0013949871138065361 0.00034874677845163403 0.0006974935569032681 0.0006974935569032681
1 17.339818875977855 23.550973177846608 21.337851040389133 17.817919776054765 14.208604430401675 12.398057108806064 10.702531163170987 9.3437545471553 8.282924868868701 7.181906998981437 6.081582028949356 5.362351979268436 4.873857581363765 4.254405110829332 3.648117737543393 3.1575446400731706 2.831188808281539 2.454251287061481 2.2048073391952663 1.8535071126170133 1.6241572605511325 1.5333873795220376 1.360855315581239 1.1793155535230493 1.0365781833551597 0.9520444010227203 0.853652621586602 0.7504105431641965 0.7123010511290803 0.6506329640177105 0.5397689871882817 0.49126599732540654 0.467014502393969 0.4545423050006583 0.40118901615149566 0.3436783281712294 0.3339777301986544 0.2972540378739061 0.2695380436665489 0.24944394786621488 0.22380665322440946 0.22103505380367375 0.20994865612073088 0.20994865612073088 0.19331905959631657 0.18985456032039688 0.18153976205818972 0.18431136147892546 0.16768176495451112 0.1621385661130397 0.14966636871972894 0.15035926857491286 0.15035926857491286 0.11571427581571635 0.12887937306421102 0.10947817711906098 0.12749357335384318 0.1122497765397967 0.09908467929130203 0.09007698117391094 0.07899058349096805 0.0873053817531752 0.0983917794361181 0.08591958204280735 0.08384088247725556 0.08661248189799128 0.08176218291170377 0.06721128595284125 0.08106928305651985 0.07829768363578411 0.06513258638728944 0.07621898407023234 0.06790418580802517 0.0685970856632091 0.05473908855953049 0.056817788125082286 0.04919588971805905 0.06443968653210551 0.04781009000769119 0.04850298986287512 0.05058168942842691 0.040881091455851885 0.051274589283610846 0.05335328884916263 0.046424290297323326 0.04157399131103581 0.04503849058695547 0.044345590731771536 0.0457313904421394 0.046424290297323326 0.04850298986287512 0.046424290297323326 0.04503849058695547 0.035337892614380445 0.044345590731771536 0.027715994207357212 0.04018819160066796 0.0436526908765876 0.03118049348327686 0.033259193048828656 0.031873393338460794 0.0367236923247483 0.029794693772909 0.04226689116621975 0.028408894062541143 0.029794693772909 0.02910179391772507 0.035337892614380445 0.028408894062541143 0.035337892614380445 0.02494439478662149 0.02494439478662149 0.029794693772909 0.028408894062541143 0.03118049348327686 0.030487593628092932 0.02494439478662149 0.029794693772909 0.026330194496989347 0.02009409580033398 0.020786995655517906 0.02009409580033398 0.02425149493143756 0.019401195945150045 0.013165097248494673 0.019401195945150045 0.019401195945150045 0.016629596524414328 0.019401195945150045 0.01801539623478219 0.019401195945150045 0.012472197393310744 0.015243796814046466 0.011779297538126815 0.019401195945150045 0.019401195945150045 0.013857997103678606 0.019401195945150045 0.009007698117391095 0.006928998551839303 0.009007698117391095 0.009700597972575022 0.010393497827758953 0.012472197393310744 0.011086397682942884 0.009007698117391095 0.010393497827758953 0.007621898407023233 0.009700597972575022 0.004850298986287511 0.006236098696655372 0.009700597972575022 0.004850298986287511 0.006928998551839303 0.011779297538126815 0.004157399131103582 0.007621898407023233 0.007621898407023233 0.006928998551839303 0.006236098696655372 0.0034644992759196515 0.006928998551839303 0.002771599420735721 0.004157399131103582 0.004157399131103582 0.0034644992759196515 0.004157399131103582 0.0013857997103678605 0.0006928998551839303 0.0013857997103678605 0.0013857997103678605 0.0 0.0006928998551839303 0.0006928998551839303 0.0013857997103678605 0.0006928998551839303 0.0 0.0 0.0006928998551839303 0.0 0.0 0.0 0.0 0.0006928998551839303 0.0 0.0 0.0 0.0 0.0 0.0006928998551839303 0.0 0.0 0.0 0.0006928998551839303 0.0006928998551839303 0.0 0.0006928998551839303 0.0006928998551839303 0.0 0.002078699565551791
1 131.41669747174333 0.8110136550503524 0.6642694716089211 0.8446191932430465 0.9712000537688611 1.141468113945178 1.2344434362782988 1.3789472505068834 1.4338362962216173 1.5279318031611608 1.5951428795465492 1.656753032899822 1.6634741405383606 1.6321089715585129 1.6545126636869756 1.7284448477109027 1.6545126636869756 1.5727391874180863 1.568258448992394 1.5637777105667015 1.511129034064814 1.5906621411208566 1.4999271880005824 1.5189703263097758 1.4103124194867316 1.470802388233581 1.4047114964546157 1.3139765433343413 1.2893324819930325 1.2736498975031085 1.2097993749369895 1.1773140213507185 1.1224249756359848 1.0742570375597897 1.019367991845056 0.9768009768009768 0.9891230074716314 0.9196715618733968 0.8703834391907787 0.8177347626888912 0.8087732858375061 0.7706870092191194 0.7326007326007326 0.6765915022795757 0.663149287002498 0.622822641171265 0.5869767337657246 0.5376886110831065 0.5119243651353743 0.4973619652518735 0.5052032574968355 0.45255458099494794 0.4189490428022538 0.47495827312341077 0.436871996505024 0.37974258157744395 0.37974258157744395 0.31589205901132505 0.3595792586618275 0.3058103975535168 0.299089289914978 0.3013296591278242 0.2699644901479764 0.2789259669993615 0.23971950577455167 0.23635895195528223 0.22515710589105084 0.2027534137625881 0.2027534137625881 0.15906621411208569 0.1691478755698939 0.17250842938916333 0.1657873217506245 0.16802769096347078 0.14338362962216172 0.1277010451322378 0.1221001221001221 0.1277010451322378 0.11761938367442955 0.12097993749369895 0.11873956828085269 0.11201846064231384 0.10417716839735189 0.09969642997165933 0.10865790682304444 0.10417716839735189 0.09969642997165933 0.08401384548173539 0.07169181481108086 0.07057163020465773 0.08625421469458167 0.08065329166246597 0.07953310705604284 0.06833126099181146 0.07057163020465773 0.07505236863035028 0.06273033795969575 0.06609089177896518 0.07169181481108086 0.06609089177896518 0.059369784140426346 0.06497070717254204 0.07169181481108086 0.06721107638538831 0.050408307289041235 0.047047753469771816 0.05264867650188751 0.04480738425692554 0.050408307289041235 0.034725722799117294 0.043687199650502405 0.04480738425692554 0.03696609201196357 0.05600923032115692 0.05264867650188751 0.04592756886334868 0.02800461516057846 0.043687199650502405 0.04928812268261809 0.0291247997670016 0.024644061341309045 0.02240369212846277 0.03248535358627102 0.03696609201196357 0.031365168979847875 0.034725722799117294 0.023523876734885908 0.03920646122480985 0.02800461516057846 0.023523876734885908 0.02240369212846277 0.021283507522039634 0.02800461516057846 0.03360553819269416 0.01680276909634708 0.024644061341309045 0.025764245947732183 0.017922953702770215 0.013442215277077662 0.02240369212846277 0.01680276909634708 0.023523876734885908 0.019043138309193356 0.0145623998835008 0.008961476851385108 0.026884430554155323 0.008961476851385108 0.013442215277077662 0.008961476851385108 0.019043138309193356 0.020163322915616493 0.0145623998835008 0.008961476851385108 0.008961476851385108 0.006721107638538831 0.012322030670654523 0.006721107638538831 0.006721107638538831 0.007841292244961969 0.0033605538192694154 0.008961476851385108 0.008961476851385108 0.007841292244961969 0.0033605538192694154 0.005600923032115693 0.0033605538192694154 0.002240369212846277 0.008961476851385108 0.0033605538192694154 0.0033605538192694154 0.0033605538192694154 0.0033605538192694154 0.0011201846064231385 0.002240369212846277 0.0011201846064231385 0.002240369212846277 0.0033605538192694154 0.002240369212846277 0.0 0.0011201846064231385 0.0011201846064231385 0.0011201846064231385 0.002240369212846277 0.0011201846064231385 0.0 0.0 0.0 0.0 0.0 0.0 0.0 0.0 0.0011201846064231385 0.0 0.0 0.0 0.0 0.0 0.0 0.0011201846064231385
3 0.3061078445976931 0.5847594512257458 1.7607042817126852 4.024675563656119 7.681320703463868 10.230661607708777 10.96730663068147 10.00546203883013 8.31894801716307 6.883629364154421 5.49650517141163 4.7791379325452805 4.359407996775352 4.239944152843619 4.182402888162564 4.17977409942079 4.097113297873894 4.206061986838531 4.139758093018229 4.031101491691567 4.062646956592856 3.8897310749117167 3.8713295537192978 3.7463160446660417 3.699289934952083 3.5757368640887015 3.4159649261164318 3.3315515987416866 3.2144244559137523 3.1285506903491322 2.9708233658426875 2.9042273843844106 2.778045524779255 2.605129643098115 2.5262659808448924 2.353350099163753 2.3288147375738615 2.244693497837091 2.046950166928085 1.9888247269710804 1.860890341538075 1.7969231488215724 1.680672268907563 1.5848675236517964 1.4817605874466575 1.3774853006896188 1.3441873099604806 1.2618185960515593 1.2124557852338016 1.1248294938413321 1.0588176876590052 1.0296089238615154 0.9653496435070378 0.9343883538816986 0.8470541501272041 0.8280684536588359 0.798859689861346 0.6992578053119058 0.6890347379827844 0.6224387565245076 0.5882645028814445 0.5587636514459798 0.5348124651320383 0.5167030315775946 0.47142944769148537 0.46266681855223846 0.4279083896332255 0.42002202340790334 0.38409524393699085 0.3510893408458274 0.35634691832937554 0.3008502671141449 0.3139942108230153 0.2909192874229984 0.2643393123672827 0.27164150331665515 0.23688307439764228 0.22782835762042045 0.22373913068877183 0.20621387241027797 0.19599080508115657 0.18518356247608533 0.1729158816811396 0.1615244638001186 0.1621086390760684 0.1472121695393486 0.1428308549697251 0.13552866402035268 0.12413724613933165 0.12413724613933165 0.11040912715451145 0.11011703951653654 0.10544363730893819 0.10398319911906369 0.08821046666841918 0.09668100816969123 0.08587376556462001 0.08821046666841918 0.07944783752917225 0.07419026004562408 0.07448234768359899 0.06192257925067838 0.07126938366587511 0.06601180618232695 0.05987796578485408 0.06017005342282899 0.061046316336753684 0.056080826491180416 0.05549665121523062 0.05169951192155694 0.05345203774940633 0.040308094040535924 0.042936882782310004 0.0438131456962347 0.04176853223041042 0.035634691832937555 0.030669201987364288 0.03797139293673674 0.03884765585066143 0.03388216600508817 0.03651095474686225 0.036218867108887345 0.029208763797489795 0.025995799779765922 0.025995799779765922 0.023951186313941636 0.023659098675966737 0.027164150331665516 0.018109433554443673 0.02044613465824286 0.022490748124067143 0.018401521192418575 0.01869360883039347 0.02190657284811735 0.014604381898744898 0.014896469536719798 0.01577273245064449 0.012851856070895512 0.014604381898744898 0.014896469536719798 0.01723317064051898 0.014896469536719798 0.011099330243046124 0.012851856070895512 0.013728118984820206 0.011975593156970818 0.009054716777221836 0.009346804415196735 0.009930979691146532 0.010515154967096327 0.00876262913924694 0.009930979691146532 0.00876262913924694 0.007886366225322246 0.00876262913924694 0.006718015673422654 0.00584175275949796 0.004673402207598367 0.006133840397472857 0.006718015673422654 0.007010103311397552 0.007010103311397552 0.004673402207598367 0.004673402207598367 0.00438131456962347 0.00438131456962347 0.00584175275949796 0.0037971392936736736 0.0037971392936736736 0.003505051655698776 0.00292087637974898 0.0023367011037991837 0.002628788741774082 0.003212964017723878 0.002044613465824286 0.0023367011037991837 0.001752525827849388 0.004089226931648572 0.003212964017723878 0.001752525827849388 0.002628788741774082 0.001752525827849388 0.00146043818987449 0.0011683505518995919 0.0011683505518995919 0.0005841752759497959 0.00146043818987449 0.0011683505518995919 0.000876262913924694 0.0005841752759497959 0.0011683505518995919 0.00029208763797489796 0.0005841752759497959 0.0005841752759497959 0.0 0.00029208763797489796 0.00029208763797489796 0.0005841752759497959 0.00029208763797489796 0.00029208763797489796
2 0.005432500141036061 0.15545308095887808 0.3522767399148769 0.6122009774321407 1.0522334888560616 1.7480113915349111 2.331796214383171 2.9937254623371032 3.6677733644518082 4.0956872217149565 4.543241656411082 4.811523586453016 4.967394552038128 5.060164939061974 5.07144782397028 4.975752244562798 4.930620704929576 4.968648205916828 4.649802236100635 4.751348200275387 4.557031849076789 4.4270697303181565 4.255737033562404 4.192636455001138 4.059749143858872 4.084404336806651 3.8286589455517226 3.8792229853259816 3.6778025954814137 3.6309995173432563 3.587957400841202 3.4036702806722094 3.3932231650163707 3.204339313958809 3.1734158516175266 3.04763257912123 2.9640556538745217 3.020052193789817 2.787290456977733 2.6899233390653174 2.64897064569443 2.539066988995008 2.512740257542295 2.361883907471986 2.3865391004197654 2.2954402519008528 2.15127005585028 2.0990344775710876 2.030083514242553 1.9043002417462565 1.8712873562738062 1.8198875472470806 1.73254966036427 1.6736279280653403 1.5913046566973326 1.58043965641526 1.4843261923815454 1.4045102287709386 1.3405738809572065 1.2356848397725873 1.2181336854707783 1.1801061844835259 1.0944398361056495 1.062262719885667 0.987043487163629 0.9728354098716885 0.9001234849070521 0.8825723306052432 0.8332619447096851 0.7822800203091929 0.768489827643486 0.6844950177705437 0.6719584789835374 0.6259911700978477 0.6209765545830452 0.5867100152318947 0.5511898220020435 0.5110728978836233 0.5039688592376531 0.47931366628987404 0.43668943441405267 0.4400325114239209 0.39155789478083003 0.37024577884291926 0.3727530866003205 0.3539482784198111 0.3230248160785289 0.30338423864555236 0.28541519971751 0.27413231480920436 0.26452096840583283 0.24488039097285633 0.2390300062055867 0.2168821210152089 0.18094404315912418 0.21521058251027475 0.18637654330016026 0.18930173568379505 0.16590019661471664 0.13288731114226673 0.13957346516200342 0.14082711904070405 0.12327596473889522 0.12661904174876357 0.1073963489420206 0.10112807954851745 0.08984519464021178 0.0948598101550143 0.08984519464021178 0.08399480987294218 0.06686154019736691 0.06435423243996566 0.06477211706619919 0.06393634781373211 0.0551607706628277 0.054742886036594156 0.04763884739062392 0.053071347531659985 0.04596730888568975 0.040952693370887236 0.041370577997120773 0.033430770098683456 0.03217711621998283 0.03760961636101889 0.034266539351150545 0.024237308321545505 0.0183869235542759 0.02507307757401259 0.02256576981661133 0.017551154301808813 0.019222692806742984 0.01964057743297653 0.015043846544407553 0.016715385049341728 0.016297500423108183 0.010865000282072122 0.01044711565583858 0.011282884908305665 0.01044711565583858 0.012118654160772752 0.011282884908305665 0.01170076953453921 0.005432500141036061 0.00919346177713795 0.008775577150904407 0.008357692524670864 0.0033430770098683456 0.0029251923836348024 0.005432500141036061 0.005850384767269605 0.005432500141036061 0.004178846262335432 0.0033430770098683456 0.002507307757401259 0.0029251923836348024 0.002507307757401259 0.0029251923836348024 0.0033430770098683456 0.002089423131167716 0.002089423131167716 0.0016715385049341728 0.002089423131167716 0.002089423131167716 0.002089423131167716 0.0016715385049341728 0.002089423131167716 0.0016715385049341728 0.0012536538787006296 0.0008357692524670864 0.0016715385049341728 0.0012536538787006296 0.0008357692524670864 0.0012536538787006296 0.0004178846262335432 0.0004178846262335432 0.0004178846262335432 0.0 0.0008357692524670864 0.0008357692524670864 0.002089423131167716 0.0008357692524670864 0.0004178846262335432 0.0004178846262335432 0.0004178846262335432 0.0012536538787006296 0.0008357692524670864 0.0 0.0004178846262335432 0.0 0.0 0.0004178846262335432 0.0008357692524670864 0.0008357692524670864 0.0008357692524670864 0.0 0.0 0.0004178846262335432 0.0008357692524670864 0.0004178846262335432 0.0008357692524670864
1 106.90080794641025 0.30460123597809213 0.27698628876029807 0.5112949318203689 0.6033447558796825 0.8518792808398292 0.9656863360404351 1.174890481629784 1.48785988343145 1.5732151748319045 1.7422521244680984 1.8970631922042167 1.9221676896749387 2.0376483780402594 2.2493629733766807 2.2594047723649693 2.3614963954125714 2.3958058752892244 2.507939297325116 2.4987343149191843 2.5640060083430614 2.575721440496065 2.4794875335249644 2.542248777201769 2.466098468207246 2.457730302383672 2.35229141300664 2.2953878854063374 2.210032594005883 2.182417646788089 2.1045937046288508 2.0317906619637576 1.9681926017045954 1.7422521244680984 1.7623357224446758 1.6744699812971493 1.5556420266023991 1.517148463813959 1.4535504035547968 1.2962288860716062 1.2142208610005816 1.181585014288643 1.0677779590880372 1.0803302078233983 0.98660675059937 0.8661051627399049 0.8468583813456847 0.8058543688101723 0.716314994497931 0.70376274576257 0.6594114668976281 0.6242651704386174 0.6033447558796825 0.5548093941029535 0.5163158313145133 0.5104581152380115 0.5112949318203689 0.4192451077610554 0.3564838640842507 0.3774042786431856 0.3924669771256187 0.32803210028409924 0.3422579821841749 0.293722620407446 0.2870280877485868 0.24183999230128744 0.27531265559558327 0.23347182647771347 0.24016635913657264 0.22091957774235255 0.21924594457763774 0.21255141191877858 0.20250961293048986 0.1882837310304141 0.1891205476127715 0.18075238178919753 0.15481106773611827 0.1439324521654721 0.13305383659482595 0.1464429019125443 0.12217522102417981 0.11966477127710762 0.10627570595938929 0.13472746975954075 0.11799113811239283 0.11297023861824847 0.09288664064167095 0.10711252254174669 0.08535529140045439 0.08284484165338221 0.07782394215923784 0.07782394215923784 0.07782394215923784 0.07531349241216564 0.05522989443558814 0.05774034418266033 0.06359806025916209 0.0644348768415195 0.05104581152380116 0.05606671101794553 0.05857716076501771 0.04937217835908637 0.05522989443558814 0.04853536177672897 0.035983113041368024 0.05020899494144376 0.046024912029656785 0.03933037937079761 0.041004012535512405 0.03933037937079761 0.042677645700227196 0.03765674620608282 0.03430947987665323 0.035983113041368024 0.04016719595315501 0.03263584671193844 0.025941314053079274 0.025941314053079274 0.024267680888364486 0.01924678139422011 0.015062698482433128 0.020083597976577505 0.01840996481186271 0.01840996481186271 0.01840996481186271 0.020083597976577505 0.014225881900075732 0.017573148229505318 0.015062698482433128 0.011715432153003543 0.01673633164714792 0.01255224873536094 0.01840996481186271 0.010878615570646148 0.01255224873536094 0.01255224873536094 0.017573148229505318 0.01255224873536094 0.01673633164714792 0.0209204145589349 0.009204982405931355 0.011715432153003543 0.007531349241216564 0.013389065317718336 0.010041798988288752 0.015899515064790523 0.007531349241216564 0.006694532658859168 0.005857716076501772 0.007531349241216564 0.005857716076501772 0.007531349241216564 0.007531349241216564 0.000836816582357396 0.00418408291178698 0.00418408291178698 0.005020899494144376 0.005020899494144376 0.000836816582357396 0.001673633164714792 0.001673633164714792 0.003347266329429584 0.000836816582357396 0.001673633164714792 0.003347266329429584 0.002510449747072188 0.001673633164714792 0.002510449747072188 0.000836816582357396 0.003347266329429584 0.000836816582357396 0.000836816582357396 0.000836816582357396 0.000836816582357396 0.001673633164714792 0.000836816582357396 0.001673633164714792 0.0 0.001673633164714792 0.000836816582357396 0.001673633164714792 0.0 0.0 0.0 0.0 0.0 0.001673633164714792 0.0 0.0 0.0 0.0 0.000836816582357396 0.0 0.0 0.0 0.0 0.0 0.000836816582357396 0.0 0.000836816582357396
1 98.48078641644325 3.4475704426284226 5.689244915318109 6.397708797657116 6.677648933535751 6.772397902602366 6.285732743305663 5.396384465475845 4.7697492382398226 4.242169751391626 4.0655921272220255 3.434650128664793 3.0944151942892213 2.9178375701196204 2.668044833489454 2.4290190251623116 2.1490788892836763 1.9595809511504463 1.70117467187786 1.6451866447021328 1.5009098054416055 1.397547293732571 1.22527644088418 1.13268085747817 1.0120912604842964 0.9991709465206672 0.8742745782055836 0.8419737932965105 0.6955435683753782 0.717077424981427 0.6481690838420707 0.6287886128966267 0.566340428739085 0.48235838797549446 0.5017388589209385 0.473744845333075 0.3854560332482746 0.4694380740118652 0.34238832003617686 0.4048365041937185 0.36176879098162085 0.30362737814528895 0.2928604498422645 0.28424690719984497 0.26917320757561075 0.2605596649331912 0.29070706418165965 0.28209352153924006 0.24763935096956188 0.21964533738169836 0.21533856606048862 0.17657762416960066 0.1722708528483909 0.17657762416960066 0.170117467187786 0.18734455247262508 0.1528903819029469 0.16365731020597135 0.10766928303024431 0.13135652529689804 0.13566329661810783 0.11197605435145407 0.0925955834060101 0.1227429826544785 0.1270497539756883 0.10766928303024431 0.09044219774540521 0.11197605435145407 0.08398204076359055 0.08182865510298568 0.10551589736963941 0.09905574038782476 0.08828881208480033 0.09474896906661498 0.06460156981814658 0.08182865510298568 0.09044219774540521 0.10551589736963941 0.07967526944238078 0.10551589736963941 0.08398204076359055 0.08182865510298568 0.09474896906661498 0.08182865510298568 0.06675495547875147 0.051681255854517265 0.06029479849693681 0.08613542642419544 0.0624481841575417 0.051681255854517265 0.06675495547875147 0.045221098872702606 0.06890834113935634 0.07106172679996124 0.06675495547875147 0.06890834113935634 0.051681255854517265 0.053834641515122156 0.053834641515122156 0.053834641515122156 0.051681255854517265 0.0624481841575417 0.053834641515122156 0.04306771321209772 0.04952787019391238 0.04737448453330749 0.051681255854517265 0.058141412836331924 0.04737448453330749 0.0624481841575417 0.051681255854517265 0.0624481841575417 0.03445417056967817 0.03445417056967817 0.04091432755149284 0.03660755623028306 0.030147399248468404 0.04091432755149284 0.03230078490907329 0.04091432755149284 0.04091432755149284 0.038760941890887954 0.03230078490907329 0.030147399248468404 0.04952787019391238 0.04306771321209772 0.04737448453330749 0.04952787019391238 0.038760941890887954 0.03230078490907329 0.04306771321209772 0.023687242266653745 0.025840627927258632 0.03660755623028306 0.030147399248468404 0.027994013587863516 0.03230078490907329 0.015073699624234202 0.03230078490907329 0.023687242266653745 0.03230078490907329 0.012920313963629316 0.02153385660604886 0.025840627927258632 0.02153385660604886 0.012920313963629316 0.02153385660604886 0.015073699624234202 0.012920313963629316 0.02153385660604886 0.02153385660604886 0.02153385660604886 0.01076692830302443 0.01076692830302443 0.02153385660604886 0.030147399248468404 0.019380470945443977 0.023687242266653745 0.03230078490907329 0.023687242266653745 0.025840627927258632 0.008613542642419543 0.012920313963629316 0.019380470945443977 0.02153385660604886 0.01076692830302443 0.015073699624234202 0.02153385660604886 0.025840627927258632 0.015073699624234202 0.030147399248468404 0.025840627927258632 0.03230078490907329 0.030147399248468404 0.030147399248468404 0.03230078490907329 0.030147399248468404 0.025840627927258632 0.017227085284839086 0.015073699624234202 0.027994013587863516 0.027994013587863516 0.02153385660604886 0.017227085284839086 0.015073699624234202 0.017227085284839086 0.008613542642419543 0.012920313963629316 0.02153385660604886 0.006460156981814658 0.006460156981814658 0.008613542642419543 0.0021533856606048857 0.006460156981814658 0.0043067713212097715 0.0021533856606048857 0.0 0.0021533856606048857 0.0021533856606048857 0.01076692830302443
3 9.39477975658519 31.55179244326924 25.418513161167876 16.95243184477469 10.809017956679167 6.272399782566635 3.9948774173338615 2.9758888510120785 2.6525027870166484 2.780567353670109 2.744635568781728 3.065257649324206 3.1279079409244606 3.188715576889413 3.3416559946194453 3.3628465344254144 3.3637678622430647 3.3370493555311915 3.2946682759192547 3.173974331807 3.121458646200905 3.0449884373358884 2.9546983112061103 2.716995734252204 2.6580307539225534 2.535494154174997 2.3088475110329005 2.1964455172795034 1.9845401192198198 1.8749021089193747 1.763421442983628 1.6583900717714368 1.553358700559246 1.406867577552769 1.3368466634113083 1.229051308746165 1.2447138816462284 1.0945374473691485 1.0060899768746716 0.9204064898331474 0.9102718838389888 0.8172177742562582 0.7960272344502898 0.7241636646735274 0.7002091414146068 0.6670413399791779 0.6182109656436857 0.5491113793198759 0.5297634951492091 0.5187075613373995 0.5104156109785423 0.45052930283124043 0.40722689540165286 0.3759017496015257 0.3712951105132717 0.3464192594367002 0.3261500474483826 0.29298224601295386 0.31140880236596985 0.2708703783893347 0.29021826256000144 0.24507319949511236 0.28008365656584266 0.24783718294806473 0.2165120371479376 0.20914141460673122 0.19532149734196924 0.17873759662425487 0.18518689134781047 0.17413095753600089 0.15846838463593732 0.14464846737117534 0.13819917264761974 0.13543518919466735 0.15201908991238172 0.12530058320050858 0.1474124508241277 0.1077953546651434 0.11977261629460378 0.1068740268474926 0.09121145394742904 0.12069394411225458 0.09858207648863543 0.09489676521803224 0.08015552013561945 0.09029012612977824 0.08291950358857185 0.06725693068850828 0.06725693068850828 0.06541427505320668 0.07554888104736547 0.06817825850615908 0.054358341241397094 0.0552796690590479 0.0525156856060955 0.04514506306488912 0.050673029970793905 0.0525156856060955 0.037774440523682735 0.046066390882539915 0.040538423976635124 0.035931784888381134 0.04422373524723832 0.03961709615898433 0.031325145800127144 0.041459751794285925 0.025797178894222353 0.02671850671187315 0.029482490164825546 0.03316780143542874 0.023954523258920758 0.03408912925307954 0.018426556353015964 0.019347884170666765 0.020269211988317562 0.023033195441269957 0.02671850671187315 0.02671850671187315 0.017505228535365167 0.010134605994158781 0.023033195441269957 0.015662572900063572 0.017505228535365167 0.017505228535365167 0.024875851076571556 0.01658390071771437 0.015662572900063572 0.020269211988317562 0.015662572900063572 0.01105593381180958 0.018426556353015964 0.010134605994158781 0.006449294723555588 0.007370622541206386 0.011977261629460379 0.012898589447111176 0.008291950358857185 0.004606639088253991 0.01105593381180958 0.006449294723555588 0.011977261629460379 0.013819917264761976 0.014741245082412773 0.01658390071771437 0.010134605994158781 0.015662572900063572 0.01105593381180958 0.01105593381180958 0.007370622541206386 0.008291950358857185 0.008291950358857185 0.008291950358857185 0.010134605994158781 0.00552796690590479 0.008291950358857185 0.00552796690590479 0.009213278176507982 0.00552796690590479 0.004606639088253991 0.009213278176507982 0.004606639088253991 0.009213278176507982 0.003685311270603193 0.00552796690590479 0.002763983452952395 0.00552796690590479 0.0009213278176507983 0.0018426556353015966 0.003685311270603193 0.007370622541206386 0.011977261629460379 0.0018426556353015966 0.006449294723555588 0.00552796690590479 0.0018426556353015966 0.0018426556353015966 0.008291950358857185 0.0009213278176507983 0.0018426556353015966 0.002763983452952395 0.0018426556353015966 0.0009213278176507983 0.0 0.0 0.0009213278176507983 0.0 0.0018426556353015966 0.0018426556353015966 0.0009213278176507983 0.0 0.0 0.0 0.0 0.0009213278176507983 0.0 0.0 0.0 0.0 0.0 0.0009213278176507983
2 11.392095480336529 13.666601447857563 13.908726276658188 12.776364703580512 11.162199178243005 9.435531207200157 8.41078066914498 7.593915085110546 7.080316963412248 6.30502837018196 6.043337898649971 5.820778712580708 5.021033065936216 5.109078458227353 4.813148111915477 4.62238309528468 4.3753668558012135 4.010956759929564 4.2066131872432 3.9718254744668364 3.900900019565643 3.46801017413422 3.423987477988652 3.2527881040892193 2.8345724907063197 2.751418509098024 2.5044022696145567 2.548424965760125 2.2500489141068285 1.9981412639405203 1.8660731755038154 1.6263940520446096 1.5872627665818821 1.381823517902563 1.3084523576599492 1.176384269223244 1.1421443944433574 0.956270788495402 0.8437683427900607 0.7117002543533555 0.6261005674036392 0.6456662101350029 0.640774799452162 0.4891410682840931 0.4793582469184113 0.3913128546272745 0.3008217569947173 0.4035413813343768 0.3008217569947173 0.28859323028761497 0.21277636470358052 0.18098219526511447 0.17609078458227354 0.16141655253375073 0.16630796321659166 0.1565251418509098 0.1271766777538642 0.11005674036392095 0.11494815104676188 0.09293680297397769 0.12473097241244376 0.0782625709254549 0.11739385638818234 0.06847974955977304 0.0635883388769321 0.0855996869497163 0.06603404421835257 0.05869692819409117 0.0635883388769321 0.03668558012130699 0.03423987477988652 0.046468401486988845 0.03913128546272745 0.026902758755625124 0.029348464097045585 0.03179416943846605 0.022011348072784192 0.01711993738994326 0.03179416943846605 0.01711993738994326 0.009782821365681862 0.012228526707102328 0.007337116024261396 0.01711993738994326 0.01711993738994326 0.012228526707102328 0.026902758755625124 0.019565642731363724 0.012228526707102328 0.019565642731363724 0.022011348072784192 0.019565642731363724 0.019565642731363724 0.014674232048522792 0.012228526707102328 0.01711993738994326 0.019565642731363724 0.007337116024261396 0.01711993738994326 0.012228526707102328 0.012228526707102328 0.014674232048522792 0.007337116024261396 0.019565642731363724 0.007337116024261396 0.019565642731363724 0.007337116024261396 0.012228526707102328 0.009782821365681862 0.004891410682840931 0.004891410682840931 0.01711993738994326 0.012228526707102328 0.004891410682840931 0.009782821365681862 0.009782821365681862 0.0024457053414204655 0.007337116024261396 0.01711993738994326 0.0024457053414204655 0.012228526707102328 0.009782821365681862 0.012228526707102328 0.0024457053414204655 0.022011348072784192 0.007337116024261396 0.004891410682840931 0.007337116024261396 0.007337116024261396 0.01711993738994326 0.009782821365681862 0.009782821365681862 0.007337116024261396 0.0024457053414204655 0.009782821365681862 0.007337116024261396 0.0024457053414204655 0.004891410682840931 0.019565642731363724 0.0 0.007337116024261396 0.007337116024261396 0.014674232048522792 0.007337116024261396 0.004891410682840931 0.004891410682840931 0.004891410682840931 0.009782821365681862 0.0 0.007337116024261396 0.007337116024261396 0.012228526707102328 0.009782821365681862 0.007337116024261396 0.012228526707102328 0.004891410682840931 0.014674232048522792 0.012228526707102328 0.012228526707102328 0.014674232048522792 0.004891410682840931 0.007337116024261396 0.009782821365681862 0.007337116024261396 0.014674232048522792 0.022011348072784192 0.014674232048522792 0.0024457053414204655 0.022011348072784192 0.019565642731363724 0.012228526707102328 0.012228526707102328 0.007337116024261396 0.007337116024261396 0.019565642731363724 0.01711993738994326 0.019565642731363724 0.007337116024261396 0.009782821365681862 0.03179416943846605 0.022011348072784192 0.01711993738994326 0.019565642731363724 0.03179416943846605 0.03668558012130699 0.044022696145568384 0.03423987477988652 0.024457053414204656 0.03668558012130699 0.03913128546272745 0.019565642731363724 0.014674232048522792 0.029348464097045585 0.026902758755625124 0.01711993738994326 0.01711993738994326 0.014674232048522792 0.01711993738994326 0.007337116024261396 0.007337116024261396
2 1.3426360680165461 11.936267471730915 15.658396131966379 15.83379252004253 13.444986845270895 11.451987178989684 9.842376077795283 8.968498498265438 7.895941824277654 7.709680173223335 6.986364094962398 6.477248915413927 6.030220952883563 5.567671186098672 5.190491342713677 4.69534578699428 4.2824657938238735 3.875794522355278 3.7081590364063914 3.374440244934071 3.181969872177942 2.7302853683712196 2.571962964975049 2.2723921428626865 2.1947831215900537 1.9231515471358391 1.7632769633142156 1.662385235659793 1.5211368169436015 1.451288697798232 1.370575315674694 1.195178927598544 1.168791860365849 1.0585870501587105 1.0275434416496574 0.8661166774025814 0.8769819403807497 0.7698814910245166 0.723316078260937 0.7140029957082211 0.6627810416682836 0.6503635982646623 0.5308457055048079 0.6069025463519879 0.5634414944393137 0.5510240510356924 0.48272811231577556 0.4609975863594384 0.4904890144430389 0.4501323233812698 0.4889368340175862 0.39580600849042696 0.4392670604031012 0.34303187402503665 0.37873202381044774 0.42684961699948004 0.32285352849415216 0.30888390466507826 0.2933621004105517 0.2576619506251407 0.26387067232695127 0.24214014637061412 0.24214014637061412 0.21109653786156105 0.1878138314797712 0.19402255318158182 0.1847094706288659 0.1645311250979814 0.16142676424707608 0.18315729020341323 0.17694856850160262 0.13969623829073893 0.14124841871619156 0.1334875165889283 0.12572661446166503 0.12262225361075972 0.10865262978168581 0.09778736680351725 0.11175699063259113 0.10865262978168581 0.085369923399896 0.09933954722896988 0.08847428425080131 0.0822655625489907 0.07450466042172742 0.08847428425080131 0.06984811914536947 0.08692210382534866 0.06053503659265353 0.0651915778690115 0.05898285616720087 0.05277413446539026 0.04656541276357964 0.06829593871991681 0.05432631489084291 0.05277413446539026 0.045013232338126985 0.04966977361448494 0.03104360850905309 0.04346105191267433 0.02638706723269513 0.04035669106176902 0.034147969359958404 0.04656541276357964 0.034147969359958404 0.017073984679979202 0.02483488680724247 0.02017834553088451 0.021730525956337166 0.03259578893450575 0.02638706723269513 0.02017834553088451 0.03259578893450575 0.015521804254526546 0.02328270638178982 0.029491428083600436 0.021730525956337166 0.018626165105431854 0.017073984679979202 0.018626165105431854 0.02017834553088451 0.018626165105431854 0.006208721701810618 0.018626165105431854 0.010865262978168583 0.007760902127263273 0.010865262978168583 0.012417443403621236 0.013969623829073892 0.009313082552715927 0.010865262978168583 0.007760902127263273 0.021730525956337166 0.006208721701810618 0.012417443403621236 0.015521804254526546 0.010865262978168583 0.015521804254526546 0.010865262978168583 0.02638706723269513 0.006208721701810618 0.007760902127263273 0.009313082552715927 0.010865262978168583 0.012417443403621236 0.006208721701810618 0.006208721701810618 0.006208721701810618 0.006208721701810618 0.009313082552715927 0.004656541276357964 0.006208721701810618 0.006208721701810618 0.003104360850905309 0.004656541276357964 0.006208721701810618 0.003104360850905309 0.006208721701810618 0.004656541276357964 0.003104360850905309 0.004656541276357964 0.003104360850905309 0.0015521804254526545 0.007760902127263273 0.003104360850905309 0.004656541276357964 0.0 0.006208721701810618 0.006208721701810618 0.0 0.004656541276357964 0.0 0.0015521804254526545 0.0 0.0015521804254526545 0.0 0.003104360850905309 0.0 0.0 0.0 0.0 0.0 0.0 0.0 0.0 0.0 0.0015521804254526545 0.003104360850905309 0.0 0.0 0.0 0.0 0.0 0.0 0.0015521804254526545 0.0 0.0 0.0 0.0 0.0015521804254526545
1 119.96884803867545 6.324435921738044 3.9424864261206256 2.850698347623561 2.689060812449029 2.7118370105872582 3.029234352384521 3.1240127252823147 3.041724525557098 2.9939679810737143 2.7375520730013885 2.6971426892077557 2.506116511274218 2.369459322444841 2.15933052671795 2.0336940789232 2.025612202164474 1.840463752782737 1.6736832051253794 1.5686188072619338 1.5891908571932376 1.4304921862946065 1.3937563828458492 1.3291013687760365 1.2394660083610687 1.204199637050262 1.1175031409111948 1.016112323392625 1.027133064427252 0.894884172011726 0.8882717273909497 0.8258208615280624 0.792758638424181 0.7178175993887161 0.7325119207682191 0.6406724121463261 0.6362641157324752 0.599528312283718 0.569404953455737 0.5444246071105822 0.47315714841999307 0.4577281109715151 0.4386254931781613 0.3938078129706775 0.4055632700742798 0.37470519517732376 0.3387041077975416 0.31372376145238673 0.28874341510723184 0.2703755133828532 0.2703755133828532 0.25494647593437514 0.2292314135202451 0.2064552153820156 0.2226189688994688 0.20351635110611505 0.1961691904163636 0.14547378165707864 0.13371832455347632 0.1271058799327 0.13959605310527745 0.13004474420860057 0.11681985496704797 0.1271058799327 0.0925742246908682 0.09771723717369424 0.08155348365624104 0.08302291579419134 0.0889006443459925 0.08375763186316648 0.0742063229664896 0.07494103903546474 0.07641047117341504 0.06465501406981272 0.06024671765596186 0.053634273035185545 0.052899556966210404 0.05143012482826012 0.05583842124211099 0.05143012482826012 0.0462871123454341 0.0462871123454341 0.0543689891041607 0.04261353200055838 0.0462871123454341 0.03085807489695607 0.02938864275900578 0.03012335882798093 0.027919210621055495 0.02204148206925434 0.028653926690030636 0.02938864275900578 0.02938864275900578 0.024980346345154916 0.02424563027617977 0.02204148206925434 0.03085807489695607 0.01910261779335376 0.02130676600027919 0.01469432137950289 0.017633185655403467 0.015429037448478036 0.01469432137950289 0.02277619813822948 0.013959605310527748 0.011755457103602313 0.015429037448478036 0.01469432137950289 0.01616375351745318 0.011755457103602313 0.011755457103602313 0.01469432137950289 0.016898469586428325 0.0066124446207763005 0.013224889241552601 0.01102074103462717 0.01469432137950289 0.01469432137950289 0.0066124446207763005 0.008816592827701733 0.012490173172577458 0.0051430124828260124 0.0058777285518011564 0.0066124446207763005 0.010286024965652025 0.004408296413850867 0.013224889241552601 0.00955130889667688 0.012490173172577458 0.00955130889667688 0.007347160689751445 0.007347160689751445 0.007347160689751445 0.0036735803448757227 0.00808187675872659 0.0036735803448757227 0.0058777285518011564 0.0051430124828260124 0.0022041482069254333 0.0036735803448757227 0.004408296413850867 0.0014694321379502891 0.0066124446207763005 0.0022041482069254333 0.0022041482069254333 0.0036735803448757227 0.0036735803448757227 0.0022041482069254333 0.0022041482069254333 0.0014694321379502891 0.0029388642759005782 0.0 0.004408296413850867 0.0029388642759005782 0.0022041482069254333 0.0029388642759005782 0.0014694321379502891 0.0022041482069254333 0.0014694321379502891 0.0022041482069254333 0.0022041482069254333 0.0036735803448757227 0.0029388642759005782 0.0029388642759005782 0.0029388642759005782 0.0014694321379502891 0.0 0.0022041482069254333 0.0022041482069254333 0.0 0.0014694321379502891 0.0014694321379502891 0.0 0.0007347160689751446 0.0022041482069254333 0.0007347160689751446 0.0 0.0 0.0 0.0 0.0007347160689751446 0.0 0.0 0.0007347160689751446 0.0 0.0 0.0 0.0 0.0 0.0 0.0 0.0 0.0 0.0 0.0 0.0 0.0007347160689751446 0.0 0.0 0.0007347160689751446
2 4.256078726591179 3.136956639839815 2.832729276451095 5.972790277141815 6.269256738403273 6.657301844766436 7.827645885557737 7.656906038757945 7.043794770704147 7.593266641314386 7.666219121310661 7.27972619537295 6.748880489868142 6.509844704348433 6.475696734988475 5.927777044803688 5.673219455029453 5.569223366524125 5.389170437171617 4.99336442868119 4.808654958052324 4.546336466150826 4.423714212540066 3.965820987031533 3.979790610860606 3.509479941948452 3.5203452049266204 3.077973783672614 3.0003647623999816 2.7613289768802725 2.769089879007536 2.4167449224297832 2.2382441735027276 2.132695904571947 2.0023127488339245 1.7772465871432896 1.7167115505506358 1.6670417769361512 1.545971703750844 1.3938580220564838 1.2867575727002505 1.2060441905767125 1.1517178756858697 1.1253308084531746 1.012021637395131 0.8987124663370869 0.849042692722602 0.8148947233626436 0.7698814910245166 0.6658854025191888 0.6317374331592305 0.6550201395410202 0.6224243506065145 0.5277413446539025 0.4687584884867017 0.45634104508308043 0.4035669106176902 0.4485801429558172 0.39735818891587954 0.38183638466135306 0.3585536782795632 0.31974916764324685 0.3399275131741314 0.2949142808360044 0.28870555913419377 0.29646646126145704 0.22040962041427695 0.24524450722151944 0.2142008987124663 0.23282706381789817 0.19091819233067653 0.20023127488339246 0.18315729020341323 0.15987458382162342 0.1474571404180022 0.09778736680351725 0.11486135148349644 0.11641353190894908 0.11175699063259113 0.12417443403621237 0.08071338212353804 0.08847428425080131 0.09468300595261193 0.0822655625489907 0.06829593871991681 0.0651915778690115 0.07450466042172742 0.07450466042172742 0.04346105191267433 0.0512219540399376 0.04346105191267433 0.03880451063631637 0.04811759318903229 0.04346105191267433 0.05277413446539026 0.04035669106176902 0.05898285616720087 0.06208721701810618 0.05277413446539026 0.04966977361448494 0.04966977361448494 0.06363939744355884 0.04190887148722167 0.04035669106176902 0.04811759318903229 0.03725233021086371 0.02483488680724247 0.027939247658147783 0.029491428083600436 0.029491428083600436 0.03104360850905309 0.029491428083600436 0.018626165105431854 0.02328270638178982 0.018626165105431854 0.02638706723269513 0.021730525956337166 0.03259578893450575 0.021730525956337166 0.02483488680724247 0.009313082552715927 0.02638706723269513 0.018626165105431854 0.010865262978168583 0.02328270638178982 0.013969623829073892 0.010865262978168583 0.015521804254526546 0.009313082552715927 0.010865262978168583 0.010865262978168583 0.015521804254526546 0.004656541276357964 0.004656541276357964 0.009313082552715927 0.003104360850905309 0.007760902127263273 0.009313082552715927 0.004656541276357964 0.004656541276357964 0.004656541276357964 0.006208721701810618 0.007760902127263273 0.007760902127263273 0.003104360850905309 0.010865262978168583 0.007760902127263273 0.004656541276357964 0.0015521804254526545 0.003104360850905309 0.004656541276357964 0.003104360850905309 0.0015521804254526545 0.004656541276357964 0.006208721701810618 0.004656541276357964 0.0 0.006208721701810618 0.004656541276357964 0.0 0.004656541276357964 0.003104360850905309 0.0015521804254526545 0.004656541276357964 0.0015521804254526545 0.006208721701810618 0.0015521804254526545 0.003104360850905309 0.0015521804254526545 0.0015521804254526545 0.0 0.003104360850905309 0.0015521804254526545 0.004656541276357964 0.0 0.003104360850905309 0.0015521804254526545 0.0 0.0015521804254526545 0.0015521804254526545 0.0 0.0015521804254526545 0.003104360850905309 0.003104360850905309 0.0 0.0 0.0015521804254526545 0.0 0.0 0.0 0.0015521804254526545 0.0 0.0 0.003104360850905309 0.0 0.0 0.0015521804254526545 0.0 0.0 0.0015521804254526545
1 1.691613734695756 12.222038111019055 18.531160821135966 17.540642548099054 15.447666390499862 13.18678081561263 10.798490288134033 9.847740034981129 8.488262910798122 7.459449507502532 6.864402098867715 5.921752738654147 5.483568075117371 4.829605081469207 4.2838994752830715 3.9267237411396483 3.4841204087268713 3.164503360029458 2.865506766086716 2.665193777041333 2.418484764797938 2.1570468563012057 1.998711221577833 1.8779342723004695 1.751265764521771 1.603976801988401 1.4478505017030285 1.382306913375679 1.2799410844149868 1.3160268802356623 1.2328086164043082 1.1414894596336187 1.121605449691614 0.9993556107889165 0.9190831262082299 0.9382306913375679 0.8432293105035441 0.8240817453742061 0.7821043910521954 0.6981496824081745 0.681211451716837 0.6421798766454939 0.6259780907668232 0.6038847463868177 0.5515971646874712 0.5206664825554634 0.4963638037374574 0.5236122618061309 0.4698517904814508 0.4219828776581055 0.41756420878210443 0.40283531252876736 0.3939979747767651 0.35864862376875634 0.3512841756420878 0.2783761391880696 0.2872134769400718 0.25775568443339775 0.2673294669980668 0.24155389855472706 0.23787167449139282 0.21356899567338672 0.20767743717205195 0.20767743717205195 0.1958943201693823 0.1914756512933812 0.18632053760471323 0.19442143054404862 0.17306453097670993 0.15097118659670442 0.13550584553070052 0.14581607290803644 0.1347694007180337 0.13845162478136794 0.13992451440670164 0.11414894596336188 0.11193961152536132 0.09647427045935746 0.08984626714535579 0.09352849120869004 0.10383871858602597 0.10752094264936021 0.0913191567706895 0.10310227377335912 0.08763693270735523 0.08248181901868729 0.08027248458068674 0.0810089293933536 0.07879959495535303 0.06996225720335082 0.07806315014268618 0.07143514682868453 0.058179140200681205 0.05670625057534751 0.07364448126668507 0.05670625057534751 0.06186136426401547 0.046396023198011595 0.049341802448679 0.043450243947344196 0.048605357636012154 0.052287581699346414 0.04713246801067845 0.04713246801067845 0.0478689128233453 0.049341802448679 0.038295130258676244 0.034612906195341984 0.034612906195341984 0.02724845806867348 0.03534935100800884 0.02577556844333978 0.03166712694467458 0.02724845806867348 0.033140016570008285 0.01841112031667127 0.02209334438000552 0.019147565129338122 0.019147565129338122 0.019147565129338122 0.015465341066003868 0.016201785878670716 0.02209334438000552 0.011783117002669612 0.016201785878670716 0.014728896253337015 0.013256006628003313 0.013992451440670165 0.012519561815336464 0.011783117002669612 0.006628003314001657 0.013256006628003313 0.006628003314001657 0.01031022737733591 0.01767467550400442 0.007364448126668507 0.007364448126668507 0.009573782564669061 0.007364448126668507 0.00883733775200221 0.005155113688667955 0.00883733775200221 0.006628003314001657 0.006628003314001657 0.008100892939335358 0.005155113688667955 0.007364448126668507 0.00883733775200221 0.007364448126668507 0.006628003314001657 0.005155113688667955 0.007364448126668507 0.005891558501334806 0.008100892939335358 0.009573782564669061 0.006628003314001657 0.005891558501334806 0.005155113688667955 0.005891558501334806 0.0022093344380005524 0.0036822240633342536 0.004418668876001105 0.005891558501334806 0.007364448126668507 0.0014728896253337015 0.002945779250667403 0.0036822240633342536 0.0022093344380005524 0.006628003314001657 0.004418668876001105 0.0014728896253337015 0.0036822240633342536 0.004418668876001105 0.004418668876001105 0.0014728896253337015 0.0007364448126668507 0.0022093344380005524 0.0014728896253337015 0.0007364448126668507 0.0014728896253337015 0.0007364448126668507 0.0014728896253337015 0.002945779250667403 0.0 0.0 0.0007364448126668507 0.0 0.0 0.0 0.0 0.0007364448126668507 0.0 0.0 0.0 0.0 0.0 0.0007364448126668507 0.0007364448126668507 0.0 0.0014728896253337015
2 0.0782401746944608 1.1386335391226032 2.9155157058974477 4.494407462754155 6.062481446260824 6.784756499469174 7.112308613463347 6.858971456172923 6.799096338561085 6.439845632890057 6.1616024392821025 5.776439392795866 5.4941709811972 5.09114602987718 4.847620341439116 4.426733485285313 4.326103035517518 4.032010546071136 3.8571651395995916 3.660181034179132 3.4941407920622702 3.2795463579324466 3.1238207369167834 3.004070501693107 2.8782824394833635 2.779161446462085 2.666706918846574 2.556516576350838 2.450351451845814 2.3665766024141246 2.3300980643732987 2.23122864747644 2.16254836550992 2.10820792263531 2.009086929614032 1.9585201286057146 1.892607184007809 1.822920597543611 1.7854357550051068 1.7134849834211332 1.6966293830850279 1.6432952447080964 1.615370294897533 1.5590172430275677 1.5187650631204495 1.4616572828772258 1.4201472223480103 1.4269397777073365 1.3361207967919013 1.36630993172224 1.2863087241568425 1.291591822769652 1.2168737138170638 1.1874393072599838 1.1670616411820052 1.130834679265599 1.093852988975934 1.0636638540455956 1.0538523851932355 1.0052981931802742 1.0234116741384776 0.9891973212174271 0.930328508103267 0.9069319285322546 0.8845416534589201 0.8460505064227384 0.833471700201764 0.8468052347959968 0.7886911500550952 0.7796344095759936 0.7398853819177145 0.7076836379920199 0.6807649926791347 0.6810165688035542 0.675733470190745 0.634474985785949 0.6088142210951611 0.5708262263078184 0.5645368231973312 0.5504485602298399 0.5361087211379292 0.5343476882669927 0.5225236104192768 0.4875545291249679 0.45962957931440473 0.4520822955818201 0.44830865371552775 0.4271762592642908 0.39774185270721063 0.39975446170256657 0.3932134824676599 0.3627727714129018 0.37082320739432545 0.327803690118593 0.33459624547791916 0.3187469496394914 0.3104449375336483 0.29409248944638156 0.2596265604009117 0.28428102059402155 0.25534976628578043 0.24402884068690348 0.25434346178810247 0.23950047044735265 0.23044372996825108 0.2095629116414336 0.19572622479836177 0.18666948431926017 0.1927073113053279 0.18088323345761195 0.17182649297851038 0.15597719714008262 0.15798980613543853 0.14415311929236668 0.13132273694697277 0.126794366707422 0.13710898780862102 0.11597659335738401 0.12528490996090508 0.11245452761551118 0.09635365565266395 0.10088202589221473 0.09685680790150292 0.09207686153753264 0.08930952416891828 0.08100751206307516 0.08805164354682082 0.06566136847348639 0.06465506397580843 0.06490664010022792 0.06591294459790589 0.054843595123448406 0.055598323496706875 0.050063648759478135 0.04930892038621967 0.04629000689318581 0.047296311390863766 0.037484842538503725 0.038994299285020656 0.03547223354314782 0.03496908129430884 0.03220174392569448 0.0316985916768555 0.03069228717917755 0.02717022143730471 0.02490603631752932 0.02264185119775393 0.02239027507333444 0.015597719714008262 0.017610328709364166 0.013836686843071846 0.012830382345393894 0.01610087196284724 0.008553588230262595 0.012830382345393894 0.012578806220974405 0.009056740479101572 0.008553588230262595 0.006792555359326178 0.008553588230262595 0.007547283732584643 0.00654097923490669 0.004276794115131297 0.0057862508616482265 0.007547283732584643 0.0037736418662923216 0.002264185119775393 0.0037736418662923216 0.0017610328709364168 0.002012608995355905 0.002264185119775393 0.002767337368614369 0.0005031522488389762 0.0010063044976779524 0.002012608995355905 0.0010063044976779524 0.002012608995355905 0.0012578806220974405 0.0005031522488389762 0.0002515761244194881 0.0005031522488389762 0.0005031522488389762 0.0005031522488389762 0.0007547283732584643 0.0002515761244194881 0.0 0.0005031522488389762 0.0005031522488389762 0.0002515761244194881 0.0 0.0002515761244194881 0.0002515761244194881 0.0 0.0002515761244194881 0.0005031522488389762 0.0002515761244194881 0.0002515761244194881 0.0 0.0 0.0002515761244194881
3 0.006755159252879387 0.012009172005118909 0.057418853649474785 0.11746471367506933 0.17901172020130376 0.252943185357817 0.3426366887710489 0.4387100648120002 0.5010076445885545 0.6409895557732218 0.8113696835958464 0.9123217857638772 1.1074708308470593 1.224184971271809 1.3945650990944334 1.520286118523022 1.7030507049759254 1.8156366925239154 2.0115363108574176 2.1646532539226833 2.3639304518826254 2.4299808979107795 2.650649433504839 2.7504756757973903 2.8566817907176607 2.97339593114241 3.116004848703197 3.170796695976552 3.3092774606605793 3.356563575430735 3.3666963143100546 3.41323185582989 3.453012238096846 3.578733257525435 3.4924173337386426 3.5445821746358783 3.5532137670145576 3.5959964422827935 3.538577588633319 3.5374517287578384 3.5479597542623176 3.4440053590930075 3.3858359321932125 3.406851983202171 3.351309562678496 3.279254530647782 3.2608654860149437 3.1906868871100302 3.1494053583424337 3.0638400078059616 2.992160262400408 2.932114402374814 2.9249839564967743 2.7763704529334277 2.732837204414872 2.6483977137538797 2.545569178460049 2.541441025583289 2.433733764162379 2.368433891384545 2.255097330586235 2.256973763712035 2.136131470410526 2.122996438529927 2.023170196237376 1.9901449732232994 1.895572743682988 1.8419067562851128 1.7492109598706012 1.707929431103005 1.6321215328206917 1.5934670104292152 1.5041487936411433 1.4137047169775918 1.399443825221513 1.3615398760803563 1.2853566911728833 1.2643406401639252 1.253832614659446 1.1540063723668952 1.1630132513707343 1.090207646089701 1.0316629325647464 0.9956354165493895 0.9490998750295538 0.9160746520154768 0.8519006391131227 0.869914397120801 0.8177495562235657 0.7562025496973314 0.715671594180055 0.7171727406806948 0.7010354157988163 0.6706371991608592 0.5756896829953877 0.5805684091224673 0.5569253517373894 0.5449161797322706 0.5152685363446332 0.4874973260827958 0.47773987382863664 0.462353122197078 0.3996802557953637 0.396302676168924 0.3880463704154048 0.36215159327936713 0.3591493002780874 0.3546458607761678 0.32875108364013017 0.2818402554951344 0.3002293001279727 0.28521783512157406 0.25594547835909676 0.2544443318584569 0.2289248413475792 0.22404611522049964 0.2225449687198598 0.198151338084462 0.1951490450831823 0.1838904463283833 0.1805128667019436 0.17375770744906424 0.1632496819445852 0.15048993668914631 0.14110777106014719 0.13622904493306764 0.1298491723053482 0.12271872642730884 0.11183541429766984 0.12234343980214889 0.09644866266611124 0.10170267541835076 0.09757452254159114 0.09119464991387172 0.0803113377842327 0.07805961803327291 0.07693375815779302 0.08556535053647224 0.0728056052810334 0.0637987262771942 0.06792687915395383 0.05892000015011466 0.05854471352495468 0.044659108394035946 0.06004586002559454 0.048411974645635604 0.03752866251599659 0.04540968164435588 0.04090624214243629 0.03340050963923697 0.03114878988827717 0.03077350326311721 0.027395923636677512 0.02777121026183748 0.027395923636677512 0.02627006376119762 0.024393630635397786 0.01838904463283833 0.01838904463283833 0.021766624259278024 0.016137324881878534 0.02026547775863816 0.013510318505758774 0.012009172005118909 0.015386751631558605 0.016137324881878534 0.01013273887931908 0.01275974525543884 0.01013273887931908 0.011633885379958945 0.009382165628999148 0.008631592378679217 0.004878726127079557 0.0037528662515996587 0.005629299377399488 0.005629299377399488 0.0030022930012797273 0.00637987262771942 0.0022517197509597958 0.0037528662515996587 0.004878726127079557 0.005254012752239523 0.0015011465006398636 0.0037528662515996587 0.0015011465006398636 0.0037528662515996587 0.0022517197509597958 0.0011258598754798979 0.0018764331257998294 0.0026270063761197615 0.0011258598754798979 0.0007505732503199318 0.0007505732503199318 0.0 0.0011258598754798979 0.0 0.0007505732503199318 0.0 0.0003752866251599659 0.0003752866251599659
1 122.11448686040451 2.0462596258092924 2.9470374943213646 2.9687765641678814 3.02117329661846 3.2480399998885177 3.452052809217366 3.930312345840731 4.216822138176872 4.387390224664926 4.466542735388139 4.250824273065014 4.164425405726294 3.772007324394302 3.627637604131538 3.285944019108085 2.964874679836455 2.608688381581991 2.292078338689134 2.0150445511578843 1.8065724454502634 1.5328831302030932 1.3701188123778918 1.149941053675993 0.9866193238034454 0.8366754830672155 0.7452599073023765 0.618727372554703 0.5328859172633298 0.4832762450494843 0.39464772952137817 0.3528418259703847 0.31438039470347073 0.28483755619410206 0.2580817779214662 0.22296481893863174 0.18952009609783696 0.17446997081947932 0.1482716045941901 0.1560753732570422 0.13656595159991192 0.11371205765870218 0.10590828899585006 0.09197298781218557 0.07915251072321426 0.10033416852238428 0.07190615410770873 0.06856168182362925 0.055741204734657934 0.05741344087669767 0.06020050111343057 0.05462638063996478 0.03790401921956739 0.04180590355099345 0.03121507465140844 0.035674371030181076 0.028428014414675545 0.02341130598855633 0.026198366225289225 0.027870602367328967 0.02229648189386317 0.018952009609783695 0.02452613008324949 0.011148240946931585 0.018394597562437116 0.013377889136317902 0.012263065041624745 0.014492713231011062 0.01560753732570422 0.013935301183664484 0.011148240946931585 0.012820477088971324 0.014492713231011062 0.008361180710198689 0.010590828899585007 0.012820477088971324 0.010033416852238427 0.013935301183664484 0.003901884331426055 0.006131532520812373 0.00780376866285211 0.007246356615505531 0.0027870602367328964 0.006688944568158951 0.005016708426119214 0.0033444722840794755 0.003901884331426055 0.00780376866285211 0.006131532520812373 0.0044592963787726345 0.0044592963787726345 0.006131532520812373 0.0022296481893863173 0.005016708426119214 0.0044592963787726345 0.0011148240946931586 0.0016722361420397377 0.0022296481893863173 0.0033444722840794755 0.0027870602367328964 0.0011148240946931586 0.0016722361420397377 0.0022296481893863173 0.0016722361420397377 0.0033444722840794755 0.0027870602367328964 0.0011148240946931586 0.0005574120473465793 0.0 0.0016722361420397377 0.0005574120473465793 0.0033444722840794755 0.0027870602367328964 0.0011148240946931586 0.0005574120473465793 0.0005574120473465793 0.0033444722840794755 0.0011148240946931586 0.0005574120473465793 0.0016722361420397377 0.0022296481893863173 0.0011148240946931586 0.0 0.0005574120473465793 0.0016722361420397377 0.0016722361420397377 0.0005574120473465793 0.0005574120473465793 0.0005574120473465793 0.0005574120473465793 0.0 0.0005574120473465793 0.0 0.0005574120473465793 0.0 0.0 0.0 0.0 0.0 0.0005574120473465793 0.0005574120473465793 0.0005574120473465793 0.0 0.0 0.0005574120473465793 0.0 0.0 0.0 0.0005574120473465793 0.0 0.0011148240946931586 0.0 0.0 0.0 0.0 0.0005574120473465793 0.0005574120473465793 0.0 0.0 0.0 0.0005574120473465793 0.0005574120473465793 0.0 0.0 0.0 0.0 0.0 0.0 0.0 0.0 0.0 0.0005574120473465793 0.0 0.0 0.0 0.0 0.0005574120473465793 0.0005574120473465793 0.0 0.0011148240946931586 0.0 0.0 0.0 0.0 0.0 0.0 0.0 0.0 0.0 0.0005574120473465793 0.0 0.0 0.0005574120473465793 0.0005574120473465793 0.0 0.0 0.0005574120473465793 0.0 0.0 0.0005574120473465793
1 23.130520839602266 24.96272074999833 16.365423579209214 9.603669749309582 7.499314596748848 6.220786776063712 5.471858345536855 4.786455094385043 4.155215417226691 3.7339431750553342 3.4009374979103555 3.141487291620695 2.9321885427323853 2.7342574575217156 2.4748072512320545 2.5383324306071002 2.422649735534648 2.222712592027924 2.0120764709422456 2.1063612108567877 1.9298280808040282 1.8856947982908383 1.798765605461828 1.7285535650999353 1.6937818879683308 1.576093134599825 1.6269132780998614 1.5486770045537523 1.3968852601523267 1.4436932870602552 1.4537235785405258 1.3373721973693888 1.2885581121654062 1.2631480404153876 1.2223581883956214 1.208315780323243 1.1146997265073855 1.131416878974503 1.0799280493757815 1.085277538165259 1.0023604619283568 1.0016917758296722 1.0050352063230956 0.993667542645456 0.9328171076651487 0.9261302466783018 1.0230897309875826 0.8933646278427517 0.8733040448822109 0.8605990090072017 0.8291707623690211 0.8365263094545528 0.8545808341190395 0.7837001076584619 0.7870435381518853 0.7763445605729302 0.7870435381518853 0.7161628116913078 0.7108133229018302 0.7302052197636864 0.6760416457702261 0.6693547847833792 0.6553123767110006 0.698108287026821 0.6299023049609821 0.6218780717767658 0.5810882197569995 0.5516660314148729 0.5189004125793228 0.5001772018161514 0.5168943542832688 0.5349488789477556 0.4807853049542953 0.5202377847766922 0.4854661076450882 0.42795910315820446 0.41926618387530346 0.43330859194768195 0.4085672062963483 0.3965308565200238 0.4025490314081861 0.3470480852173564 0.36309655158578913 0.3771389596581677 0.32966224665155436 0.3223066995660227 0.3223066995660227 0.31027034978969825 0.2868663363357339 0.29622794171731964 0.280179475348887 0.2821855336449411 0.2527633453028145 0.27482998655940943 0.2373835650330665 0.2668057533751931 0.24875122871070632 0.2179916681712104 0.21130480718436345 0.2026118879014624 0.19458765471724607 0.17720181615144404 0.16516546637511953 0.17252101346065118 0.17118364126328176 0.17318969955933586 0.15513517489484913 0.15179174440142565 0.11969481166456031 0.15246043050011032 0.15179174440142565 0.12303824215798378 0.13975539462510114 0.12571298655272256 0.1217008699606144 0.10230897309875825 0.12437561435535316 0.10297765919744294 0.10832714798692049 0.11835743946719092 0.0969594843092807 0.09896554260533479 0.10765846188823582 0.0969594843092807 0.06954335426320822 0.08960393722374906 0.09227868161848783 0.0842544484342715 0.07890495964479394 0.07088072646057761 0.06486255157241536 0.06486255157241536 0.06553123767110006 0.0595130627829378 0.05483226009214495 0.06486255157241536 0.054163573993460244 0.054163573993460244 0.05616963228951433 0.05015145740135209 0.04012116592108167 0.04547065471055922 0.03811510762502758 0.046139340809243916 0.028084816144757167 0.032096932736865334 0.030759560539495946 0.03945247982239697 0.03945247982239697 0.03343430493423472 0.03009087444081125 0.024072699552649 0.025410071750018387 0.024741385651333696 0.02273532735527961 0.017385838565802055 0.027416130046072476 0.024741385651333696 0.023404013453964305 0.02072926905922553 0.01939189686185614 0.015379780269747973 0.015379780269747973 0.016048466368432667 0.01671715246711736 0.017385838565802055 0.01671715246711736 0.01337372197369389 0.01939189686185614 0.02139795515791022 0.01337372197369389 0.016048466368432667 0.020060582960540835 0.01671715246711736 0.018723210763171447 0.017385838565802055 0.016048466368432667 0.014042408072378583 0.014711094171063277 0.017385838565802055 0.01337372197369389 0.004012116592108167 0.0120363497763245 0.011367663677639805 0.0120363497763245 0.009361605381585723 0.0020060582960540834 0.007355547085531639 0.009361605381585723 0.0026747443947387774 0.009361605381585723 0.0020060582960540834 0.0020060582960540834 0.0020060582960540834 0.0033434304934234723 0.0020060582960540834 0.0033434304934234723 0.0020060582960540834 0.0013373721973693887 0.0013373721973693887
3 0.028152587021657384 0.06032697218926582 0.1608719258380422 0.365983631281546 0.3981580164491544 0.5389209515574414 0.8003378310442599 1.0697983068229804 1.1180598845743932 1.2869754067043375 1.3875203603531139 1.3915421584990648 1.6046974602344708 1.6811116250075409 1.9465503026403104 1.8902451285969957 2.28840314504615 2.268294154316395 2.320577530213759 2.650364978181745 2.8152587021657385 2.8233022984576404 3.01232681131734 3.12895895754992 3.1209153612580183 3.502986185123368 3.6236401295019003 3.3903758370367387 3.7925556516318446 3.65983631281546 3.8126646423615997 3.740272275734481 3.9453839811779847 3.840817229383257 4.029841742242956 3.7925556516318446 3.7925556516318446 3.96549297190774 3.8005992479237465 3.6155965332099984 3.6719017072533133 3.3863540388907882 3.382332240744837 3.39439763518269 3.4145066259124452 3.3582014518691308 3.233525709344648 3.0002614168794866 3.217438516760844 2.9158036558145146 2.927869050252368 2.658408574473647 2.8353676928954936 2.5417764282410666 2.344708319089465 2.561885418970822 2.268294154316395 2.2160107784190313 2.067204247018842 2.1798145951054715 1.8741579360131915 1.8138309638239258 1.8057873675320235 1.7173078083211002 1.536326891753303 1.6851334231534918 1.4558909288342818 1.2145830400772186 1.3111061955800438 1.2065394437853163 1.2950190029962396 1.1663214623258058 1.3513241770395543 1.2105612419312675 1.0657765086770294 0.9813187476120573 0.9451225642984978 0.8606648032335258 0.9209917754227916 0.7681634458766515 0.8767519958173299 0.7038146755414346 0.7400108588549941 0.7520762532928472 0.6877274829576303 0.7520762532928472 0.595226125600756 0.6354441070602667 0.6072915200386093 0.5590299422871966 0.49468117195197975 0.5630517404331477 0.4343541997627139 0.44641959420056704 0.45044139234651814 0.48261577751412654 0.4182670071789097 0.3901144201572523 0.3217438516760844 0.4102234108870076 0.32576564982203543 0.3498964386977418 0.35391823684369283 0.2775040720706228 0.33380924611393753 0.30967845723823123 0.2614168794868186 0.2775040720706228 0.33380924611393753 0.2734822739246717 0.23326429246516117 0.24130788875706327 0.2815258702165738 0.17695911842184642 0.19304631100565064 0.19304631100565064 0.23728609061111225 0.18098091656779747 0.1689155221299443 0.16489372398399324 0.19304631100565064 0.10858854994067847 0.1407629351082869 0.12065394437853164 0.13674113696233586 0.12065394437853164 0.10456675179472742 0.10456675179472742 0.11663214623258059 0.09652315550282532 0.13674113696233586 0.08847955921092321 0.10456675179472742 0.07641416477307005 0.06434877033521687 0.10054495364877637 0.10456675179472742 0.0804359629190211 0.032174385167608434 0.05630517404331477 0.06434877033521687 0.06032697218926582 0.05228337589736371 0.05228337589736371 0.04021798145951055 0.04826157775141266 0.044239779605461604 0.05228337589736371 0.028152587021657384 0.044239779605461604 0.028152587021657384 0.04021798145951055 0.02413078887570633 0.020108990729755274 0.03619618331355949 0.028152587021657384 0.032174385167608434 0.032174385167608434 0.012065394437853165 0.04021798145951055 0.02413078887570633 0.020108990729755274 0.02413078887570633 0.012065394437853165 0.016087192583804217 0.028152587021657384 0.028152587021657384 0.02413078887570633 0.020108990729755274 0.004021798145951054 0.016087192583804217 0.020108990729755274 0.008043596291902108 0.008043596291902108 0.016087192583804217 0.02413078887570633 0.02413078887570633 0.0 0.016087192583804217 0.004021798145951054 0.004021798145951054 0.0 0.012065394437853165 0.008043596291902108 0.004021798145951054 0.004021798145951054 0.004021798145951054 0.012065394437853165 0.004021798145951054 0.008043596291902108 0.004021798145951054 0.004021798145951054 0.0 0.0 0.0 0.004021798145951054 0.0 0.0 0.004021798145951054 0.004021798145951054
2 2.1296616353650575 8.985290163997387 14.440987825018242 10.84034258939202 9.749587126012981 6.602143104044245 5.453777316895188 3.867573069093982 3.251142604754772 2.8824365326266466 2.7748972615892766 2.5137304604985213 2.6423935169182315 2.5348542458808616 2.771056573337942 2.707685217190921 2.8382686177362983 2.742251411452932 2.997657180166686 2.920843415139993 2.920843415139993 3.1090371394553906 3.0207013096746937 2.9534892652763376 2.9534892652763376 2.9477282328993355 2.805622767599954 2.982294427161347 2.8632330913699735 2.82290586473096 2.6980834965625844 2.8190651764796253 2.7345700349502633 2.4926066751161806 2.446518416100165 2.4580404808541694 2.317855359680455 2.3869877482044783 2.1123785382340516 2.169988862004071 2.0566885585896992 1.9741137611860045 1.9414679110496602 1.9222644697929872 1.8723355225256366 1.7091062718439145 1.7820793486192725 1.5573990859161961 1.4767446326381688 1.4767446326381688 1.4248953412451513 1.3211967584591158 1.298152628951108 1.3480815762184584 1.1790912931597342 1.1272420017667166 1.2040557667934093 1.1330030341437185 1.0235434189806814 1.0312247954833507 0.93136690094865 0.8622345124246265 0.7758190267695971 0.818066597534278 0.7527748972615893 0.7969428121519376 0.7182087029995775 0.6874831969889004 0.6298728732188807 0.5626608288205246 0.601067711333871 0.5530591081921881 0.5127318815531743 0.5300149786841802 0.49544878442216844 0.42247570764681025 0.41479433114414105 0.43975880477781615 0.4359181165264816 0.3917502016361332 0.3610246956254561 0.3514229749971195 0.35526366324845415 0.2861312747244306 0.30725506010677117 0.29381265122709993 0.27076852171909205 0.24196335983408226 0.2842109305987633 0.2554057687137535 0.24772439221108422 0.24964473633675155 0.1977954449437339 0.2189192303260744 0.2150785420747398 0.19395475669239928 0.17283097131005876 0.18051234781272804 0.1977954449437339 0.1459461535507163 0.1555478741790529 0.1363444329223797 0.1363444329223797 0.1459461535507163 0.12482236816837577 0.11137995928870453 0.10177823866036795 0.10177823866036795 0.11330030341437185 0.11330030341437185 0.09409686215769866 0.07105273264969082 0.08449514152936206 0.08449514152936206 0.09409686215769866 0.07297307677535815 0.09409686215769866 0.06529170027268887 0.06721204439835618 0.08065445327802742 0.06145101202135422 0.07489342090102546 0.05376963551868495 0.07681376502669279 0.05568997964435227 0.04992894726735031 0.04224757076468103 0.03072550601067711 0.04224757076468103 0.046088259016015674 0.028805161885009794 0.036486538387679075 0.024964473633675155 0.04032722663901371 0.024964473633675155 0.024964473633675155 0.023044129508007837 0.026884817759342476 0.021123785382340516 0.011522064754003919 0.021123785382340516 0.019203441256673198 0.013442408879671238 0.026884817759342476 0.011522064754003919 0.009601720628336599 0.003840688251334639 0.011522064754003919 0.003840688251334639 0.005761032377001959 0.003840688251334639 0.007681376502669278 0.011522064754003919 0.013442408879671238 0.011522064754003919 0.007681376502669278 0.005761032377001959 0.005761032377001959 0.005761032377001959 0.003840688251334639 0.0019203441256673195 0.0019203441256673195 0.011522064754003919 0.011522064754003919 0.0 0.0019203441256673195 0.003840688251334639 0.003840688251334639 0.005761032377001959 0.005761032377001959 0.0019203441256673195 0.003840688251334639 0.0 0.005761032377001959 0.0 0.0 0.0 0.0 0.003840688251334639 0.0 0.0 0.0 0.0 0.0019203441256673195 0.0 0.0 0.0 0.0019203441256673195 0.0 0.0 0.0 0.0 0.0 0.0 0.0 0.0 0.0 0.0 0.0 0.0019203441256673195
1 24.92464734959611 25.897198890808987 18.29361411405377 14.093959731543624 10.15552787043363 9.247277257565406 7.756299481573765 6.598882771370011 5.74689547080336 5.0516416830768 4.577422336534983 4.589478760599606 4.344331471285616 4.087127757907004 3.5445886749989954 3.1628019129526184 2.672507334324639 2.720733030583129 2.3510026926013743 2.2224008359120684 2.1942691797612826 1.8647269219949363 1.7321062572840895 1.8406140738656915 1.5633163203793754 1.5030342000562633 1.511071816099345 1.382469959410039 1.2659245267853554 1.193585982397621 1.1172286299883454 1.085078165816019 1.1132098219668045 1.0609653176867742 1.0127396214282844 0.8801189567174376 0.9725515412128762 0.7716111401358358 0.807780412329703 0.7635735240927541 0.614877627295744 0.5224450428003055 0.6229152433388256 0.5385202748864687 0.5023510026926014 0.44608769039102997 0.43001245830486684 0.3898243780894587 0.42197484226178517 0.44608769039102997 0.3858055700679179 0.35365510589559135 0.3415986818309689 0.3014106016155608 0.26926013744323435 0.2290720572278262 0.2290720572278262 0.26926013744323435 0.21299682514166302 0.16075232086163244 0.19290278503395894 0.15673351284009163 0.15271470481855082 0.16477112888317325 0.17682755294779567 0.1406582807539284 0.14869589679701 0.13663947273238758 0.14869589679701 0.13262066471084677 0.12458304866776514 0.16075232086163244 0.10047020053852028 0.11654543262468352 0.08037616043081622 0.09243258449543866 0.06831973636619379 0.10448900856006109 0.06430092834465298 0.0723385443877346 0.08841377647389784 0.07635735240927541 0.0723385443877346 0.08037616043081622 0.04018808021540811 0.060282120323112164 0.06430092834465298 0.048225696258489735 0.048225696258489735 0.04420688823694892 0.024112848129244868 0.04420688823694892 0.024112848129244868 0.04018808021540811 0.024112848129244868 0.05626331230157135 0.060282120323112164 0.052244504280030545 0.03215046417232649 0.028131656150785674 0.04018808021540811 0.016075232086163245 0.03215046417232649 0.03215046417232649 0.0361692721938673 0.024112848129244868 0.04018808021540811 0.03215046417232649 0.0361692721938673 0.04018808021540811 0.024112848129244868 0.012056424064622434 0.020094040107704055 0.024112848129244868 0.020094040107704055 0.020094040107704055 0.024112848129244868 0.016075232086163245 0.008037616043081623 0.012056424064622434 0.020094040107704055 0.028131656150785674 0.020094040107704055 0.004018808021540811 0.008037616043081623 0.012056424064622434 0.020094040107704055 0.008037616043081623 0.016075232086163245 0.012056424064622434 0.012056424064622434 0.028131656150785674 0.012056424064622434 0.012056424064622434 0.004018808021540811 0.012056424064622434 0.020094040107704055 0.004018808021540811 0.008037616043081623 0.0 0.008037616043081623 0.008037616043081623 0.016075232086163245 0.008037616043081623 0.020094040107704055 0.016075232086163245 0.012056424064622434 0.0 0.008037616043081623 0.016075232086163245 0.016075232086163245 0.024112848129244868 0.0 0.004018808021540811 0.012056424064622434 0.012056424064622434 0.004018808021540811 0.004018808021540811 0.008037616043081623 0.012056424064622434 0.004018808021540811 0.024112848129244868 0.008037616043081623 0.012056424064622434 0.004018808021540811 0.0 0.004018808021540811 0.0 0.008037616043081623 0.004018808021540811 0.004018808021540811 0.004018808021540811 0.0 0.012056424064622434 0.0 0.0 0.008037616043081623 0.0 0.004018808021540811 0.0 0.0 0.0 0.004018808021540811 0.0 0.0 0.0 0.0 0.0 0.0 0.0 0.0 0.004018808021540811 0.0 0.0 0.0 0.0 0.0 0.0 0.0 0.004018808021540811
1 56.244952949987656 27.770595102112544 12.897017167292187 7.5849055024874374 7.539717407040138 6.866916874824791 6.290350249580545 5.236798172392584 4.738055489307577 4.26107003736386 3.616721268948665 3.1773925632110323 2.8250927820385687 2.6660976313906635 2.3958058752892244 2.2217480261588864 2.140576817670219 1.979908033857599 1.8903686595453575 1.7991556520684016 1.7363944083915968 1.5966460391379116 1.5096171145727424 1.4753076346960892 1.3297015493659021 1.2811661875891733 1.1790745645415708 1.2292835594830147 1.1673591323885675 1.1129660545353366 1.0627570595938929 0.936397755657926 0.921335057175493 0.8585738134986883 0.86443152957519 0.8276115999514647 0.743929941715725 0.6836791477859925 0.6962313965213535 0.6610851000623429 0.6184074543621156 0.6050183890443973 0.5807507081560328 0.5313785297969464 0.5690352760030293 0.49790586650265056 0.5062740323262246 0.4686172861201417 0.4326341730787738 0.41171375851983877 0.40083514294919265 0.378241095225543 0.32886891686645664 0.30460123597809213 0.30460123597809213 0.28451763800151464 0.27531265559558327 0.26276040686022234 0.2560658742013632 0.23096137673064132 0.21757231141292296 0.22928774356592652 0.23263500989535607 0.18493646470098452 0.205020062677562 0.1874469144480567 0.17991556520684016 0.18409964811862714 0.15815833406554783 0.16066878381262004 0.1456060853301869 0.15564788431847568 0.13389065317718335 0.13723791950661293 0.13305383659482595 0.11129660545353368 0.09456027380638575 0.10543888937703189 0.11966477127710762 0.09958117330053012 0.10794933912410408 0.09204982405931357 0.0836816582357396 0.07698712557688044 0.09121300747695617 0.10209162304760232 0.06025079392973251 0.07531349241216564 0.06945577633566387 0.05690352760030293 0.07363985924745084 0.06527169342387688 0.06861895975330647 0.05439307785323074 0.0627612436768047 0.06527169342387688 0.06861895975330647 0.04853536177672897 0.0619244270944473 0.041004012535512405 0.04016719595315501 0.046024912029656785 0.03263584671193844 0.03096221354722365 0.030125396964866255 0.030125396964866255 0.035983113041368024 0.04016719595315501 0.031799030129581046 0.03765674620608282 0.026778130635436673 0.03263584671193844 0.024267680888364486 0.030125396964866255 0.03347266329429584 0.023430864306007087 0.030125396964866255 0.025941314053079274 0.01673633164714792 0.023430864306007087 0.030125396964866255 0.026778130635436673 0.02259404772364969 0.0209204145589349 0.0209204145589349 0.021757231141292296 0.02510449747072188 0.01840996481186271 0.017573148229505318 0.01255224873536094 0.01255224873536094 0.01255224873536094 0.014225881900075732 0.009204982405931355 0.015062698482433128 0.00836816582357396 0.011715432153003543 0.009204982405931355 0.011715432153003543 0.011715432153003543 0.010041798988288752 0.011715432153003543 0.015899515064790523 0.005020899494144376 0.00418408291178698 0.009204982405931355 0.005857716076501772 0.010041798988288752 0.005020899494144376 0.01255224873536094 0.007531349241216564 0.006694532658859168 0.002510449747072188 0.00418408291178698 0.002510449747072188 0.005020899494144376 0.002510449747072188 0.002510449747072188 0.006694532658859168 0.001673633164714792 0.003347266329429584 0.003347266329429584 0.003347266329429584 0.002510449747072188 0.0 0.000836816582357396 0.002510449747072188 0.001673633164714792 0.0 0.003347266329429584 0.000836816582357396 0.0 0.0 0.003347266329429584 0.001673633164714792 0.005020899494144376 0.0 0.000836816582357396 0.000836816582357396 0.000836816582357396 0.000836816582357396 0.0 0.001673633164714792 0.000836816582357396 0.0 0.0 0.000836816582357396 0.0 0.0 0.000836816582357396 0.001673633164714792 0.0 0.001673633164714792 0.0 0.0 0.000836816582357396 0.000836816582357396 0.0 0.000836816582357396 0.000836816582357396
1 35.15604893365133 21.65125336719112 16.1058970883448 9.438429730796287 7.993754611121597 6.777276392773193 6.705214213406998 6.139011375529742 5.933119434483468 5.557366642074018 4.961995779215209 4.816155654307431 4.3975087075133406 3.9462622033869224 3.8124324417068443 3.587667072731328 3.2719660964603743 3.059211090712558 2.8447403187893556 2.5033028498876173 2.501587083712232 2.312852804419814 2.1412761868812518 1.94224731053652 1.8324382753118404 1.808417548856442 1.7603760959456445 1.520168831391658 1.412075562342364 1.434380522622377 1.2902561638899852 1.159857934560678 1.1392687404560506 0.9968601478990443 0.97112365526826 0.826999296535868 0.8510200229912668 0.7703790127481427 0.7635159480466002 0.7017483657327179 0.6399807834188357 0.6279704201911364 0.6176758231388226 0.5421821114218555 0.4649726335295026 0.4666883997048882 0.44781497177564644 0.4203627129694765 0.39634198651407787 0.3877631556371498 0.3568793644802086 0.3414374689017381 0.3122694439201826 0.2796698865878558 0.3071221453940257 0.26594375718477087 0.2058919410462742 0.2625122248339996 0.23849149837860098 0.18530274694164678 0.22819690132628725 0.20074464252011737 0.23677573220321535 0.17329238371394745 0.18187121459087555 0.15956625431086252 0.16128202048624815 0.17500814988933308 0.1458401249077776 0.15441895578470566 0.13726129403084947 0.1389770602062351 0.10809326904929396 0.10809326904929396 0.10809326904929396 0.09951443817236587 0.1286824631539214 0.1029459705231371 0.09608290582159464 0.09093560729543777 0.11667209992622204 0.07377794554158158 0.07720947789235283 0.11152480140006521 0.07034641319081036 0.0549045176123398 0.07034641319081036 0.07549371171696721 0.0651991146646535 0.04289415438464046 0.07034641319081036 0.07206217936619598 0.05147298526156855 0.049757219086182934 0.049757219086182934 0.05833604996311102 0.056620283787725406 0.03946262203386922 0.053188751436954174 0.04460992056002608 0.05147298526156855 0.046325686735411695 0.049757219086182934 0.046325686735411695 0.04289415438464046 0.037746855858483606 0.02058919410462742 0.02230496028001304 0.037746855858483606 0.03603108968309799 0.018873427929241803 0.02402072645539866 0.017157661753856183 0.02058919410462742 0.02230496028001304 0.02916802498155551 0.0274522588061699 0.01201036322769933 0.017157661753856183 0.02230496028001304 0.015441895578470567 0.02916802498155551 0.01201036322769933 0.017157661753856183 0.02402072645539866 0.018873427929241803 0.018873427929241803 0.015441895578470567 0.015441895578470567 0.01201036322769933 0.017157661753856183 0.02916802498155551 0.008578830876928092 0.015441895578470567 0.02058919410462742 0.018873427929241803 0.015441895578470567 0.02058919410462742 0.015441895578470567 0.01372612940308495 0.006863064701542475 0.008578830876928092 0.01201036322769933 0.006863064701542475 0.008578830876928092 0.0034315323507712373 0.01372612940308495 0.01029459705231371 0.006863064701542475 0.01201036322769933 0.008578830876928092 0.0034315323507712373 0.01029459705231371 0.006863064701542475 0.008578830876928092 0.005147298526156855 0.005147298526156855 0.01201036322769933 0.0034315323507712373 0.0 0.0034315323507712373 0.01029459705231371 0.005147298526156855 0.0017157661753856187 0.0034315323507712373 0.0034315323507712373 0.0017157661753856187 0.0017157661753856187 0.0 0.0034315323507712373 0.006863064701542475 0.0034315323507712373 0.006863064701542475 0.0034315323507712373 0.005147298526156855 0.0034315323507712373 0.0034315323507712373 0.0 0.0 0.0034315323507712373 0.0 0.0 0.0 0.0017157661753856187 0.0034315323507712373 0.0034315323507712373 0.0034315323507712373 0.0 0.0 0.0017157661753856187 0.0 0.0 0.0017157661753856187 0.0 0.0 0.0017157661753856187 0.0 0.0 0.0 0.0017157661753856187
1 23.14368877870591 24.089016616926422 15.695810765999779 14.953654723744256 13.171427518724965 13.461973713990957 10.882849879202261 9.19220788790812 8.603746572133883 6.980477611626059 6.487812324001116 5.37510461242085 4.461357882381426 4.201340091690485 3.670777474248238 3.384442093406391 2.8159821461468417 2.537015690547248 2.283314121492523 2.2443640880691835 2.058035549800776 1.8117029059883045 1.61063651723539 1.5422107828430367 1.2379794406985742 1.0948117502776507 0.9969103149162838 0.9042723975850979 0.7274181917710159 0.7116276376804729 0.6337275708337938 0.6000410554406355 0.5337207282603547 0.4652949938680015 0.42423955323258966 0.4252922568386258 0.3694989657187071 0.31370567459878834 0.2968624169022091 0.2937043060841005 0.30107323132635394 0.25791238347886963 0.22001505366156632 0.260017790690942 0.2105407212072405 0.2052772031770595 0.1621163553295752 0.1694852805718286 0.1294825435424529 0.14948391205714073 0.1347460615726339 0.12527172911830808 0.11053387863380126 0.11263928584587368 0.10211224978551164 0.10000684257343924 0.10000684257343924 0.09579602814929443 0.08211088127082379 0.09053251011911341 0.09579602814929443 0.088427102907041 0.07790006684667898 0.06526762357424455 0.07684736324064277 0.057898698331991134 0.06947843799838938 0.05263518030181012 0.07263654881649796 0.057898698331991134 0.04842436587766532 0.05158247669577392 0.05895140193802734 0.05158247669577392 0.05158247669577392 0.04737166227162911 0.04842436587766532 0.045266255059556705 0.04631895866559291 0.04842436587766532 0.0431608478474843 0.02947570096901367 0.03789732981730329 0.02105407212072405 0.01684325769657924 0.02105407212072405 0.02631759015090506 0.02105407212072405 0.02526488654486886 0.018948664908651644 0.02421218293883266 0.020001368514687846 0.01684325769657924 0.01789596130261544 0.02105407212072405 0.01263244327243443 0.02210677572676025 0.018948664908651644 0.01684325769657924 0.013685146878470632 0.014737850484506834 0.00842162884828962 0.005263518030181012 0.011579739666398227 0.00421081442414481 0.0031581108181086073 0.00842162884828962 0.006316221636217215 0.01263244327243443 0.015790554090543037 0.005263518030181012 0.006316221636217215 0.00842162884828962 0.007368925242253417 0.006316221636217215 0.00421081442414481 0.010527036060362024 0.00842162884828962 0.00842162884828962 0.00842162884828962 0.009474332454325822 0.011579739666398227 0.013685146878470632 0.0031581108181086073 0.00842162884828962 0.00421081442414481 0.0031581108181086073 0.005263518030181012 0.007368925242253417 0.006316221636217215 0.005263518030181012 0.007368925242253417 0.002105407212072405 0.005263518030181012 0.002105407212072405 0.0031581108181086073 0.0031581108181086073 0.002105407212072405 0.0031581108181086073 0.00421081442414481 0.006316221636217215 0.0 0.00421081442414481 0.0031581108181086073 0.00421081442414481 0.0 0.0031581108181086073 0.002105407212072405 0.0 0.002105407212072405 0.0010527036060362024 0.0010527036060362024 0.0010527036060362024 0.0 0.0010527036060362024 0.006316221636217215 0.002105407212072405 0.005263518030181012 0.007368925242253417 0.00421081442414481 0.013685146878470632 0.00842162884828962 0.00421081442414481 0.010527036060362024 0.011579739666398227 0.01263244327243443 0.0031581108181086073 0.0031581108181086073 0.0031581108181086073 0.00842162884828962 0.006316221636217215 0.0010527036060362024 0.00842162884828962 0.002105407212072405 0.006316221636217215 0.005263518030181012 0.00421081442414481 0.007368925242253417 0.0031581108181086073 0.002105407212072405 0.002105407212072405 0.00842162884828962 0.00421081442414481 0.0031581108181086073 0.005263518030181012 0.00421081442414481 0.002105407212072405 0.010527036060362024 0.006316221636217215 0.007368925242253417 0.0031581108181086073 0.0010527036060362024 0.0010527036060362024 0.0 0.002105407212072405 0.00421081442414481 0.005263518030181012 0.0031581108181086073 0.0031581108181086073 0.0031581108181086073
2 0.012753800632588512 0.15687174778083868 0.32012039587797164 0.6045301499846955 1.0101010101010102 1.3391490664217938 1.550862156922763 1.8288950107131927 2.0712172227323746 2.2765534129170493 2.466585042342618 2.6757473727170695 2.665544332210999 2.974186307519641 3.0252015100499947 3.2241607999183755 3.3096112641567186 3.560861136618712 3.5506580961126417 3.545556575859606 3.6641669217426793 3.7394143454749513 3.704979083766963 3.5952963983267012 3.666717681869197 3.4843383328231816 3.5493827160493825 3.5532088562391593 3.4333231302928273 3.45245383124171 3.3925109682685437 3.229262320171411 3.2114069992857877 3.1055504540353023 3.040506070809101 2.9359249056218752 2.8479236812570146 2.863228242016121 2.611978369554127 2.558412406897255 2.6132537496173858 2.4168452198755226 2.3811345781042754 2.3301193755739207 2.237016630956025 2.18727680848893 2.0954494439342923 1.9946944189368432 1.9602591572288541 1.9730129578614426 1.9143454749515356 1.7766044281195796 1.79828588919498 1.7204877053361902 1.7039077645138252 1.6988062442607896 1.6528925619834711 1.5840220385674932 1.6312111009080705 1.4730639730639732 1.4730639730639732 1.4501071319253136 1.3978165493317007 1.4092949699010304 1.2626262626262625 1.3378736863585348 1.2702785430058157 1.285583103764922 1.2243648607284972 1.2600755024997448 1.225640240791756 1.1121314151617183 1.1516681971227425 1.078971533516988 1.0776961534537293 0.9909703091521274 0.9998979695949394 0.924650545862667 0.9884195490256096 0.9782165085195388 0.8851137639016426 0.9310274461789614 0.7983879196000407 0.8353739414345476 0.7920110192837466 0.7869094990307111 0.7473727170696868 0.7932863993470054 0.6912559942862972 0.753749617385981 0.6746760534639322 0.6836037139067442 0.71038669523518 0.6925313743495561 0.6606468727680849 0.6823283338434853 0.6453423120089787 0.6032547699214366 0.5420365268850117 0.6389654116926844 0.6325885113763902 0.6096316702377308 0.5866748290990715 0.5522395673910826 0.4986736047342108 0.5254565860626467 0.4591368227731864 0.4782675237220692 0.47444138353229265 0.42087542087542085 0.44893378226711567 0.39919395980002037 0.42980308131823286 0.4093970003060912 0.38261401897765535 0.3698602183450668 0.35838179777573714 0.3507295173961841 0.368584838281808 0.3315988164473013 0.32522191613100704 0.2729313335373941 0.2946127946127946 0.2729313335373941 0.2563513927150291 0.2563513927150291 0.24359759208244058 0.24869911233547595 0.23084379144985206 0.20533619018467503 0.17217630853994492 0.15304560759106214 0.1696255484134272 0.15177022752780328 0.1696255484134272 0.13263952657892053 0.14921946740128558 0.11605958575655545 0.1300887664524028 0.09565350474441384 0.119885725946332 0.12626262626262627 0.07397204366901336 0.09310274461789614 0.09310274461789614 0.08800122436486073 0.08289970411182533 0.08289970411182533 0.06376900316294255 0.06249362309968371 0.039536781961024385 0.04591368227731864 0.04208754208754208 0.05101520253035405 0.04336292215080094 0.03315988164473013 0.030609121518212427 0.03443526170798898 0.02423222120191817 0.012753800632588512 0.02423222120191817 0.029333741454953578 0.01147842056932966 0.017855320885623915 0.010203040506070809 0.017855320885623915 0.007652280379553107 0.014029180695847365 0.005101520253035404 0.007652280379553107 0.0038261401897765534 0.007652280379553107 0.0038261401897765534 0.008927660442811958 0.008927660442811958 0.006376900316294256 0.0038261401897765534 0.002550760126517702 0.0038261401897765534 0.002550760126517702 0.0 0.001275380063258851 0.0038261401897765534 0.002550760126517702 0.001275380063258851 0.002550760126517702 0.001275380063258851 0.0 0.002550760126517702 0.005101520253035404 0.0 0.0 0.001275380063258851 0.001275380063258851 0.0 0.0 0.001275380063258851 0.0 0.0 0.001275380063258851
3 4.32828404084846 31.82785132411321 23.177983372510482 15.735255526211468 8.973707572822038 5.276352449176722 4.204331634105896 3.803440516803368 3.6459874595898403 3.577869470298882 3.766589801285308 3.76212304788918 3.6850715518059642 3.7330891508143447 3.7163388255788634 3.7945070100111113 3.754306229445955 3.7062886304375744 3.468434012093735 3.5655858984595286 3.3455982937002027 3.224995952004735 3.003891658896377 2.7705037939486656 2.690102232818354 2.6543682056493263 2.4656478746628996 2.2713441019313123 2.119474486462946 1.991055326324253 1.9095370768449087 1.7855846701023446 1.6850827186894548 1.5577802468997939 1.4572782954869041 1.5108793362404453 1.3299758236972434 1.2774914712927343 1.112221595635982 1.163589259691459 1.0362867879017985 0.9905025655914819 0.9369015248379405 0.8821837957353673 0.7760984025773167 0.7906153511147342 0.707980413286358 0.7102137899844222 0.6085951502225001 0.5717444347044405 0.5393604725825093 0.5103265755076745 0.4768259250367111 0.40200780565155975 0.41094131244381665 0.38525748041607805 0.37297390857672486 0.35175682994511476 0.30485591928576616 0.303739230936734 0.28587221735222024 0.29368903579544503 0.24120468339093584 0.23003779990061474 0.21775422806126155 0.20323727952384407 0.2132874746651331 0.1831368892412661 0.15521968051546334 0.16303649895868813 0.14740286207223857 0.1306525368367569 0.1172522766483716 0.1273024717896606 0.10496870480901839 0.0960351980167615 0.1094354582051468 0.08821837957353672 0.09826857471482572 0.10161863976192204 0.0871016912245046 0.08151824947934407 0.07705149608321561 0.05806779414966974 0.06253454754579818 0.06588461259289452 0.06476792424386241 0.052484352404509195 0.061417859196766074 0.046900910659348635 0.05025097570644497 0.03573402716902753 0.04801759900838075 0.02903389707483487 0.05136766405547708 0.044667533961284416 0.04243415726322019 0.02456714367870643 0.040200780565155976 0.03908409221612386 0.03685071551805964 0.020100390282577988 0.026800520376770647 0.027917208725802757 0.032383962121931203 0.02456714367870643 0.02456714367870643 0.020100390282577988 0.021217078631610094 0.027917208725802757 0.020100390282577988 0.022333766980642208 0.018983701933545875 0.01675032523548166 0.023450455329674318 0.020100390282577988 0.01675032523548166 0.011166883490321104 0.01675032523548166 0.021217078631610094 0.015633636886449545 0.015633636886449545 0.011166883490321104 0.02456714367870643 0.015633636886449545 0.015633636886449545 0.013400260188385324 0.021217078631610094 0.007816818443224773 0.005583441745160552 0.0011166883490321103 0.005583441745160552 0.005583441745160552 0.007816818443224773 0.008933506792256882 0.005583441745160552 0.0011166883490321103 0.006700130094192662 0.003350065047096331 0.005583441745160552 0.003350065047096331 0.007816818443224773 0.007816818443224773 0.006700130094192662 0.0022333766980642206 0.010050195141288994 0.006700130094192662 0.003350065047096331 0.0 0.0011166883490321103 0.0022333766980642206 0.0022333766980642206 0.0022333766980642206 0.0022333766980642206 0.0 0.0011166883490321103 0.0 0.0011166883490321103 0.0011166883490321103 0.0011166883490321103 0.0011166883490321103 0.0011166883490321103 0.0 0.0022333766980642206 0.0 0.0011166883490321103 0.0011166883490321103 0.0 0.0011166883490321103 0.0011166883490321103 0.0022333766980642206 0.0011166883490321103 0.0 0.0011166883490321103 0.0 0.0 0.0 0.0 0.0 0.0011166883490321103 0.0 0.0022333766980642206 0.0 0.0 0.0 0.0 0.0 0.0011166883490321103 0.0 0.0 0.0 0.0 0.0 0.0 0.0 0.0011166883490321103 0.0 0.0 0.0 0.0011166883490321103
